tree
version=v4
num_class=1
num_tree_per_iteration=1
label_index=0
max_feature_idx=540
objective=binary sigmoid:1
feature_names=numero_de_cliente foto_mes active_quarter cliente_vip internet cliente_edad cliente_antiguedad mrentabilidad mrentabilidad_annual mcomisiones mactivos_margen mpasivos_margen cproductos tcuentas ccuenta_corriente mcuenta_corriente_adicional mcuenta_corriente ccaja_ahorro mcaja_ahorro mcaja_ahorro_adicional mcaja_ahorro_dolares cdescubierto_preacordado ctarjeta_debito ctarjeta_debito_transacciones mautoservicio ctarjeta_visa ctarjeta_visa_transacciones mtarjeta_visa_consumo ctarjeta_master ctarjeta_master_transacciones mtarjeta_master_consumo cprestamos_personales mprestamos_personales cprestamos_prendarios mprestamos_prendarios cprestamos_hipotecarios mprestamos_hipotecarios cplazo_fijo mplazo_fijo_dolares mplazo_fijo_pesos cinversion1 minversion1_pesos minversion1_dolares cinversion2 minversion2 cseguro_vida cseguro_auto cseguro_vivienda cseguro_accidentes_personales ccaja_seguridad cpayroll_trx mpayroll mpayroll2 cpayroll2_trx ccuenta_debitos_automaticos mcuenta_debitos_automaticos ctarjeta_visa_debitos_automaticos mttarjeta_visa_debitos_automaticos ctarjeta_master_debitos_automaticos mttarjeta_master_debitos_automaticos cpagodeservicios mpagodeservicios cpagomiscuentas mpagomiscuentas ccajeros_propios_descuentos mcajeros_propios_descuentos ctarjeta_visa_descuentos mtarjeta_visa_descuentos ctarjeta_master_descuentos mtarjeta_master_descuentos ccomisiones_mantenimiento mcomisiones_mantenimiento ccomisiones_otras mcomisiones_otras cforex cforex_buy mforex_buy cforex_sell mforex_sell ctransferencias_recibidas mtransferencias_recibidas ctransferencias_emitidas mtransferencias_emitidas cextraccion_autoservicio mextraccion_autoservicio ccheques_depositados mcheques_depositados ccheques_emitidos mcheques_emitidos ccheques_depositados_rechazados mcheques_depositados_rechazados ccheques_emitidos_rechazados mcheques_emitidos_rechazados tcallcenter ccallcenter_transacciones thomebanking chomebanking_transacciones ccajas_transacciones ccajas_consultas ccajas_depositos ccajas_extracciones ccajas_otras catm_trx matm catm_trx_other matm_other ctrx_quarter tmobile_app cmobile_app_trx Master_delinquency Master_status Master_mfinanciacion_limite Master_Fvencimiento Master_Finiciomora Master_msaldototal Master_msaldopesos Master_msaldodolares Master_mconsumospesos Master_mconsumosdolares Master_mlimitecompra Master_madelantopesos Master_madelantodolares Master_fultimo_cierre Master_mpagado Master_mpagospesos Master_mpagosdolares Master_fechaalta Master_mconsumototal Master_cconsumos Master_cadelantosefectivo Master_mpagominimo Visa_delinquency Visa_status Visa_mfinanciacion_limite Visa_Fvencimiento Visa_Finiciomora Visa_msaldototal Visa_msaldopesos Visa_msaldodolares Visa_mconsumospesos Visa_mconsumosdolares Visa_mlimitecompra Visa_madelantopesos Visa_madelantodolares Visa_fultimo_cierre Visa_mpagado Visa_mpagospesos Visa_mpagosdolares Visa_fechaalta Visa_mconsumototal Visa_cconsumos Visa_cadelantosefectivo Visa_mpagominimo mcuentas_saldo_rank saldo_caja_ahorro_total saldo_cuenta_corriente_total saldo_cuentas_premium mtarjeta_total_consumo mprestamos_totales minversiones_totales mpayroll_totales mdebitos_automaticos_totales mpagos_servicios_totales mdescuentos_totales mcomisiones_totales mentradas_dinero_totales msalidas_dinero_totales msaldo_total_tarjetas mtarjeta_master_consumos_total mtarjeta_visa_consumos_total mtarjetas_pagado_total mtarjetas_pagominimo_total mlimite_total_tarjetas status_tarjetas_combined total_canales_digitales total_servicios_bancarios cant_cuentas_tarjetas cant_prestamos cant_inversiones cant_seguros cant_depos_haberes cant_transacciones_tarjeta cant_transf_extracciones cant_pagos cant_consumos_tarjetas cant_adelantes_tarjetas cant_debitos_automaticos cant_descuentos cant_comisiones mcuentas_saldo_is_negative max_delinquency_tarjetas max_dias_mora_tarjetas tarjetas_antiguedad master_saldo_pendiente visa_saldo_pendiente active_quarter_cambio_lag_1 active_quarter_cambio_lag_2 cliente_vip_cambio_lag_1 cliente_vip_cambio_lag_2 internet_cambio_lag_1 internet_cambio_lag_2 tcuentas_cambio_lag_1 tcuentas_cambio_lag_2 cdescubierto_preacordado_cambio_lag_1 cdescubierto_preacordado_cambio_lag_2 ccaja_seguridad_cambio_lag_1 ccaja_seguridad_cambio_lag_2 tcallcenter_cambio_lag_1 tcallcenter_cambio_lag_2 thomebanking_cambio_lag_1 thomebanking_cambio_lag_2 tmobile_app_cambio_lag_1 tmobile_app_cambio_lag_2 Master_delinquency_cambio_lag_1 Master_delinquency_cambio_lag_2 Master_status_cambio_lag_1 Master_status_cambio_lag_2 Visa_delinquency_cambio_lag_1 Visa_delinquency_cambio_lag_2 Visa_status_cambio_lag_1 Visa_status_cambio_lag_2 mcuentas_saldo_slope_ult_4m cproductos_lag_1 cproductos_lag_2 cproductos_lag_3 mcuentas_saldo_lag_1 mcuentas_saldo_lag_2 mcuentas_saldo_lag_3 cproductos_delta_lag_1 cproductos_delta_lag_2 cproductos_delta_lag_3 mflujo_dinero_total mtarjetas_consumos_totales cant_productos_financieros cant_tansacciones_tot cant_operaciones_tarjetas saldo_caja_ahorro_total_is_negative saldo_cuenta_corriente_total_is_negative saldo_cuentas_premium_is_negative mtarjeta_total_consumo_slope_ult_4m cant_transacciones_tarjeta_slope_ult_4m msaldo_total_tarjetas_slope_ult_4m mtarjetas_pagominimo_total_slope_ult_4m total_servicios_bancarios_slope_ult_4m cant_transf_extracciones_slope_ult_4m cant_consumos_tarjetas_slope_ult_4m cant_adelantes_tarjetas_slope_ult_4m cant_debitos_automaticos_slope_ult_4m cant_descuentos_slope_ult_4m cant_comisiones_slope_ult_4m mcuentas_saldo_rank_lag_1 mcuentas_saldo_rank_lag_2 mcuentas_saldo_rank_lag_3 saldo_caja_ahorro_total_lag_1 saldo_caja_ahorro_total_lag_2 saldo_caja_ahorro_total_lag_3 saldo_cuenta_corriente_total_lag_1 saldo_cuenta_corriente_total_lag_2 saldo_cuenta_corriente_total_lag_3 saldo_cuentas_premium_lag_1 saldo_cuentas_premium_lag_2 saldo_cuentas_premium_lag_3 mtarjeta_total_consumo_lag_1 mtarjeta_total_consumo_lag_2 mtarjeta_total_consumo_lag_3 mprestamos_totales_lag_1 mprestamos_totales_lag_2 mprestamos_totales_lag_3 minversiones_totales_lag_1 minversiones_totales_lag_2 minversiones_totales_lag_3 mpayroll_totales_lag_1 mpayroll_totales_lag_2 mpayroll_totales_lag_3 mdebitos_automaticos_totales_lag_1 mdebitos_automaticos_totales_lag_2 mdebitos_automaticos_totales_lag_3 mpagos_servicios_totales_lag_1 mpagos_servicios_totales_lag_2 mpagos_servicios_totales_lag_3 mdescuentos_totales_lag_1 mdescuentos_totales_lag_2 mdescuentos_totales_lag_3 mcomisiones_totales_lag_1 mcomisiones_totales_lag_2 mcomisiones_totales_lag_3 mentradas_dinero_totales_lag_1 mentradas_dinero_totales_lag_2 mentradas_dinero_totales_lag_3 msalidas_dinero_totales_lag_1 msalidas_dinero_totales_lag_2 msalidas_dinero_totales_lag_3 msaldo_total_tarjetas_lag_1 msaldo_total_tarjetas_lag_2 msaldo_total_tarjetas_lag_3 mtarjeta_master_consumos_total_lag_1 mtarjeta_master_consumos_total_lag_2 mtarjeta_master_consumos_total_lag_3 mtarjeta_visa_consumos_total_lag_1 mtarjeta_visa_consumos_total_lag_2 mtarjeta_visa_consumos_total_lag_3 mtarjetas_pagado_total_lag_1 mtarjetas_pagado_total_lag_2 mtarjetas_pagado_total_lag_3 mtarjetas_pagominimo_total_lag_1 mtarjetas_pagominimo_total_lag_2 mtarjetas_pagominimo_total_lag_3 mlimite_total_tarjetas_lag_1 mlimite_total_tarjetas_lag_2 mlimite_total_tarjetas_lag_3 status_tarjetas_combined_lag_1 status_tarjetas_combined_lag_2 status_tarjetas_combined_lag_3 total_canales_digitales_lag_1 total_canales_digitales_lag_2 total_canales_digitales_lag_3 total_servicios_bancarios_lag_1 total_servicios_bancarios_lag_2 total_servicios_bancarios_lag_3 cant_cuentas_tarjetas_lag_1 cant_cuentas_tarjetas_lag_2 cant_cuentas_tarjetas_lag_3 cant_prestamos_lag_1 cant_prestamos_lag_2 cant_prestamos_lag_3 cant_inversiones_lag_1 cant_inversiones_lag_2 cant_inversiones_lag_3 cant_seguros_lag_1 cant_seguros_lag_2 cant_seguros_lag_3 cant_depos_haberes_lag_1 cant_depos_haberes_lag_2 cant_depos_haberes_lag_3 cant_transacciones_tarjeta_lag_1 cant_transacciones_tarjeta_lag_2 cant_transacciones_tarjeta_lag_3 cant_transf_extracciones_lag_1 cant_transf_extracciones_lag_2 cant_transf_extracciones_lag_3 cant_pagos_lag_1 cant_pagos_lag_2 cant_pagos_lag_3 cant_consumos_tarjetas_lag_1 cant_consumos_tarjetas_lag_2 cant_consumos_tarjetas_lag_3 cant_adelantes_tarjetas_lag_1 cant_adelantes_tarjetas_lag_2 cant_adelantes_tarjetas_lag_3 cant_debitos_automaticos_lag_1 cant_debitos_automaticos_lag_2 cant_debitos_automaticos_lag_3 cant_descuentos_lag_1 cant_descuentos_lag_2 cant_descuentos_lag_3 cant_comisiones_lag_1 cant_comisiones_lag_2 cant_comisiones_lag_3 master_saldo_pendiente_lag_1 master_saldo_pendiente_lag_2 master_saldo_pendiente_lag_3 visa_saldo_pendiente_lag_1 visa_saldo_pendiente_lag_2 visa_saldo_pendiente_lag_3 max_delinquency_tarjetas_lag_1 max_delinquency_tarjetas_lag_2 max_delinquency_tarjetas_lag_3 max_dias_mora_tarjetas_lag_1 max_dias_mora_tarjetas_lag_2 max_dias_mora_tarjetas_lag_3 tarjetas_antiguedad_lag_1 tarjetas_antiguedad_lag_2 tarjetas_antiguedad_lag_3 mcuentas_saldo_slope_ult_4m_lag_1 mcuentas_saldo_slope_ult_4m_lag_2 mcuentas_saldo_slope_ult_4m_lag_3 mcuentas_saldo_rank_delta_lag_1 mcuentas_saldo_rank_delta_lag_2 mcuentas_saldo_rank_delta_lag_3 saldo_caja_ahorro_total_delta_lag_1 saldo_caja_ahorro_total_delta_lag_2 saldo_caja_ahorro_total_delta_lag_3 saldo_cuenta_corriente_total_delta_lag_1 saldo_cuenta_corriente_total_delta_lag_2 saldo_cuenta_corriente_total_delta_lag_3 saldo_cuentas_premium_delta_lag_1 saldo_cuentas_premium_delta_lag_2 saldo_cuentas_premium_delta_lag_3 mtarjeta_total_consumo_delta_lag_1 mtarjeta_total_consumo_delta_lag_2 mtarjeta_total_consumo_delta_lag_3 mprestamos_totales_delta_lag_1 mprestamos_totales_delta_lag_2 mprestamos_totales_delta_lag_3 minversiones_totales_delta_lag_1 minversiones_totales_delta_lag_2 minversiones_totales_delta_lag_3 mpayroll_totales_delta_lag_1 mpayroll_totales_delta_lag_2 mpayroll_totales_delta_lag_3 mdebitos_automaticos_totales_delta_lag_1 mdebitos_automaticos_totales_delta_lag_2 mdebitos_automaticos_totales_delta_lag_3 mpagos_servicios_totales_delta_lag_1 mpagos_servicios_totales_delta_lag_2 mpagos_servicios_totales_delta_lag_3 mdescuentos_totales_delta_lag_1 mdescuentos_totales_delta_lag_2 mdescuentos_totales_delta_lag_3 mcomisiones_totales_delta_lag_1 mcomisiones_totales_delta_lag_2 mcomisiones_totales_delta_lag_3 mentradas_dinero_totales_delta_lag_1 mentradas_dinero_totales_delta_lag_2 mentradas_dinero_totales_delta_lag_3 msalidas_dinero_totales_delta_lag_1 msalidas_dinero_totales_delta_lag_2 msalidas_dinero_totales_delta_lag_3 msaldo_total_tarjetas_delta_lag_1 msaldo_total_tarjetas_delta_lag_2 msaldo_total_tarjetas_delta_lag_3 mtarjeta_master_consumos_total_delta_lag_1 mtarjeta_master_consumos_total_delta_lag_2 mtarjeta_master_consumos_total_delta_lag_3 mtarjeta_visa_consumos_total_delta_lag_1 mtarjeta_visa_consumos_total_delta_lag_2 mtarjeta_visa_consumos_total_delta_lag_3 mtarjetas_pagado_total_delta_lag_1 mtarjetas_pagado_total_delta_lag_2 mtarjetas_pagado_total_delta_lag_3 mtarjetas_pagominimo_total_delta_lag_1 mtarjetas_pagominimo_total_delta_lag_2 mtarjetas_pagominimo_total_delta_lag_3 mlimite_total_tarjetas_delta_lag_1 mlimite_total_tarjetas_delta_lag_2 mlimite_total_tarjetas_delta_lag_3 status_tarjetas_combined_delta_lag_1 status_tarjetas_combined_delta_lag_2 status_tarjetas_combined_delta_lag_3 total_canales_digitales_delta_lag_1 total_canales_digitales_delta_lag_2 total_canales_digitales_delta_lag_3 total_servicios_bancarios_delta_lag_1 total_servicios_bancarios_delta_lag_2 total_servicios_bancarios_delta_lag_3 cant_cuentas_tarjetas_delta_lag_1 cant_cuentas_tarjetas_delta_lag_2 cant_cuentas_tarjetas_delta_lag_3 cant_prestamos_delta_lag_1 cant_prestamos_delta_lag_2 cant_prestamos_delta_lag_3 cant_inversiones_delta_lag_1 cant_inversiones_delta_lag_2 cant_inversiones_delta_lag_3 cant_seguros_delta_lag_1 cant_seguros_delta_lag_2 cant_seguros_delta_lag_3 cant_depos_haberes_delta_lag_1 cant_depos_haberes_delta_lag_2 cant_depos_haberes_delta_lag_3 cant_transacciones_tarjeta_delta_lag_1 cant_transacciones_tarjeta_delta_lag_2 cant_transacciones_tarjeta_delta_lag_3 cant_transf_extracciones_delta_lag_1 cant_transf_extracciones_delta_lag_2 cant_transf_extracciones_delta_lag_3 cant_pagos_delta_lag_1 cant_pagos_delta_lag_2 cant_pagos_delta_lag_3 cant_consumos_tarjetas_delta_lag_1 cant_consumos_tarjetas_delta_lag_2 cant_consumos_tarjetas_delta_lag_3 cant_adelantes_tarjetas_delta_lag_1 cant_adelantes_tarjetas_delta_lag_2 cant_adelantes_tarjetas_delta_lag_3 cant_debitos_automaticos_delta_lag_1 cant_debitos_automaticos_delta_lag_2 cant_debitos_automaticos_delta_lag_3 cant_descuentos_delta_lag_1 cant_descuentos_delta_lag_2 cant_descuentos_delta_lag_3 cant_comisiones_delta_lag_1 cant_comisiones_delta_lag_2 cant_comisiones_delta_lag_3 master_saldo_pendiente_delta_lag_1 master_saldo_pendiente_delta_lag_2 master_saldo_pendiente_delta_lag_3 visa_saldo_pendiente_delta_lag_1 visa_saldo_pendiente_delta_lag_2 visa_saldo_pendiente_delta_lag_3 max_delinquency_tarjetas_delta_lag_1 max_delinquency_tarjetas_delta_lag_2 max_delinquency_tarjetas_delta_lag_3 max_dias_mora_tarjetas_delta_lag_1 max_dias_mora_tarjetas_delta_lag_2 max_dias_mora_tarjetas_delta_lag_3 tarjetas_antiguedad_delta_lag_1 tarjetas_antiguedad_delta_lag_2 tarjetas_antiguedad_delta_lag_3 mcuentas_saldo_slope_ult_4m_delta_lag_1 mcuentas_saldo_slope_ult_4m_delta_lag_2 mcuentas_saldo_slope_ult_4m_delta_lag_3 total_productos_bancarios cant_movimientos cant_productos_financieros_slope_ult_4m cant_tansacciones_tot_slope_ult_4m cant_operaciones_tarjetas_slope_ult_4m mflujo_dinero_total_slope_ult_4m mtarjetas_consumos_totales_slope_ult_4m cant_productos_financieros_lag_1 cant_productos_financieros_lag_2 cant_productos_financieros_lag_3 cant_tansacciones_tot_lag_1 cant_tansacciones_tot_lag_2 cant_tansacciones_tot_lag_3 cant_operaciones_tarjetas_lag_1 cant_operaciones_tarjetas_lag_2 cant_operaciones_tarjetas_lag_3 cant_productos_financieros_delta_lag_1 cant_productos_financieros_delta_lag_2 cant_productos_financieros_delta_lag_3 cant_tansacciones_tot_delta_lag_1 cant_tansacciones_tot_delta_lag_2 cant_tansacciones_tot_delta_lag_3 cant_operaciones_tarjetas_delta_lag_1 cant_operaciones_tarjetas_delta_lag_2 cant_operaciones_tarjetas_delta_lag_3 total_productos_bancarios_slope_ult_4m cant_movimientos_slope_ult_4m total_productos_bancarios_lag_1 total_productos_bancarios_lag_2 total_productos_bancarios_lag_3 cant_movimientos_lag_1 cant_movimientos_lag_2 cant_movimientos_lag_3 total_productos_bancarios_delta_lag_1 total_productos_bancarios_delta_lag_2 total_productos_bancarios_delta_lag_3 cant_movimientos_delta_lag_1 cant_movimientos_delta_lag_2 cant_movimientos_delta_lag_3
feature_infos=[249231391:1587134754] [201901:202102] [0:1] [0:1] [0:3] [18:101] [1:374] [-146419.45000000001:1729104.6200000001] [-696633.79000000004:2603526.1600000001] [-20331.830000000002:330481.10999999999] [-127146.02:398712.38] [-37971.040000000001:1473863.4399999999] [3:16] [1:2] [1:2] [-6650.3800000000001:8492.9699999999993] [-3690560.3199999998:4437150.9400000004] [2:8] [-12409.879999999999:91754231.969999999] [-829.65999999999997:992566.95999999996] [-30989.200000000001:89257628.689999998] [0:1] [0:11] [0:174] [0:471125.89000000001] [0:3] [0:219] [0:1777240.8799999999] [0:2] [0:125] [0:2005548.46] [0:189] [0:3683220] [0:13] [0:3483771.3599999999] [0:13] [0:15619340.539999999] [0:76] [0:25253121.649999999] [0:10005951.619999999] [0:12] [0:29931255.710000001] [0:9100757.1400000006] [0:32] [0:183005859.52000001] [0:6] [0:3] [0:4] [0:2] [0:3] [0:48] [0:32800484.32] [-79575.729999999996:461201.31] [0:6] [0:55] [0:1209009.5700000001] [0:29] [0:148724.64000000001] [0:26] [0:111481.5] [0:38] [0:426591.66999999998] [0:157] [0:5364778.4100000001] [0:22] [0:10716.51] [0:16] [0:43983.540000000001] [0:14] [0:41890.580000000002] [0:30] [-12286.91:4229.3400000000001] [0:208] [-20331.830000000002:330481.10999999999] [0:614] [0:23] [0:130998.02] [0:614] [0:406624.34000000003] [0:1278] [0:144565082.75] [0:179] [0:91730088.739999995] [0:74] [0:1173000] [0:216] [0:36550680] [0:218] [0:18834015.300000001] [0:23] [0:2346000] [0:102] [0:9149400] [0:1] [0:196] [0:1] [0:1625] [0:1] [0:70] [0:40] [0:20] [0:148] [0:74] [0:1173000] [0:51] [0:269790] [0:2018] [0:1] [0:1416] [0:1] [0:9] [0:97424406.5] [-2914968:4690] [-1:563] [-375767.73999999999:6439287.0599999996] [-732183.48999999999:6439287.0599999996] [-155444.72:1873113.55] [-13723.74:1982259.76] [0:33120.459999999999] [985.32000000000005:4715120.7599999998] [0:334305] [0:417.88] [-3:4478] [0:1188122.9199999999] [-1636177.48:52726.349999999999] [0:11267.99] [1:7571] [-13723.74:1982259.76] [0:104] [0:158] [0:6439277.3399999999] [0:1] [0:9] [0:97424406.5] [-2914968:5115] [0:178] [-327476.75:5241555.3399999999] [-209870.34:6148344.4100000001] [-252046.42999999999:1448872.0700000001] [-68747.669999999998:1776586.6299999999] [0:24951.23] [674.47000000000003:4715120.7599999998] [0:129616.5] [0:512.39999999999998] [-3:4954] [0:1836209.05] [-1258183.03:312799.21000000002] [0:14416.6] [1:12407] [-68747.669999999998:1776586.6299999999] [0:195] [0:80] [0:6148338.1500000004] [0:0.98206365112286675] [-28343:91754232.920000002] [-3690560.3199999998:4437150.9400000004] [-3690560.3199999998:91754231.969999999] [0:3148875.1399999997] [0:15619340.539999999] [0:183005859.52000001] [-79575.729999999996:32800484.32] [0:1280545.76] [0:5364778.4100000001] [0:43983.540000000001] [-23314.41:332293.97999999998] [0:144565082.75] [0:91760586.739999995] [-325588.71999999997:9641057.6099999994] [-13723.74:1982259.76] [-68747.669999999998:1776586.6299999999] [0:1836209.05] [0:10194953.550000001] [0:199445389.89999998] [0:18] [0:3] [1:5] [3:16] [0:189] [0:78] [0:8] [0:48] [0:249] [0:1631] [0:157] [0:195] [0:238] [0:55] [0:22] [0:208] [0:1] [0:1] [-1:563] [1:12407] [-897763.56999999995:1982259.76] [-984170.45999999996:1430702.3100000001] [0:1] [0:1] [0:1] [0:1] [0:1] [0:1] [0:1] [0:1] [0:1] [0:1] [0:1] [0:1] [0:1] [0:1] [0:1] [0:1] [0:1] [0:1] [0:1] [0:1] [0:1] [0:1] [0:1] [0:1] [0:1] [0:1] [-23327136.324999999:36687851.251999997] [3:16] [3:16] [3:16] [-2794619.8500000001:91779267.650000006] [-2580774.2200000002:91779267.650000006] [-2580774.2200000002:91779267.650000006] [-8:4] [-8:5] [-9:5] [0:144565082.75] [-68315.809999999998:2841569.2000000002] [0:189] [0:1674] [0:245] [0:1] [0:1] [0:1] [-1035972.8139999997:978893.96999999997] [-146:124] [-2493223.4999999995:2333535.5249999999] [-2665959.2099999995:2683691.4510000004] [-1.1000000000000001:1] [-610.00000000000011:830] [-142:87] [-83.799999999999997:61.299999999999997] [-44:32] [-22.800000000000001:9] [-71:53.5] [0:0.98206365112286675] [0:0.98206365112286675] [0:0.98206365112286675] [-28343:91754232.920000002] [-28343:91754232.920000002] [-28343:91754232.920000002] [-2580774.2200000002:4437150.9400000004] [-2580774.2200000002:4437150.9400000004] [-2580774.2200000002:4437150.9400000004] [-2580774.2200000002:91754231.969999999] [-2580774.2200000002:91754231.969999999] [-2580774.2200000002:91754231.969999999] [0:3148875.1399999997] [0:3148875.1399999997] [0:2411612.5999999996] [0:15222782.800000001] [0:14879547.09] [0:14480033.98] [0:42480131.850000001] [0:42480131.850000001] [0:42480131.850000001] [-79575.729999999996:32800484.32] [-40660.870000000003:32800484.32] [-40660.870000000003:24954759.760000002] [0:1294111.0899999999] [0:1294111.0899999999] [0:1294111.0899999999] [0:5364778.4100000001] [0:5364778.4100000001] [0:7351699.4199999999] [0:43983.540000000001] [0:43983.540000000001] [0:43983.540000000001] [-23314.41:332293.97999999998] [-19406.030000000002:332293.97999999998] [-19406.030000000002:332293.97999999998] [0:91748541] [0:91748541] [0:91748541] [0:91760586.739999995] [0:91760586.739999995] [0:19438111.309999999] [-473570.45000000001:8490519.2599999998] [-473570.45000000001:7541182.1600000001] [-473570.45000000001:4153209.77] [-13723.74:1982259.76] [-13723.74:1982259.76] [-13723.74:1677033.6000000001] [-68747.669999999998:1430702.3100000001] [-68747.669999999998:1430702.3100000001] [-68747.669999999998:1430702.3100000001] [0:1462343.9099999999] [0:1412942.8999999999] [0:850412.70999999996] [0:6129370.7400000002] [0:5175616.1699999999] [0:1975355.46] [0:199445389.89999998] [0:199445389.89999998] [0:199445389.89999998] [0:18] [0:18] [0:18] [0:3] [0:3] [0:3] [1:5] [1:5] [1:5] [3:16] [3:16] [3:16] [0:187] [0:182] [0:156] [0:78] [0:68] [0:68] [0:8] [0:8] [0:8] [0:48] [0:48] [0:37] [0:249] [0:249] [0:249] [0:1709] [0:1709] [0:1724] [0:157] [0:157] [0:157] [0:195] [0:195] [0:195] [0:238] [0:238] [0:238] [0:55] [0:55] [0:55] [0:22] [0:22] [0:76] [0:206] [0:204] [0:200] [-740629.12000000011:1982259.76] [-740629.12000000011:1982259.76] [-246042.01000000001:1677033.6000000001] [-984170.45999999996:1430702.3100000001] [-873793.41999999993:1430702.3100000001] [-873793.41999999993:1430702.3100000001] [0:1] [0:1] [0:1] [-1:563] [-1:532] [0:504] [1:12379] [1:12348] [1:12317] [-23327136.324999999:36687851.251999997] [-23327136.324999999:36687851.251999997] [-23327136.324999999:36687851.251999997] [-0.96057904199600197:0.94850384553100464] [-0.96154217336590064:0.95464851771256543] [-0.95962505556396771:0.95916897031456083] [-54403812.650000006:82845438.030000001] [-54426384.200000003:91750302.320000008] [-62376058.340000004:91716877.879999995] [-3978826.9300000006:4241797.8800000008] [-3687197.71:3784580.2700000005] [-3947721.0500000003:4028813.1200000006] [-85844180.709999993:82848543.439999998] [-91746634.039999992:91753460.939999998] [-91743555.799999997:91718074.900000006] [-3124890.3399999999:2090801.5599999996] [-3148875.1399999997:2828064.0999999996] [-2411612.5999999996:2467001.0599999996] [-5487778.4299999997:5652452.4000000004] [-6228216.7400000002:5772117.4299999997] [-6228216.7400000002:5983076.5700000003] [-42480123.270000003:25289421.050000001] [-42480122.980000004:25289421.050000001] [-42480122.640000001:25289421.050000001] [-32800484.32:32712148.740000002] [-32800484.32:32712148.73] [-24954759.760000002:32712148.740000002] [-1205416.3999999999:679884.34999999998] [-1218981.7299999997:704148.23999999999] [-1216630.5799999998:1198738] [-5364778.4100000001:5364778.4100000001] [-5364778.4100000001:5364778.4100000001] [-7222669.4199999999:5364778.4100000001] [-43384.68:43802.669999999998] [-41890.580000000002:43983.540000000001] [-43939.910000000003:43983.540000000001] [-263595.77999999997:222704.32999999999] [-328609.54999999999:158723.12] [-331094.01000000001:149648.75] [-91693410:144565082.75] [-90979545.659999996:144565082.75] [-91748541:144565082.75] [-91730088.739999995:91727742.739999995] [-91716012.739999995:91727742.739999995] [-19159121.48:91689620.239999995] [-3539613.2999999998:3387972.3900000001] [-2895558.96:5699790.5199999996] [-2614658.1699999999:6649127.6199999992] [-1982259.76:1522536.6700000002] [-1982259.76:1827762.8300000001] [-1677033.6000000001:1563120.7] [-1427460.1400000001:1776258.1899999999] [-1427403.55:1730683.8099999998] [-1426540.9300000002:1729479.6199999999] [-1462343.9099999999:1836209.05] [-1412942.8999999999:1836209.05] [-772318.43999999994:1788100.75] [-3896295.4500000002:4350762.5700000003] [-2655918.3300000001:5284669.9800000004] [-1975355.46:8627719.9800000004] [-190604734.31999996:196102904.23999998] [-190971854.67999998:196457737.85999998] [-190642438.55999997:196608145.87999997] [-18:18] [-18:18] [-18:18] [-3:3] [-3:3] [-3:3] [-2:2] [-3:2] [-3:2] [-5:6] [-5:6] [-5:6] [-60:26] [-61:36] [-62:47] [-22:15] [-24:15] [-29:25] [-5:4] [-7:4] [-6:4] [-31:41] [-42:30] [-34:42] [-215:178] [-209:170] [-197:174] [-1139:1278] [-1340:1423] [-1551:1444] [-156:156] [-155:156] [-156:113] [-158:111] [-163:130] [-138:130] [-124:76] [-238:141] [-238:179] [-55:53] [-54:53] [-55:55] [-21:21] [-21:21] [-76:20] [-155:170] [-145:180] [-165:175] [-1982259.76:1573150.5099999998] [-1982259.76:1827762.8300000001] [-1677033.6000000001:1563120.7] [-1427460.1400000001:1427460.1400000001] [-1427403.55:1365018.4099999999] [-1426540.9300000002:1427452.23] [-1:1] [-1:1] [-1:1] [-61:65] [-56:95] [-61:92] [-8212:4836] [-8182:4866] [-8151:4897] [-38472764.842999995:15229199.864999998] [-58783257.022999994:36687751.050999999] [-58635628.596000001:36694201.156999998] [3:198] [0:1667] [-32:15.199999999999999] [-610.5:813] [-142:87] [-18281105.391999997:43369524.825000003] [-981758.28500000015:922285.06000000006] [0:187] [0:182] [0:156] [0:1742] [0:1742] [0:1763] [0:245] [0:245] [0:245] [-60:26] [-61:36] [-62:47] [-1141:1278] [-1331:1430] [-1546:1452] [-158:111] [-241:131] [-243:169] [-32:15.199999999999999] [-608.50000000000011:820] [3:196] [3:190] [3:164] [0:1741] [0:1741] [0:1759] [-60:26] [-61:36] [-62:47] [-1141:1278] [-1340:1422] [-1540:1444]
tree_sizes=3540 3560 3553 3599 3529 3601 3628 3608 3610 3578 3579 3637 3627 3600 3516 3587 3586 3542 3631 3555 3598 3602 3545 3591 3628 3616 3628 3520 3604 3551 3580 3581 3509 3647 3475 3588 3490 3588 3538 3658 3431 3580 3546 3535 3571 3642 3585 3562 3593 3433 3542 3489 3601 3490 3327 3531 3501 3511 3497 3518 3510 3564 3489 3536 3338 3433 3531 3448 3399 3500 3538 3576 3351 3582 3338 3445 3480 3427 3514 3545 3467 3433 3433 3405 3596 3433 3336 3440 3409 3631 3401 3457 3465 3369 3418 3410 3548 3309 3339 3365 3529 3574 3499 3300 3454 3243 3378 3432 3483 3316 3423 3407 3429 3335 3266 3462 3607 2833 3464 3500 3470 3641 3315 3552 3475 3495 3351 3442 3559 3309 3178 3363 3383 3506 3338 3464 3361 2684 3519 3590 3523 3270 3424 3469 3420 3173 3546 3448 3581 3396 3415 2824 3407 2781 3570 3371 3352 3432 2860 3473 3482 3509 3374 3590 3530 3335 3395 3249 3553 3520 3391 3298 3465 3447 3437 3333 3392 3012 3505 3277 3367 3550 3223 3393 3416 3571 3293 3206 3399 3456 3482 3340 3233 3176 3324 3362 3489 3275 3497 3493 3544 3276 3262 3007 3451 3346 3527 3489 3033 3450 3292 3568 2974 3244 3300 3588 3349 3424 3560 3423 3424 3304 2698 3448 3564 3614 3365 3454 3577 3634 3452 3385 3375 3521 3070 3526 3164 3408 3484 3310 3526 3397 3402 3352 3405 3279 3280 3590 3348 3245 3086 3360 3359 3564 3433 3122 3446 3498 3374 3427 2570 3297 3308 3525 3594 3330 3345 2356 3313 3499 3528 3390 3352 3450 3347 3322 3351 3266 3526 3506 3560 3545 3548 3301 3602 3449 3461 3360 2856 3242 3397 3281 3322 3495 3364 3508 3560 3378 3591 3496 3394 3427 3442 3425 3565 3348 3341 3251 3534 3440 3434 3223 3202 3343 3491 3451 3466 3494 3363 3442 3255 3324 3446 3546 3565 3350 2838 3427 3318 3492 3508 3513 3380 2952 3463 3532 3350 3027 3392 3407 3361 3325 3294 3447 3266 3329 3449 3520 3521 3537 3349 3411 3456 3379 2850 3610 2834 3347 3380 3371 3354 3536 3434 3471 3484 3466 3436 3497 3288 3311 3350 3241 3505 3364 3399 3340 3457 3114 3310 3425 3006 3465 2749 3423 3479 3273 3348 3248 3596 3327 3531 3413 3359 3542 3373 3372 3440 3324 3542 3401 3392 3410 3333 2698 3245 3322 3444 3389 3417 3412 3304 2872 2428 3601 3452 3377 3494 3456 3554 3478 3468 3005 3359 3431 3571 3386 3303 3490 3528 3545 3462 3503 3238 3416 3389 3514 3437 3271 3049 2693 3443 3597 3299 3297 3372 3312 3371 2746 3471 3472 2481 3293 3366 2481 3502 3427 3599 3193 3529 3419 3501 3434 3295 3526 3499 3507 3473 3274 3413 3602 3507 3459 2948 3416 3455 3440 3350 3265 3554 3401 3393 3507 3323 3436 3329 3343 3488 3325 3318 3189 3306 3285 3491 3248 3384 3409 3343 3335 3426 3346 3479 3442 3355 3316 3457 3213 2365 3533 3412 3280 3382 3533 3330 3426 3306 3552 3608 3444 3489 3449 3542 3547 3467 3298 3394 3278 3112 2957 3586 3381 3381 3294 3367 3464 3519 3368 3238 3389 3325 3429 3187 3353 3355 3465 2637 3336 3303 3345 3373 3354 3487 3189 3550 3398 3312 3326 3336 3298 3308 3261 3457 3496 3565 3244 3259 3271 3478 3381 3308 3359 3536 3561 2688 2733 3373 3399 3315 3326 3484 3307 2582 2979 3530 3529 3329 3388 3523 3298 3454 3367 3342 3205 3524 3384 3348 3363 3425 3418 3385 3190 3289 3504 3241 3309 3452 3405 3432 3308 3374 3424 3583 3292 3370 3412 3465 3384 3326 3333 3261 2777 3565 3301 3377 3232 3354 3327 3389 3479 3364 3306 3424 3143 3270 3448 3352 3452 3302 3474 3349 3443 3518 3448 3436 3378 3395 3351 3378 3334 3242 3448 2650 3464 3386 2657 3345 3292 3300 3430 3486 3502 2571 3396 3519 3435 3495 3383 3292 3413 2693 3416 3323 3317 3347 3433 3413 3411 3240 3257 2902 3271 3402 3494 3361 3324 3359 3334 3378 3208 3419 3334 3487 3394 3370 3321 3333 3547 3356 3372 3531 3316 3490 3321 3208 3460 2614 3442 3402 3500 3509 3267 3364 3415 3450 3334 2781 3478 3385 3416 3012 3356 3522 3325 3244 3340 3401 3344 3367 3432 3434 3400 3453 3461 3376 3383 3493 3452 3219 3301 3377 3337 3521 2716 3458 3387 3307 3462 3294 3310 3326 3437 2149 3421 2957 3295 3232 3422 2869 3247 3544 3450 3244 3375 3418 3350 3491 3381 3459 3330 3280 3375 2965 3420 3492 3455 3401 3465 3382 1973 3427 3396 3295 3322 3276 3439 3482 3463 3420 3246 3339 3390 3572

Tree=0
num_leaves=32
num_cat=0
split_feature=173 181 1 156 191 175 156 21 106 1 51 1 21 392 448 1 11 50 167 32 32 27 190 391 190 18 132 167 158 134 99
split_gain=15923.1 8979.89 4034.23 2480.62 2192.51 1602.18 911.753 1402.47 757.049 777.627 682.185 705.783 634.763 594.129 318.232 278.639 262.293 229.829 283.36 217.877 215.886 181.068 159.293 159.128 124.407 112.128 94.9512 71.6866 62.0392 46.5942 34.7186
threshold=1.0000000180025095e-35 2.5000000000000004 202011.50000000003 -7424.4049999999988 40.500000000000007 1.5000000000000002 -1.0000000180025095e-35 1.0000000180025095e-35 51.500000000000007 202011.50000000003 16500.365000000002 202101.50000000003 1.0000000180025095e-35 26722.360000000004 -1.0000000180025095e-35 202006.50000000003 158.30500000000004 1.0000000180025095e-35 2107.9250000000006 38971.490000000005 37761.155000000006 2553.3400000000006 1.0000000180025095e-35 22188.885000000013 1.0000000180025095e-35 2887.5150000000008 8.0000000000000018 -2076.8699999999994 333756.08500000002 -43.999999999999993 5.5000000000000009
decision_type=2 2 2 2 10 2 2 2 2 2 2 2 2 10 8 2 2 2 2 2 2 2 8 10 8 2 10 2 2 10 2
left_child=1 2 3 5 8 15 7 -5 9 25 11 19 13 23 -8 -1 -11 18 -10 -4 -13 26 -7 27 -19 -3 -14 -2 -15 -28 -29
right_child=12 4 10 6 -6 22 14 -9 17 16 -12 20 21 28 -16 -17 -18 24 -20 -21 -22 -23 -24 -25 -26 -27 29 30 -30 -31 -32
leaf_value=-1.607665249392626 -1.9663597362720302 -1.980511983207383 -1.7922805846766614 -1.7987402251374311 -1.7538009201539893 -1.9231412030976081 -1.8411754416332289 -1.9360003163494597 -1.9630288574945205 -1.832399327355368 -1.9840497075409991 -1.6214272760255635 -1.8657450885255136 -1.9715572493705367 -1.9693649335677412 -1.9521570796683765 -1.9446320266496795 -2.0270962613616459 -2.0104639264569952 -1.9663597362720302 -1.9482223021609879 -1.9663597362720302 -1.8251398499178539 -1.9663597362720302 -1.980225111980245 -2.0068787766394336 -1.7148077942717135 -1.5935556168637937 -1.8372585357126403 -1.9663597362720302 -1.9663597362720302
leaf_weight=127.95537333190441 3.7697027623653403 1571.5317549034953 407.55996444821358 314.17860747128725 116.86154834926128 188.3773527815938 63.761924773454666 1863.3083981648088 490.4913272112608 138.07913676649332 47.067305974662304 142.28050591796637 55.360878273844719 19.063872739672664 3030.4042813032866 12.816988095641134 190.42364827543497 4631.6560641229153 4577.1592662185431 30.049870252609253 11.847638487815855 19.387007281184196 110.29109378904104 4.0928102955222121 248.58440327644348 1033.6494362056255 108.56790474802256 385.69698525965214 10.447498641908167 3.3388757929205886 1.6155862808227528
leaf_count=1188 35 14591 3784 2917 1085 1749 592 17300 4554 1282 437 1321 514 177 28136 119 1768 43003 42497 279 110 180 1024 38 2308 9597 1008 3581 97 31 15
internal_value=-1.96636 -1.97601 -1.91719 -1.93355 -2.0048 -1.79689 -1.94528 -1.91541 -2.00725 -1.98001 -1.77407 -1.75661 -1.66494 -1.62075 -1.96636 -1.63343 -1.89392 -2.01522 -2.00579 -1.80363 -1.64153 -1.77858 -1.88256 -1.60123 -2.02483 -1.99124 -1.75923 -1.59739 -1.91723 -1.72118 -1.59475
internal_weight=19959.7 19348.3 6349.9 5711.09 12998.4 439.441 5271.65 2177.49 12881.6 2933.68 638.805 591.738 611.341 424.686 3094.17 140.772 328.503 9947.89 5067.65 437.61 154.128 186.655 298.668 395.175 4880.24 2605.18 167.268 391.082 29.5114 111.907 387.313
internal_count=185317 179641 58956 53025 120685 4080 48945 20217 119600 27238 5931 5494 5676 3943 28728 1307 3050 92362 47051 4063 1431 1733 2773 3669 45311 24188 1553 3631 274 1039 3596
is_linear=0
shrinkage=1


Tree=1
num_leaves=32
num_cat=0
split_feature=181 173 1 191 156 175 181 1 32 449 51 51 204 392 233 153 50 1 32 392 11 1 392 21 356 191 157 156 25 392 403
split_gain=12460.8 5838.94 2725.93 2532.22 1817.6 2177.06 1192.15 754.452 581.19 501.692 426.778 370.089 316.78 265.339 262.067 247.499 209.431 359.226 194.235 191.13 185.107 179.357 168.166 165.626 158.605 134.384 112.659 64.2251 44.2912 40.92 29.8324
threshold=1.5000000000000002 1.0000000180025095e-35 202056.50000000003 40.500000000000007 -2350.2899999999995 1.5000000000000002 8.5000000000000018 202011.50000000003 16020.315000000001 -1.0000000180025095e-35 2372.6500000000005 969.67500000000007 1.0000000180025095e-35 -319.59500000000475 1.0000000180025095e-35 0.15490148811735541 1.0000000180025095e-35 202056.50000000003 37761.155000000006 -1.0000000180025095e-35 153.61500000000004 202006.50000000003 3118.8699999999812 1.0000000180025095e-35 8.5000000000000018 12.500000000000002 3623.3800000000006 10250.750000000002 1.0000000180025095e-35 187155.18000000002 15932.735000000002
decision_type=2 2 2 10 2 2 2 2 2 8 2 2 10 10 2 2 2 2 2 10 2 2 8 2 8 10 2 2 2 8 10
left_child=1 2 4 6 5 21 7 12 9 -6 20 18 14 -7 -2 23 17 26 27 -10 -9 -1 -17 -3 -19 28 -8 -4 -18 -24 -5
right_child=3 15 11 30 8 13 16 10 19 -11 -12 -13 -14 -15 -16 22 25 24 -20 -21 -22 -23 29 -25 -26 -27 -28 -29 -30 -31 -32
leaf_value=0.26388640382331796 -0.0076326106913595761 0.28862269367952459 0.23935918933313272 0.19052703175745123 0.14804761916247688 0.017885247373023876 -0.0078843862301278024 0.13917072037163916 -0.03014188106477058 0.025307247855678554 -0.035882665026036029 0 0.14389529801279366 0.081430917569881883 -0.041423448988624496 0.20275510647136671 -0.01245167114478408 0.05768344880027778 0.017434500954540227 0.047850468876927045 0.042357118636617702 0.075942565266370124 0 0.1515890781024872 -0.017338350808675986 0.024562176278291898 -0.046535256364997488 0.09061288709049925 -0.060319094981471914 0.087953017214881218 0
leaf_weight=249.47992052137852 2377.1443023756146 373.87075202912092 310.84983237832785 176.03149491548538 121.1224631741643 424.34709870815277 328.70868218690157 180.3609727025032 951.22995325177908 2763.0696795880795 107.35069900751114 29.873105630278587 34.47373041510582 636.27149482816458 1327.0535641014576 135.6231821551919 100.89834436774254 173.61691362410784 23.195556282997131 118.52753108739853 161.16122572869062 36.792812019586563 17.201969467103481 87.286313071846962 216.7523420676589 58.973170280456543 4215.1781301721931 36.087683632969856 4139.0532590448856 51.584280245006084 2.4731575548648825
leaf_count=1883 22399 2673 2409 1408 1052 3812 3073 1519 8709 25263 1008 271 295 5672 12524 1010 944 1628 214 1065 1461 315 155 709 2069 551 40324 280 40202 400 20
internal_value=-8.32486e-05 0.0696019 0.0495336 -0.0327621 0.0377703 0.098227 -0.0358463 -0.00895155 0.0168952 0.031041 0.0641117 0.200247 -0.0179695 0.0567712 -0.0199261 0.238006 -0.0479762 -0.0390572 0.216399 -0.0207752 0.096921 0.244163 0.1626 0.266888 0.0154398 -0.0580116 -0.043857 0.227708 -0.0593121 0.0639276 0.18772
internal_weight=19965.6 6366.41 5700.85 13599.2 5300.84 1346.89 13420.7 4187.54 3953.95 2884.19 448.873 400.006 3738.67 1060.62 3704.2 665.566 9233.18 4934.26 370.133 1069.76 341.522 286.273 204.409 461.157 390.369 4298.92 4543.89 346.938 4239.95 68.7862 178.505
internal_count=185317 55892 50945 129425 47771 11682 127997 39206 36089 26315 3988 3174 35218 9484 34923 4947 88791 47094 2903 9774 2980 2198 1565 3382 3697 41697 43397 2689 41146 555 1428
is_linear=0
shrinkage=0.0604202


Tree=2
num_leaves=32
num_cat=0
split_feature=181 173 1 156 175 493 181 1 158 392 51 493 51 173 391 1 233 154 1 153 1 391 32 27 17 392 135 21 519 8 28
split_gain=10834.2 4485.44 2285.35 1581.94 1674.67 1550.38 772.182 497.641 489.862 495.228 409.997 394.697 362.751 268.348 255.9 253.543 178.734 154.117 193.656 140.336 125.218 121.511 115.779 114.34 82.028 76.8046 73.0636 69.9723 62.3457 54.2037 44.8226
threshold=2.5000000000000004 1.0000000180025095e-35 202011.50000000003 -2233.1199999999994 1.5000000000000002 23.500000000000004 10.500000000000002 202006.50000000003 18719.410000000003 -7087.2950000000046 4106.0850000000009 2.5000000000000004 16500.365000000002 1.0000000180025095e-35 -1.0000000180025095e-35 202101.50000000003 1.0000000180025095e-35 1215.2850000000001 202011.50000000003 0.40563615013130655 202006.50000000003 22188.885000000013 38971.490000000005 31.810000000000006 2.5000000000000004 46920.725000000013 12.500000000000002 1.0000000180025095e-35 1.0000000180025095e-35 16804.290000000005 1.0000000180025095e-35
decision_type=2 2 2 2 2 10 2 2 2 8 2 10 2 2 10 2 2 2 2 2 2 10 2 2 2 10 10 2 10 2 2
left_child=1 2 3 4 20 6 7 13 9 -5 16 -6 15 19 -10 22 -9 18 -8 -2 -1 25 -4 24 -19 27 -25 -3 -17 -20 -29
right_child=5 21 12 8 11 -7 17 10 14 -11 -12 -13 -14 -15 -16 28 -18 23 29 -21 -22 -23 -24 26 -26 -27 -28 30 -30 -31 -32
leaf_value=0.20997061906210046 -0.017521585411525452 0.21414757756898897 0.1247269037567233 0.12295283897422968 0.03842990885838491 0.14414473589362506 -0.034842331343210561 0.080313810653210665 -0.037487171270023753 0.015477872902752295 -0.044061035179304257 0.20571938941893192 -0.016919618653483601 0.12971778369799666 0.033037511216347473 0.21160769442988758 -0.0021768868838465158 -0.028079963994609571 0.077843086165614223 -0.043764591822129238 0.011032175037321422 0.0346105937897873 0 -0.05433854385326306 0.052677334759428582 0 0.010737591688179523 0.15129093815324332 0 -0.0026156425107148004 0.01201097715538669
leaf_weight=305.33554540574551 2178.711953535676 573.244539514184 505.65968551486731 158.45018696784973 1191.3167361617088 164.58558853715658 1075.4383718669415 370.60610994696617 967.92585270851851 3070.2395928353071 178.39922975003719 47.500531010329723 46.382057279348373 30.943026475608349 218.90541708469391 212.16896069049835 113.93332805484533 313.63295308500528 66.490422047674656 1223.0757504701614 17.944556675851345 28.120995178818703 30.657537505030632 6519.7199678942561 42.35874292999506 4.898953214287757 49.482506468892097 164.04395459592342 7.9626803621649733 33.635209619998932 17.942998498678207
leaf_count=1953 20992 3483 3784 1314 10377 1174 10622 3249 9061 27820 1748 385 437 239 1963 1364 1027 3050 617 11940 152 240 279 65438 400 42 467 1177 67 322 134
internal_value=-0.000142797 0.0567284 0.0406503 0.0275963 0.0797121 -0.0350165 -0.0375706 -0.0159814 0.00893934 0.0212028 0.0313626 0.0465775 0.135973 -0.0253093 -0.0239633 0.146013 0.0603176 -0.0484026 -0.0270523 -0.027174 0.200839 0.192538 0.117924 -0.0519247 -0.0162346 0.197349 -0.0537674 0.198906 0.205485 0.0486655 0.141053
internal_weight=19929.7 7568.7 6780.45 5977.62 1562.1 12361 12196.4 4095.67 4415.52 3228.69 662.939 1238.82 802.831 3432.73 1186.83 756.449 484.539 8100.76 1175.56 3401.79 323.28 788.251 536.317 6925.19 355.992 760.13 6569.2 755.231 220.132 100.126 181.987
internal_count=185317 64032 58956 53025 12867 121285 120111 39195 40158 29134 6024 10762 5931 33171 11024 5494 4276 80916 11561 32932 2105 5076 4063 69355 3450 4836 65905 4794 1431 939 1311
is_linear=0
shrinkage=0.0604202


Tree=3
num_leaves=32
num_cat=0
split_feature=181 229 1 156 191 21 50 1 156 158 25 191 160 153 157 391 32 1 21 152 392 18 233 233 284 51 153 191 156 132 7
split_gain=9468.5 3697.12 1853.65 1276.32 1243.89 1086.04 526.85 638.509 472.618 422.057 420.363 412.415 315.8 308.897 294.663 214.949 184.785 183.638 175.687 154.048 116.538 114.478 111.969 110.587 96.9503 93.6757 73.3415 71.238 65.6901 65.0714 62.9399
threshold=3.5000000000000004 -1.0000000180025095e-35 202011.50000000003 -2713.1549999999993 43.500000000000007 1.0000000180025095e-35 1.0000000180025095e-35 202006.50000000003 -840.44500000000005 15657.290000000003 1.0000000180025095e-35 46.500000000000007 4106.0850000000009 0.32301634459588185 6545.4600000000009 -1.0000000180025095e-35 8831.5650000000023 202101.50000000003 1.0000000180025095e-35 20662.395 21130.970000000005 14.780000000000001 1.0000000180025095e-35 1.0000000180025095e-35 336.61500000000007 18206.375000000004 0.74181624165574156 15.500000000000002 19247.365000000005 6.5000000000000009 2676.5850000000005
decision_type=2 8 2 2 10 2 2 2 2 2 2 10 2 2 2 10 2 2 2 8 10 2 2 2 8 2 2 10 2 8 2
left_child=1 8 3 5 6 -3 7 14 18 10 -5 -7 17 16 23 -11 -9 30 20 -8 -1 -16 25 -2 -15 26 -10 -21 -19 -24 -4
right_child=4 2 12 9 -6 11 19 13 22 15 -12 -13 -14 24 21 -17 -18 28 -20 27 -22 -23 29 -25 -26 -27 -28 -29 -30 -31 -32
leaf_value=0.19348107332297509 -0.0001447764571765824 0.15923548150658698 0.10705385022590366 0.061812639014574705 0.12557501887387171 0.028215543460275615 -0.058372817077385099 0.064883476086956451 0.12746530460531882 -0.037324883295972881 0.0051574609044862081 0.17625219544802107 -0.0099518675505065254 0.02924991000806567 -0.02188214341255993 0.02609327652967363 -0.030605836555109324 0.18083080714345431 0.11172140383342659 -0.026135604108416026 0.034230581965317489 -0.049847507603532189 -0.010300719464424755 -0.034331918570979926 -0.027766787892000839 -0.0046526941652925711 0 0.04986342852646105 0.02591123751926978 0.063309720760240232 0.030246249658531746
leaf_weight=587.66612230986357 961.81102716177702 351.82784420996904 496.93837206065655 567.2866852581501 160.89033002406359 1120.6617183610797 4144.7602849751711 419.45448599010706 252.5174508690834 1058.4644980803132 2971.5030995607376 66.911707580089569 63.08941625058651 126.33561301231384 736.57408662885427 223.76128356903791 77.186343379318714 224.5939929485321 243.69967330247164 338.02467814087868 28.572086602449417 3274.1198312118649 49.370912589132786 554.72471375018358 471.96756952255964 16.473822452127934 23.841468796133995 40.354163326323032 20.891143389046192 118.55874481797218 69.524170279502869
leaf_count=3224 9365 2037 3492 4806 1037 9574 43597 3750 1919 10093 26931 463 585 1172 7377 1959 734 1318 1844 3439 212 33542 437 5493 4621 139 202 368 136 943 508
internal_value=-0.000180407 0.0477247 0.0305894 0.0190847 -0.0364814 0.0668337 -0.0389558 -0.0279008 0.140459 0.00365391 0.0144929 0.0381376 0.11271 0.0138712 -0.0362648 -0.0258134 0.0488949 0.122787 0.167773 -0.0549593 0.187382 -0.04488 0.0863914 -0.0130644 -0.0147512 0.10979 0.118104 -0.0159526 0.170721 0.0397065 0.0989938
internal_weight=19862.4 8556.15 7235.45 6360.42 11306.2 1539.4 11145.3 6622.17 1320.7 4821.02 3538.79 1187.57 875.037 1094.94 5527.23 1282.23 496.641 811.948 859.938 4523.14 616.238 4010.69 460.762 1516.54 598.303 292.833 276.359 378.379 245.485 167.93 566.463
internal_count=185317 70822 61902 55863 114495 12074 113458 66054 8920 43789 31737 10037 6039 10277 55777 12052 4484 5454 5280 47404 3436 40919 3640 14858 5793 2260 2121 3807 1454 1380 4000
is_linear=0
shrinkage=0.0604202


Tree=4
num_leaves=32
num_cat=0
split_feature=181 204 1 132 191 18 191 32 50 1 157 134 11 51 1 392 18 32 152 317 17 233 32 32 191 25 356 190 277 71 152
split_gain=8352.11 2913.27 1561.34 1339.07 1097.4 871.326 583.098 524.625 513.034 598.798 335.62 315.82 275.233 269.6 170.376 150.956 146.876 135.807 130.338 128.311 122.484 111.461 75.4576 55.7801 45.4799 45.069 42.7506 38.7661 21.3247 20.1295 17.1306
threshold=3.5000000000000004 1.0000000180025095e-35 202011.50000000003 1.0000000180025095e-35 25.500000000000004 1.0000000180025095e-35 40.500000000000007 12433.175000000001 1.0000000180025095e-35 202056.50000000003 4653.2050000000008 -43.999999999999993 431.40500000000003 16500.365000000002 202101.50000000003 21130.970000000005 316.46500000000009 4506.2000000000007 20662.395 1.5000000000000002 3.5000000000000004 1.0000000180025095e-35 35191.535000000011 37761.155000000006 48.500000000000007 1.0000000180025095e-35 8.5000000000000018 1.0000000180025095e-35 938.40500000000009 1313.2150000000001 31665.135000000006
decision_type=2 10 2 8 10 2 10 2 2 2 2 8 2 2 2 10 2 2 8 10 2 2 2 2 10 2 8 10 10 2 8
left_child=1 2 3 6 8 19 7 -1 9 10 21 -7 17 14 22 -3 -12 -11 25 -5 27 -2 -4 -16 -6 -10 -14 -20 -8 -27 -22
right_child=4 15 13 5 24 11 28 -9 18 12 16 -13 26 -15 23 -17 -18 -19 20 -21 30 -23 -24 -25 -26 29 -28 -29 -30 -31 -32
leaf_value=0.012587252661825414 0.0098883483369940073 0.16470302061975203 0.093600051485790911 0.1301662437876078 0.031437949372821163 0.10666573130607616 0.1596668224192955 -0.036603999166401516 0.030194642373220018 0.095999675929550318 -0.021105753228157872 0.015927970892185443 0.018039966677923642 -0.016901674583728307 0.15762837957691467 0.024960816909396701 -0.046287763085749792 -0.01544326455661321 -0.037315643373794831 0.073221990384116156 0 -0.028745361001196346 0 0.010226531821594895 0.11392969522240398 -0.058293236276504408 -0.027691869536592733 0.017997598806489216 0 0 0.099302414010595669
leaf_weight=3910.8856491744518 764.51020377129316 697.98907189816236 643.88317720592022 531.86564873158932 57.740056440234184 158.82977452129126 82.6464888677001 981.64908729493618 9.7264298349618894 217.3088813200593 1243.2061440274119 1021.0276008024812 115.7325236722827 57.103781752288342 281.92678668349981 40.808818802237511 3500.7751021236181 37.849155619740486 297.49584621191025 324.52111701667309 5.7328325808048275 407.75925470888615 36.990120060741901 17.697465196251869 159.77307167649269 3923.6308766379952 160.2489495947957 37.53215391933918 2.4043193757534018 21.360809199512005 24.240510322153568
leaf_count=34650 7317 3608 4207 3316 482 957 523 9301 77 1811 12590 8924 1053 551 1509 325 36917 352 3106 2496 60 4104 309 130 955 43263 1602 345 16 232 229
internal_value=-0.000209046 0.0436402 0.0329378 0.0225542 -0.0353456 0.0637401 0.00553562 0.00257978 -0.0381155 -0.0271208 -0.032681 0.0292016 0.0335229 0.101939 0.109396 0.157955 -0.0398323 0.0778205 -0.0543363 0.110046 -0.0174703 -0.00328554 0.0888338 0.150892 0.0960288 -0.0575814 -0.00698821 -0.0295307 0.154945 -0.0579755 0.0823147
internal_weight=19774.9 8790.23 8051.43 7013.83 10984.6 2036.24 4977.59 4892.53 10767.1 6447.39 5916.25 1179.86 531.14 1037.6 980.498 738.798 4743.98 255.158 4319.72 856.387 365.001 1172.27 680.873 299.624 217.513 3954.72 275.981 335.028 85.0508 3944.99 29.9733
internal_count=185317 70822 66889 60183 114495 15693 44490 43951 113058 65746 60928 9881 4818 6706 6155 3933 49507 2163 47312 5812 3740 11421 4516 1639 1437 43572 2655 3451 539 43495 289
is_linear=0
shrinkage=0.0604202


Tree=5
num_leaves=32
num_cat=0
split_feature=157 156 21 191 51 106 158 391 527 212 50 292 122 144 391 12 71 250 158 398 17 190 240 191 191 18 212 11 285 435 71
split_gain=7076.35 2660.61 1818.87 1124.82 736.454 718.058 627.257 526.17 466.548 359.03 234.208 223.52 200.474 193.617 180.214 177.054 167.718 151.815 123.318 119.06 97.7043 93.5049 91.9611 75.9741 74.1352 67.785 65.366 63.4198 61.5454 60.7691 60.1352
threshold=1795.8200000000002 -925.13999999999976 1.0000000180025095e-35 23.500000000000004 2372.6500000000005 38.500000000000007 15657.290000000003 -1.0000000180025095e-35 -0.29999999999999982 inf 1.0000000180025095e-35 29215.330000000005 -1.9999999999999998 -1.9999999999999998 -326.14500000000697 6.5000000000000009 960.75500000000011 0.18347005388698487 6406.8750000000009 -43205.149999999994 3.5000000000000004 1.0000000180025095e-35 -2.6999999999999984 48.500000000000007 12.500000000000002 1.0100000000000002 inf 264.36000000000007 2342.2200000000003 194570.3300000001 1199.9800000000002
decision_type=2 2 2 10 2 2 2 10 8 8 2 10 8 8 10 2 2 8 2 8 2 8 8 10 10 2 8 2 8 8 2
left_child=1 2 25 5 6 13 8 18 15 -10 12 20 28 -2 30 -3 21 26 -4 -14 -6 -9 -20 -5 -12 -1 -15 -19 -7 -18 -8
right_child=3 4 7 23 11 10 14 16 9 -11 24 -13 19 17 -16 -17 29 27 22 -21 -22 -23 -24 -25 -26 -27 -28 -29 -30 -31 -32
leaf_value=0.14484991802812833 0.09413401617965779 0.11026291866772454 0.045402991687315368 0.028199773146928692 -0.043495508005607378 0.064877704397885733 -0.034115058376128528 0.030016585594369035 0.049922778274743354 0.006783076895444556 -0.057960119170025193 0.096682177055452873 0.016823459155965399 0.035347621896914025 0.028775370609295865 0.033832384606045325 0.094777739137006989 -0.007619060860910634 0.050352145779841394 -0.039669123985401039 0.03384944345356012 0.078797256029204316 -0.025109049986207495 0.10642262748176921 0.0074036429968279078 0.092175610688204512 -0.0021807141642189243 -0.036701974685653706 -0.0073006569857473891 0.032517684702946692 0.010421026075554278
leaf_weight=1074.2112186551094 62.098381504416466 377.99228508025408 156.78460751473904 92.522096864879131 945.38369558751583 80.000715099275112 783.23142223805189 597.81999986618757 1266.9922427609563 1642.2892697378993 3526.2273503988981 36.675736084580421 124.71973043680191 313.4656658321619 247.1887121796608 196.76113364100456 618.29265013337135 718.11552944779396 56.726922914385796 4502.9093803241849 50.903919763863087 221.54024437814951 434.31776108592749 186.10621321201324 50.397032774984837 222.43326407670975 312.27140823751688 498.05284376442432 62.142968602478504 101.35704490542412 107.78748911619186
leaf_count=5376 420 2671 1273 799 9560 710 7614 4834 10100 14584 40720 272 1328 2754 2060 1586 4448 6765 409 48036 476 1612 3822 1046 474 1229 3004 4954 591 794 996
internal_value=-0.00022442 0.0386346 0.0801297 -0.0339984 0.0129131 -0.0373063 0.0232774 0.0459073 0.0360156 0.0258146 -0.044942 -0.0328467 -0.0357962 -0.00355052 -0.0153046 0.0857454 0.0650447 -0.00750699 0 -0.0380223 -0.0388453 0.0444254 -0.0147845 0.0836195 -0.0568996 0.136822 0.016144 -0.0200664 0.0317633 0.0871074 -0.0281856
internal_weight=19667.7 9138.69 3483.48 10529 5655.21 10250.4 4622.24 2186.84 3484.03 2909.28 8346.4 1032.96 4769.77 1904 1138.21 574.753 1539.01 1841.91 647.829 4627.63 996.288 819.36 491.045 278.628 3576.62 1296.64 625.737 1216.17 142.144 719.65 891.019
internal_count=185317 73716 23797 111601 49919 109756 39611 17192 28941 24684 91859 10308 50665 17897 10670 4257 11688 17477 5504 49364 10036 6446 4231 1845 41194 6605 5758 11719 1301 5242 8610
is_linear=0
shrinkage=0.0604202


Tree=6
num_leaves=32
num_cat=0
split_feature=181 229 1 156 135 21 50 1 391 158 153 157 153 215 156 1 391 393 32 367 10 233 25 17 284 32 18 153 153 51 285
split_gain=6580.13 2103.84 1140.01 916.208 827.928 581.198 480.799 577.365 270.305 262.206 297.834 258.736 243.267 241.456 223.3 176.196 165.944 152.799 139.883 116.641 106.775 106.284 95.288 110.455 81.749 79.8439 77.2418 69.395 63.3473 50.5633 47.1766
threshold=3.5000000000000004 -1.0000000180025095e-35 202006.50000000003 -2713.1549999999993 13.500000000000002 1.0000000180025095e-35 1.0000000180025095e-35 202006.50000000003 -1.0000000180025095e-35 15657.290000000003 0.32301634459588185 6430.4600000000009 0.3266917384589979 1.0000000180025095e-35 4762.0050000000001 202056.50000000003 -1.0000000180025095e-35 2328.6199999999994 8831.5650000000023 11.500000000000002 236.68500000000003 1.0000000180025095e-35 1.0000000180025095e-35 3.5000000000000004 336.61500000000007 34013.535000000011 14.780000000000001 0.12975214202121185 0.38774407491670787 969.67500000000007 541.62500000000011
decision_type=2 8 2 2 10 2 2 2 8 2 2 2 2 8 2 2 10 10 2 10 2 2 2 2 8 2 2 2 2 2 8
left_child=1 13 3 5 6 27 7 11 -7 10 -5 21 18 28 15 20 -11 -15 -9 -6 -4 -2 23 -8 -14 -17 -13 -3 -1 30 -16
right_child=4 2 14 9 19 8 22 12 -10 16 -12 26 24 17 29 25 -18 -19 -20 -21 -22 -23 -24 -25 -26 -27 -28 -29 -30 -31 -32
leaf_value=0.060061125737219244 0 0.12709818022213101 0.072978274168956567 0.019782683114775709 0.017791623075263344 -0.021738954002493448 -0.029013619094199885 0.056627438990474989 0.045551020396766478 -0.035611985565444197 -0.018339758560186496 -0.022144877543888275 0.027050164222537542 0.1185572506333547 0.061931178352688264 0.11911907555439954 0.019699582925572095 0.029461501120178986 -0.027432335472542466 0.087742861087919233 0.0026343546914738532 -0.03455224731386361 -0.055045487639780177 0.094514353260314085 -0.025418707456752846 0.0050517795528926641 -0.047437230911074012 0.042326073377489115 -0.0027245635354577469 -0.023466480504535561 0.0013545040823254584
leaf_weight=214.13850137591362 929.3805118650198 333.45552475005388 422.51475930958986 2390.4336619973183 211.36670802533627 267.62297648191452 128.09227959066629 444.03519251942635 936.01503686606884 982.90786814689636 1069.1343421190977 631.08808234333992 127.60046710819006 1180.6231910809875 110.35506948083639 495.15994197875261 230.33312591165304 96.262158118188381 72.93605749309063 177.57858565449715 113.49859516322613 491.27276526391506 3772.3910625502467 23.784427583217621 444.53985717892647 32.834081709384918 2935.1199139356613 70.808823227882385 60.843103490769863 52.995876491069794 104.17662492394447
leaf_count=1525 9095 1543 3031 20330 2030 2306 1325 3754 7244 9915 9634 6660 1157 6242 746 2612 1903 649 734 1014 804 5185 45451 193 4584 255 33313 351 504 512 716
internal_value=-0.00022715 0.037051 0.0238422 0.0129422 -0.0331557 0.0521533 -0.0365563 -0.0257061 0.0301749 -0.000526527 0.00785708 -0.0344256 0.0137714 0.101069 0.0745107 0.0870169 -0.0246827 0.112429 0.0436676 0.0520559 0.0591761 -0.0120866 -0.0531496 -0.00286461 -0.0127244 0.113048 -0.0431498 0.114519 0.0449424 0.0219996 0.0356939
internal_weight=19553.3 9164.11 7612.25 6280.71 10389.2 1607.9 10000.2 6075.97 1203.64 4672.81 3459.57 4986.86 1089.11 1551.87 1331.53 1064.01 1213.24 1276.89 516.971 388.945 536.013 1420.65 3924.27 151.877 572.14 527.994 3566.21 404.264 274.982 267.528 214.532
internal_count=185317 70822 61902 53226 114495 11444 111451 64482 9550 41782 29964 54253 10229 8920 8676 6702 11818 6891 4488 3044 3835 14280 46969 1518 5741 2867 39973 1894 2029 1974 1462
is_linear=0
shrinkage=0.0604202


Tree=7
num_leaves=32
num_cat=0
split_feature=181 132 1 156 191 191 158 71 50 1 158 11 11 21 167 18 527 191 158 175 26 17 17 391 391 233 51 32 410 391 357
split_gain=5863.79 1907.75 1012.8 903.18 737.927 528.798 420.229 427.299 380.426 478.727 264.401 260.91 259.113 258.428 162.099 146.305 127.261 105.126 95.5754 85.965 80.9685 112.355 80.7293 76.213 75.9626 72.4934 68.2701 59.6456 57.0163 45.4565 43.6592
threshold=4.5000000000000009 1.0000000180025095e-35 202006.50000000003 -34.864999999999995 17.500000000000004 40.500000000000007 19174.910000000003 723.30000000000007 1.0000000180025095e-35 202006.50000000003 10126.000000000002 431.40500000000003 104.55500000000002 1.0000000180025095e-35 7558.8050000000012 1.0100000000000002 -0.29999999999999982 43.500000000000007 14077.385000000002 1.5000000000000002 1.0000000180025095e-35 3.5000000000000004 3.5000000000000004 -536.77500000001226 -703.47000000000105 1.0000000180025095e-35 16500.365000000002 41441.87000000001 2153.3900000000008 -1.0000000180025095e-35 6.5000000000000009
decision_type=2 8 2 2 10 10 2 2 2 2 2 2 2 2 2 2 8 10 2 2 2 2 2 10 10 2 2 2 10 10 8
left_child=1 2 5 13 8 6 7 -1 9 14 16 18 26 15 25 -3 -5 -6 -11 -16 21 -10 29 -8 -15 -2 27 -4 -14 -12 -13
right_child=4 3 12 10 17 -7 23 -9 20 11 22 30 28 24 19 -17 -18 -19 -20 -21 -22 -23 -24 -25 -26 -27 -28 -29 -30 -31 -32
leaf_value=-0.0089044813287882975 -0.0059889174362246517 0.11738837776734003 0.087759525479472064 0.086237969975342499 0.014447933345230261 0.11959663961965231 -0.043279322837796792 0.02993187439056734 -0.034343351280080661 0.052678022401698964 -0.023049230759399401 0.0079222885425614797 0.0061350114259392892 0.022233793543744846 0.028425109940691421 0.064779698773068245 0.027183490574141805 0.078850704672167246 -0.02197254573661726 -0.044641469820105396 -0.056114826173234267 0.072871126779766787 0.07502828391348032 0 0.071702596587178882 -0.037619595406309055 -0.0039010499051948589 0 0.078403216034848386 0.014249676895626678 -0.028700241991862423
leaf_weight=2472.5162019953132 845.67136309295893 1172.3193046376109 783.34754795581102 247.57273853570223 241.32581388950348 127.07124748080969 847.70841905474663 1753.3486722037196 327.86227042227983 415.31811410933733 368.17471607774496 139.44268134236336 307.07056228071451 195.88111618161201 46.950652562081814 328.32079841196537 371.09394288063049 173.63850517570972 59.428790271282196 3132.144091039896 3287.3550836592913 29.571534663438797 33.578017398715019 161.83582256734371 507.54089363664389 411.62942969799042 22.20257294178009 23.829698383808136 41.407917104661465 152.22126412391663 400.17985229194164
leaf_count=21784 8609 5519 4683 1532 2373 682 8734 14864 3821 3444 3524 1309 2330 1453 512 1873 2877 900 599 36378 41659 252 274 1418 3231 4545 207 199 283 1231 4218
internal_value=-0.000240814 0.0322292 0.0130687 0.0690822 -0.0341439 0.00180402 -0.00116217 0.00713231 -0.0377729 -0.0274246 0.0254616 0.00961225 0.0635941 0.0918996 -0.0359951 0.106608 0.0523837 0.0435014 0.0421893 -0.0433491 -0.0530261 -0.0227529 -0.00415691 -0.0360848 0.0589867 -0.016881 0.0819877 0.0849109 0.0176511 -0.011245 -0.0184508
internal_weight=19427.6 9917.04 6540.34 3376.7 9510.52 5362.48 5235.41 4225.86 9095.55 5450.76 1172.64 1014.37 1177.86 2204.06 4436.4 1500.64 618.667 414.964 474.747 3179.09 3644.79 357.434 553.974 1009.54 703.422 1257.3 829.38 807.177 348.478 520.396 539.623
internal_count=185317 76698 55184 21514 108619 47482 46800 36648 105346 59614 9438 9570 7702 12076 50044 7392 4409 3273 4043 36890 45732 4073 5029 10152 4684 13154 5089 4882 2613 4755 5527
is_linear=0
shrinkage=0.0604202


Tree=8
num_leaves=32
num_cat=0
split_feature=181 132 1 156 191 191 233 50 1 71 11 175 32 11 157 153 527 285 191 157 17 233 160 164 309 391 233 18 32 110 265
split_gain=5232 1613.7 858.362 744.102 672.219 445.045 381.858 371.605 441.355 329.174 226.498 218.14 213.286 211.181 172.58 129.314 102.609 101.053 87.213 82.2904 98.6855 79.8521 76.6721 76.3187 69.0008 63.1404 58.2455 54.5274 53.5661 52.2159 49.3006
threshold=4.5000000000000009 1.0000000180025095e-35 202006.50000000003 -34.864999999999995 17.500000000000004 40.500000000000007 1.0000000180025095e-35 1.0000000180025095e-35 202006.50000000003 723.30000000000007 679.10500000000013 1.5000000000000002 10158.140000000001 183.02500000000003 8741.9500000000025 0.15116196614298394 -0.29999999999999982 812.95000000000016 43.500000000000007 569.13000000000011 3.5000000000000004 1.0000000180025095e-35 4106.0850000000009 212.79500000000004 54424.850000000013 -1.0000000180025095e-35 1.0000000180025095e-35 37.485000000000007 44009.580000000009 8.0000000000000018 19880.955000000005
decision_type=2 8 2 2 10 10 2 2 2 2 2 2 2 2 2 2 8 8 10 2 2 2 2 2 10 10 2 2 2 8 8
left_child=1 2 5 11 7 6 9 8 14 -1 17 15 16 22 21 -3 -5 -10 -6 20 -9 -2 28 25 30 -14 -17 -16 -4 -26 -13
right_child=4 3 13 12 18 -7 -8 19 10 -11 -12 24 23 -15 27 26 -18 -19 -20 -21 -22 -23 -24 -25 29 -27 -28 -29 -30 -31 -32
leaf_value=-0.0057691037749675591 -0.0059904111846059106 0.10801325868107815 0.077306606399246594 0.07628863698847109 0.013456593349609141 0.10688140052083472 -0.026442346640598337 -0.033122532130010866 0.055744703160657008 0.030594295487518557 -0.025377449388879543 0.051730884141772113 -0.034265047104758924 0.0080663525488875974 -0.023756605777786072 0.090725004431977965 0.024396665858707048 0.0052002369466891745 0.071713212647297325 -0.055434243259716097 0.064569668014477943 -0.036620109694354558 0 0.033112362013298459 0.028548552114095949 0.014183711631399778 0.035644065264518771 -0.047721660380961144 0 0.096298387014741707 0.0069149135794405884
leaf_weight=2152.854105450213 936.33362714201212 1149.5078025758266 882.78819370269775 263.2076635658741 243.99744617193937 134.37414699792862 1533.5823063030839 332.62882815301418 314.49594951421022 1542.4967544078827 403.15048234164715 283.21556083858013 273.10310582816601 266.71670938283205 535.58494030684233 161.14914458245039 387.18881003558636 303.23393864929676 180.02945466339588 3123.0792820602655 31.768912345170975 496.82085483521223 41.752096131443977 135.63096491992474 89.986335180699825 129.27077904343605 223.03369020670652 2340.9540983885527 26.261287339031696 204.22947832196951 169.83115545660257
leaf_count=18929 9607 5145 5084 1558 2373 682 15207 4013 2602 12664 4247 1799 2704 2032 6027 832 2959 2721 900 41458 261 5661 369 1174 540 1043 1315 28749 217 1185 1260
internal_value=-0.000244505 0.0298934 0.0121986 0.0632164 -0.0330629 0.00168381 -0.00110622 -0.0366696 -0.026395 0.00932551 0.00892084 0.0834479 0.023693 0.0578178 -0.0348646 0.0970237 0.0467938 0.0320553 0.0401531 -0.0521434 -0.0221197 -0.0170721 0.0711132 -0.00371868 0.0542085 -0.0176483 0.0613627 -0.0434978 0.074781 0.0784459 0.0363357
internal_weight=19292.3 10050.2 6580.83 3469.35 9242.08 5363.31 5228.93 8818.05 5330.57 3695.35 1020.88 2280.95 1188.4 1217.52 4309.69 1533.69 650.396 617.73 424.027 3487.48 364.398 1433.15 950.802 538.005 747.263 402.374 384.183 2876.54 909.049 294.216 453.047
internal_count=185317 76698 55184 21514 108619 47482 46800 105346 59614 31593 9570 12076 9438 7702 50044 7292 4517 5323 3273 45732 4274 15268 5670 4921 4784 3747 2147 34776 5301 1725 3059
is_linear=0
shrinkage=0.0604202


Tree=9
num_leaves=32
num_cat=0
split_feature=181 204 1 18 191 175 50 1 173 156 233 373 233 398 51 284 392 191 27 17 11 32 175 265 171 167 175 344 17 401 243
split_gain=4695.72 1509.66 908.984 759.631 576.709 356.588 297.289 361.618 277.457 248.593 237.858 234.709 188.344 165.785 165.533 128.389 76.4403 73.2729 71.1596 70.4333 64.4616 53.1899 42.5289 36.3336 31.5091 20.194 19.8691 18.7029 18.6301 18.2653 15.3683
threshold=5.5000000000000009 1.0000000180025095e-35 202056.50000000003 114.50000000000001 17.500000000000004 1.5000000000000002 1.0000000180025095e-35 202101.50000000003 1.0000000180025095e-35 -34.864999999999995 1.0000000180025095e-35 -395.6635 1.0000000180025095e-35 -26281.759999999998 16500.365000000002 949.72000000000014 6173.7949999999992 48.500000000000007 568.79500000000019 3.5000000000000004 115.61500000000002 36468.185000000005 1.5000000000000002 10887.665000000003 21155.055000000004 13022.055000000002 2.5000000000000004 3.5000000000000004 3.5000000000000004 3244.2000000000007 -0.09999999999999995
decision_type=2 10 2 2 10 2 2 2 2 2 2 8 2 8 2 8 10 10 2 2 2 2 2 10 2 2 2 10 2 10 10
left_child=1 2 3 5 6 9 7 12 10 -1 -5 -7 13 -2 20 23 30 28 19 27 21 -4 -14 -9 -20 -17 -22 -8 -6 -19 -3
right_child=4 16 14 8 17 11 18 15 -10 -11 -12 -13 22 -15 -16 25 -18 29 24 -21 26 -23 -24 -25 -26 -27 -28 -29 -30 -31 -32
leaf_value=0.079492485655976067 0.052590809356195527 0.10612160376567958 0.098003867121204472 0.0037050929457289159 0.0050614878751365118 0.041325370854153533 -0.036483176645860711 0.10348241241029409 0.070993700151578368 0.0031558491122059152 -0.025552929174558422 0.0088837914640530237 0.00059340073458093612 -0.024281174065451376 -0.018528326007592816 0.042643819397401021 0.0201286602680102 0.074304973719999182 -0.056863918152008495 0.051126616021207882 0.050164013492036828 0.0030389071795363888 -0.048792838452693096 0 -0.026079604213301404 -0.0073543777277196333 -0.00070923229660432028 0.0061948237774659548 0.067521004574720919 0 0
leaf_weight=759.62213201075792 95.0112264752388 842.74770063906908 616.7016384601593 2630.5424330458045 230.28384643048048 1360.9212319403887 299.28861764073372 90.161027677357197 162.31334865838289 211.67600973695517 1620.2495708465576 2138.5168004706502 47.500778578221798 2739.6222406327724 51.184038139879704 28.527915865182877 58.423475116491318 140.74296826124191 2693.6691706180573 30.118127904832363 173.79417614638805 32.933830469846725 1703.2905429899693 8.7654009014368039 207.30251595377922 112.89902164041996 13.017765350639818 20.527197614312172 13.592598177492617 11.804497137665747 3.0540742427110663
leaf_count=3856 1026 3630 2909 22908 2171 10084 3745 701 856 1689 16307 17451 518 31120 527 242 386 678 37612 237 1056 244 20878 79 2794 1079 84 251 120 57 22
internal_value=-0.000241518 0.0263815 0.0193644 0.0134388 -0.0338303 0.0309796 -0.0373558 -0.0275572 -0.0042564 0.0634837 -0.00737189 0.0216974 -0.0314172 -0.0213968 0.0774753 0.0428369 0.100826 0.0361687 -0.0516536 -0.0228255 0.0840046 0.0939671 -0.0472042 0.0927496 -0.0549005 0.00164136 0.0444715 -0.032301 0.0124877 0.0685792 0.105621
internal_weight=19148.8 10675.7 9771.47 8883.84 8473.11 4470.74 8076.68 4825.78 4413.11 971.298 4250.79 3499.44 4585.42 2834.63 887.631 240.353 904.225 396.424 3250.91 349.934 836.447 649.635 1750.79 98.9264 2900.97 141.427 186.812 319.816 243.876 152.547 845.802
internal_count=185317 82009 77971 73151 103308 33080 100282 55643 40071 5545 39215 27535 53542 32146 4820 2101 4038 3026 44639 4233 4293 3153 21396 780 40406 1321 1140 3996 2291 735 3652
is_linear=0
shrinkage=0.0604202


Tree=10
num_leaves=32
num_cat=0
split_feature=157 173 153 18 158 51 191 1 1 190 175 71 160 1 233 191 175 272 181 156 153 17 158 106 8 518 391 305 269 16 391
split_gain=4211.2 1293.05 819.198 801.833 438.1 341.689 329.5 322.561 296.561 292.577 259.997 223.729 173.626 231.271 136.952 134.144 113.114 99.5055 92.7458 73.9852 69.5928 69.2201 65.9697 64.4732 54.7901 41.302 40.3528 35.0951 34.1313 31.9232 26.4897
threshold=1886.2700000000002 1.0000000180025095e-35 0.19273193248419479 1263.4550000000002 7730.2500000000009 969.67500000000007 45.500000000000007 202006.50000000003 202006.50000000003 1.0000000180025095e-35 1.5000000000000002 811.31500000000017 7483.5150000000012 202101.50000000003 1.0000000180025095e-35 3.5000000000000004 1.5000000000000002 41665.545000000006 11.500000000000002 -83.589999999999989 0.059877475880650372 3.5000000000000004 10126.000000000002 83.500000000000014 13312.145000000002 1.0000000180025095e-35 -625.9449999999996 5554.1550000000016 113001.80500000001 -46.639999999999993 -1.0000000180025095e-35
decision_type=2 2 2 2 2 2 10 2 2 8 2 2 2 2 2 10 2 10 2 2 2 2 2 2 2 10 10 10 8 2 10
left_child=1 2 4 6 10 8 7 16 14 26 29 -12 13 17 -4 -14 19 18 -5 -2 -11 -7 -18 27 -15 -3 -6 -9 -10 -1 -8
right_child=3 25 5 12 9 21 30 23 28 20 11 -13 15 24 -16 -17 22 -19 -20 -21 -22 -23 -24 -25 -26 -27 -28 -29 -30 -31 -32
leaf_value=0.090207261984162485 0.10534574843167041 0.087306198093759974 0.011030245010912879 -0.025068691921759912 -0.030657486857151157 -0.039131441716526688 0.025306728165265326 0.057751229634666341 0.055486621428169174 0.063588066134106919 0.019548727458096722 0.057660141157818555 -0.055067804357695808 0.055684681116502543 -0.015648839450418665 0.02544296912240529 -0.01224605088214639 0.017064102275332872 -0.046667467650183841 -0.0045778792225667246 0.016593387309684664 0.025873716565648335 -0.035715746323965403 -0.007187107406593396 -0.00019567541033097978 0 0.0062460661355482616 0 0 0.027099238206107868 0.088588421042527885
leaf_weight=575.1634840965271 35.319630101323128 1186.774386048317 2001.0830901786685 1409.347125120461 481.16175326704979 761.17637779563665 68.170765206217766 296.68379967659712 473.26742206513882 227.16490115970373 1094.8799499049783 1290.2255932092667 2692.9492400884628 106.8593332991004 1066.378771007061 65.374207697808743 1395.500493131578 108.91178502142429 1958.0597223341465 29.684511236846447 309.71851720660925 50.592748641967773 712.70988671481609 73.37746262550354 109.4915778413415 18.014370419085026 111.47762516140938 60.69860015809536 38.196847669780254 62.52151995152235 130.03094953298569
leaf_count=2810 293 5309 16714 15177 4837 8587 327 2061 2915 1319 8165 8579 38980 852 10505 496 15029 1231 25050 320 2310 434 8434 761 1008 111 944 473 273 409 604
internal_value=-0.000230818 0.0274472 0.0190686 -0.0294347 0.0382807 0.000759119 -0.0022676 -0.00822483 0.00890045 0.00567079 0.0502688 0.0404841 -0.0411481 -0.0321276 0.00159323 -0.0529258 -0.0178512 -0.0359607 -0.0378465 0.0544569 0.0379824 -0.0343094 -0.0205032 0.0387278 0.0265064 0.0859357 -0.0229871 0.0493157 0.0511182 0.085151 0.070932
internal_weight=19001 9747.8 8543.01 9253.17 4152.31 4390.7 2802.18 2603.97 3578.93 1129.52 3022.79 2385.11 6450.99 3692.67 3067.46 2758.32 2173.21 3476.32 3367.41 65.0041 536.883 811.769 2108.21 430.76 216.351 1204.79 592.639 357.382 511.464 637.685 198.202
internal_count=185317 74221 68801 111096 29373 39428 28302 27371 30407 9410 19963 16744 82794 43318 27219 39476 24076 41458 40227 613 3629 9021 23463 3295 1860 5420 5781 2534 3188 3219 931
is_linear=0
shrinkage=0.0604202


Tree=11
num_leaves=32
num_cat=0
split_feature=181 229 153 191 21 391 50 1 1 1 11 383 51 157 158 153 18 11 284 272 27 9 17 518 191 18 215 393 379 158 171
split_gain=3787.92 1190.14 715.731 504.16 422.947 444.333 283.365 325.244 240.614 207.311 153.682 143.893 132.61 120.737 108.294 90.867 87.5887 84.7687 81.7006 73.3505 71.3362 60.0118 59.4566 52.6235 51.0565 46.9407 45.8801 35.7394 34.9857 31.3732 30.3167
threshold=5.5000000000000009 -1.0000000180025095e-35 0.19658863738294649 12.500000000000002 1.0000000180025095e-35 -1.0000000180025095e-35 1.0000000180025095e-35 202006.50000000003 202006.50000000003 202056.50000000003 679.10500000000013 -4.945000000000026 1.0000000180025095e-35 9288.7850000000017 15134.390000000001 0.32301634459588185 1.0100000000000002 309.14500000000004 1010.6000000000003 29490.510000000006 568.79500000000019 459.59500000000008 2.5000000000000004 1.0000000180025095e-35 48.500000000000007 37.485000000000007 1.0000000180025095e-35 2328.6199999999994 -86.044999999999987 47279.205000000009 24545.025000000005
decision_type=2 8 2 10 2 10 2 2 2 2 2 10 2 2 2 2 2 2 10 10 2 2 2 10 10 2 8 10 8 2 2
left_child=1 11 4 6 16 14 7 13 12 -7 18 23 15 19 -6 -4 28 29 -9 -2 22 27 -8 26 -5 -15 -1 -13 -3 -10 -22
right_child=3 2 8 24 5 9 20 10 17 -11 -12 21 -14 25 -16 -17 -18 -19 -20 -21 30 -23 -24 -25 -26 -27 -28 -29 -30 -31 -32
leaf_value=0.042256017937287178 -0.020971922144599989 0.01870722724741411 0.003185120501112481 0.012277572377164096 0.012868746468187003 0.026415780097072909 -0.031094349908362545 0.045733210425353214 0.048228857351673378 0.076027004649748223 -0.023731481141768609 0.032467470879095135 -0.039423599914826364 -0.021597097812702158 -0.027555190498913737 -0.017253357544834112 0.034603356061355284 -0.00015578172955639681 0 0.040393876780783898 -0.055279774433594255 0.06834815179922224 0.038209695221831007 -0.00091890802781289876 0.058856661644291167 -0.045658771365358793 0.087799805118084481 -0.017435650882647358 0.0829049337138833 -0.0016026706312426734 -0.021229338915564132
leaf_weight=158.85208574682474 1119.4681013822556 58.055999040603638 1888.1157283857465 254.25884783267975 355.78526522964239 2297.1936705559492 294.34373434633017 314.50497251749039 424.55438521504402 367.69397761672735 370.38835106790066 379.62959919124842 473.97581599652767 465.56951306760311 658.7869586572051 1326.6139536798 307.07121489197016 213.55775801092386 254.7128144800663 63.44065810739994 2485.3685203045607 226.38908770680428 40.259415522217751 17.446351490914822 159.68116246163845 2028.9727531522512 997.41812782734632 42.778869144618511 620.06247705221176 31.967157602310181 159.3941840082407
leaf_count=1065 12774 303 16771 2424 2859 17009 3886 2537 2560 1740 4119 2394 5000 5585 6617 12549 2108 1699 2338 655 38085 1336 345 110 735 27534 4465 319 2846 259 2291
internal_value=-0.000227297 0.0230144 0.0139248 -0.0317427 0.0303615 0.0206782 -0.0353141 -0.025659 -0.00358883 0.0336502 0.00562325 0.0674983 -0.0097426 -0.0337667 -0.0129565 -0.00513497 0.0655864 0.0293261 0.025562 -0.0170397 -0.0500106 0.0422436 -0.0207116 0.080673 0.0321309 -0.0414353 0.0822831 0.0261356 0.0783592 0.0438196 -0.0534706
internal_weight=18856.3 10845.9 9023.43 8010.36 4664.65 3679.46 7596.42 4617.06 4358.78 2664.89 939.606 1822.51 3688.71 3677.45 1014.57 3214.73 985.19 670.079 569.218 1182.91 2979.37 648.798 334.603 1173.72 413.94 2494.54 1156.27 422.408 678.118 456.522 2644.76
internal_count=185317 82009 72320 103308 33482 28225 100149 55542 38838 18749 8994 9689 34320 46548 9476 29320 5257 4518 4875 13429 44607 4049 4231 5640 3159 33119 5530 2713 3149 2819 40376
is_linear=0
shrinkage=0.0604202


Tree=12
num_leaves=32
num_cat=0
split_feature=157 527 18 1 153 191 1 215 175 391 160 1 51 51 191 18 158 175 399 153 158 17 16 181 158 156 233 136 309 54 51
split_gain=3410.93 1029.61 715.621 526.482 387.53 260.651 261.965 233.606 206.388 194.222 169.031 203.526 147.168 129.022 122.583 103.124 121.049 98.5463 93.3874 92.9631 89.7762 88.7382 86.3451 85.7798 60.7384 58.6279 55.259 49.1451 47.5924 35.4323 33.3781
threshold=1886.2700000000002 -0.29999999999999966 1212.7300000000002 202056.50000000003 0.19273193248419479 45.500000000000007 202006.50000000003 1.0000000180025095e-35 1.5000000000000002 -1.0000000180025095e-35 7483.5150000000012 202101.50000000003 969.67500000000007 969.67500000000007 3.5000000000000004 1.0100000000000002 10622.825000000003 1.5000000000000002 -20182.344999999998 0.3266917384589979 23624.030000000002 3.5000000000000004 -1203.2299999999998 11.500000000000002 10126.000000000002 -83.589999999999989 1.5000000000000002 10767.925000000001 176653.80000000002 1.0000000180025095e-35 1.0000000180025095e-35
decision_type=2 8 2 2 2 10 2 8 2 10 2 2 2 2 10 2 2 2 8 2 2 2 2 2 2 2 2 8 10 2 2
left_child=1 7 5 4 8 6 17 19 22 -10 11 18 20 -5 -12 -9 -17 25 -4 30 -6 -14 -3 -20 -19 -2 29 -13 -18 -8 -1
right_child=2 3 10 13 12 -7 26 15 9 -11 14 27 21 -15 -16 16 28 24 23 -21 -22 -23 -24 -25 -26 -27 -28 -29 -30 -31 -32
leaf_value=0.044535026907494613 0.092850968830376107 0.069003508860622273 0.010584416243133202 0.072504461037859361 0.0053608611601348184 0.062122999678426306 0.049556267026490415 0.081107937506320629 -0.010829050375904625 0.025164153911320351 -0.053619296420664521 0.061473747402393995 -0.039267593554839254 -0.0093332190599447005 0.022001241458249932 0.068743438769701695 -0.00080679886337091963 -0.010972970964950131 -0.023736678516143403 -0.012904151377957916 -0.020341916258968602 0.036624423356414477 0.021199427999182049 -0.045063026761586113 -0.034008916495716045 -0.003031618947982036 -0.022683387139533245 6.1713497771483276e-05 0.043013104723261919 0 -0.013154558015999629
leaf_weight=320.43566285073757 38.167966730892658 431.30403187125921 145.28383556380868 604.43428581207991 2263.938359901309 205.11816424131393 331.37551090121269 1105.731130450964 752.9686568453908 1832.2894560396671 2461.0739449970424 73.96850323677063 583.58367576450109 66.725727789103985 67.936304569244385 471.64919739216566 178.59621981531382 1355.6179852187634 1363.396588422358 174.57950653135777 625.641093544662 49.374132625758648 262.82971557974815 1817.9637070037425 674.22380204498768 28.805872201919556 40.603397496044636 147.94112430512905 142.15420363843441 68.373730324208736 24.555341668426991
leaf_count=2110 293 1878 1703 2858 19238 928 2277 4940 7091 13056 39028 511 6974 728 502 2666 1321 14867 15117 1663 6365 391 1841 24881 8353 316 407 1355 858 558 243
internal_value=-0.000228614 0.0240983 -0.0275566 0.012902 0.00775018 -0.00175404 -0.0072855 0.0583543 0.0226984 0.0145086 -0.0391072 -0.0301573 -0.00606189 0.0636998 -0.0513451 0.0682713 0.0491243 -0.0163414 -0.0339552 0.0207611 -9.49139e-05 -0.0322429 0.0520168 -0.0361515 -0.0189538 0.0500926 0.0343326 0.0239916 0.0178828 0.041568 0.0389523
internal_weight=18710.6 9890.79 8819.85 7473.09 6801.93 2742.29 2537.17 2417.7 3279.39 2585.26 6077.56 3548.55 3522.54 671.16 2529.01 1898.13 792.4 2096.82 3326.64 519.571 2889.58 632.958 694.134 3181.36 2029.84 66.9738 440.353 221.91 320.75 399.749 344.991
internal_count=185317 74221 111096 60420 56834 27999 27071 13801 23866 20147 83097 43567 32968 3586 39530 9785 4845 23829 41701 4016 25603 7365 3719 39998 23220 609 3242 1866 2179 2835 2353
is_linear=0
shrinkage=0.0604202


Tree=13
num_leaves=32
num_cat=0
split_feature=181 243 1 191 153 158 160 1 391 391 233 398 21 171 271 393 132 152 1 153 175 536 285 411 305 391 191 17 320 27 502
split_gain=3064.36 942.878 581.6 437.871 437.055 364.688 268.839 285.648 261.177 253.176 151.908 135.533 129.756 106.364 105.702 102.223 96.6608 64.0895 54.0933 52.8765 41.4066 40.7697 40.0486 38.578 36.5006 35.6356 34.1076 30.7066 30.6666 28.5004 22.9408
threshold=5.5000000000000009 -0.10000000000000002 202056.50000000003 12.500000000000002 0.32301634459588185 7730.2500000000009 20238.995000000003 202056.50000000003 -1945.1900000000094 -1.0000000180025095e-35 1.0000000180025095e-35 -26281.759999999998 1.0000000180025095e-35 1859.2050000000004 4106.0850000000009 11193.289999999995 1.0000000180025095e-35 19958.595000000005 202101.50000000003 0.48093166011900884 1.5000000000000002 1.0000000180025095e-35 2633.9400000000005 936.50999999999999 1882.6650000000004 6542.1750000000475 29.500000000000004 2.5000000000000004 5.5000000000000009 568.79500000000019 9.5000000000000018
decision_type=2 8 2 10 2 2 2 2 8 10 2 8 2 2 8 10 8 8 2 2 2 8 8 10 10 10 10 2 10 2 2
left_child=1 12 4 6 5 8 7 10 -3 -7 11 -2 15 19 18 25 23 29 24 -9 -12 -20 -15 -6 -4 -1 30 -19 -18 -8 -5
right_child=3 2 14 26 16 9 17 13 -10 -11 20 -13 -14 22 -16 -17 28 27 21 -21 -22 -23 -24 -25 -26 -27 -28 -29 -30 -31 -32
leaf_value=0.082439794605002295 0.044363617489583021 0.086364068429816157 0.051919075072247758 -0.0031815039263310501 -0.025260400319882657 -0.018963166824925048 -0.024098257791080643 0.075544594256929845 0.021470305045641028 0.030528178409165493 0.0019637146081701354 -0.023049336191964559 0.0036105192819058931 0.014445512227033275 -0.0054635154441949104 0.0047515032061039115 0.0010441923366423958 -0.025274810163180429 0.087434675929954311 0.0026980652720930763 -0.046536494714821706 0 -0.027775653456386478 0.0027933206703393059 0 0 0.047727270996805828 0.029280881451867649 0.047339637971575033 -0.054391397474915372 0.033066949548719797
leaf_weight=1026.4868294671178 101.86001679673791 236.44235038757324 424.34419000893831 135.24399045854807 1474.9011214524508 1438.8069459795952 198.44835395738482 121.82828630506992 4679.0581691116095 498.01465658843517 48.148860175162554 2441.7643166594207 113.26588045060635 175.27528139948845 71.722927547991276 82.495624981820583 231.00411070138216 204.09839442372322 380.36069986969233 69.658307090401649 1493.1641986258328 18.86117821931839 134.20627227798104 169.85206998884678 38.922548145055771 13.083224713802336 197.30567019432783 31.313148114830256 68.62457225471735 2154.549107182771 86.748149037361145
leaf_count=4351 1101 1396 2069 1362 14683 13879 2798 914 34197 3423 540 30766 808 1557 638 537 1952 2892 1695 665 20984 109 1391 1584 211 74 940 282 403 36259 857
internal_value=-0.000225704 0.020174 0.0137715 -0.0297337 0.00886881 0.0160726 -0.0332747 -0.0242173 0.0248277 -0.0059303 -0.0295368 -0.0200351 0.0698059 0.0180525 0.0589618 0.0760167 -0.0162501 -0.0490172 0.0648301 0.0525219 -0.0447324 0.0832247 -0.00272397 -0.0220952 0.0468068 0.0811627 0.0292675 -0.0154203 0.0141154 -0.0521219 0.00976397
internal_weight=18559.9 10966.2 9730.92 7593.61 8796.7 6852.32 7174.31 4585.91 4915.5 1936.82 4084.94 2543.62 1235.33 500.968 934.212 1122.07 1944.38 2588.41 862.489 191.487 1541.31 399.222 309.482 1644.75 463.267 1039.57 419.298 235.412 299.629 2353 221.992
internal_count=185317 82009 76239 103308 71517 52895 100149 57918 35593 17302 53391 31867 5770 4527 4722 4962 18622 42231 4084 1579 21524 1804 2948 16267 2280 4425 3159 3174 2355 39057 2219
is_linear=0
shrinkage=0.0604202


Tree=14
num_leaves=32
num_cat=0
split_feature=157 173 18 51 1 387 493 1 160 1 245 32 17 171 157 175 158 156 171 377 283 256 1 399 17 391 158 154 434 32 82
split_gain=2775.81 826.764 641.55 565.704 418.55 331.714 211.934 217.264 157.83 173.726 148.06 142.774 125.254 117.484 86.0645 76.7099 68.7802 51.7958 47.396 43.9218 42.7228 42.3194 41.9855 39.1351 36.4205 104.947 42.5041 34.1863 32.267 28.7645 27.8853
threshold=1886.2700000000002 1.0000000180025095e-35 1263.4550000000002 969.67500000000007 202056.50000000003 -266.12999999999761 2.5000000000000004 202011.50000000003 7483.5150000000012 202101.50000000003 -0.59999999999999964 8297.9400000000023 3.5000000000000004 26597.775000000005 9288.7850000000017 1.5000000000000002 11580.955000000002 -34.864999999999995 4897.2750000000005 -0.20600218359434724 1199.4350000000002 -348.92499999999995 202101.50000000003 -16273.995000000004 3.5000000000000004 22188.885000000013 184858.98500000002 15701.005000000001 63467.745000000818 51880.200000000004 59729.745000000003
decision_type=2 2 2 2 2 8 10 2 2 2 10 2 2 2 2 2 2 2 2 8 8 8 2 8 2 10 2 2 10 2 2
left_child=1 3 6 4 5 10 7 15 9 14 -1 -7 30 -10 19 17 -17 -2 -9 -4 -11 -14 -6 -16 25 26 -3 -15 -8 -24 -5
right_child=2 24 8 12 22 11 28 18 13 20 -12 -13 21 27 23 16 -18 -19 -20 -21 -22 -23 29 -25 -26 -27 -28 -29 -30 -31 -32
leaf_value=0.066276292715474874 0.079389138912532922 0.069779718909871474 0.018164940672459485 -0.037904995231341491 0.045440254333000488 0.010939843516325527 0.065909234489689092 0.051041654143567768 -0.053567231545254154 0.050225503559176016 0.025262832645043129 -0.014553399071868424 0.096214542486914134 0.019650043257360805 0 -0.008439430809774013 -0.032723441702505816 -0.0075198300763462721 0 -0.021429361403320076 0 0 0.085129658975449746 -0.041345745346089514 0.10750369163373324 -0.029371710622003038 0.022003363731492035 -0.03317724839014554 0.0014825164149249008 0 0.0040535953074433027
leaf_weight=388.43737947195768 44.114587754011154 981.27071639150381 95.349471785128117 841.84147688001394 406.56274465471506 3107.3396036699414 171.56249088793993 243.55090295895934 2146.131332013756 93.570363536477089 2490.9025065377355 1060.9558961614966 23.379221305251122 104.47718092054129 89.208323460072279 1447.8450355194509 650.80288295075297 29.413731083273888 94.537637487053871 976.19516991823912 132.6534456089139 46.583141896873713 322.44949816912413 1992.091799557209 115.33567602187395 33.099824838340282 114.11173432320356 65.08777878433466 51.341207459568977 16.74939189106226 40.092521287500858
leaf_count=2510 323 4175 1049 9927 1921 23856 808 1522 37278 688 17842 10214 167 1222 1103 15861 8447 318 769 11106 1172 393 1377 28200 524 211 510 976 254 107 487
internal_value=-0.000215006 0.0212983 -0.0257618 0.0146416 0.0200499 0.015366 -0.00151863 -0.00675559 -0.0372994 -0.0285273 0.0311308 0.00432808 -0.0289571 -0.0497553 -0.0322558 -0.0139463 -0.0162838 0.0420751 0.0373607 -0.0173781 0.0208222 0.0424682 0.0630435 -0.0395998 0.067324 0.0620432 0.0654155 0 0.0535958 0.0812168 -0.0354781
internal_weight=18417 9989.11 8427.93 8745.29 7793.4 7047.64 2733.17 2510.26 5694.76 3379.07 2879.34 4168.3 951.896 2315.7 3152.84 2172.18 2098.65 73.5283 338.089 1071.54 226.224 69.9624 745.762 2081.3 1243.82 1128.48 1095.38 169.565 222.904 339.199 881.934
internal_count=185317 74221 111096 68801 57827 54422 28302 27240 82794 43318 20352 34070 10974 39476 41458 24949 24308 641 2291 12155 1860 560 3405 29303 5420 4896 4685 2198 1062 1484 10414
is_linear=0
shrinkage=0.0604202


Tree=15
num_leaves=32
num_cat=0
split_feature=157 204 18 153 158 51 190 1 191 1 1 175 50 1 527 242 17 233 399 175 285 191 158 392 158 173 305 156 20 18 16
split_gain=2485.57 791.596 515.932 496.806 239.962 236.937 206.077 169.332 164.888 184.698 143.583 136.752 135.422 159.245 128.218 113.698 88.0117 73.3509 67.7159 57.1554 51.0076 50.9246 50.1615 47.38 46.9498 40.1395 38.6557 37.1328 28.0317 27.9249 26.6707
threshold=2773.1650000000004 1.0000000180025095e-35 1263.4550000000002 0.19273193248419479 7730.2500000000009 969.67500000000007 1.0000000180025095e-35 202006.50000000003 29.500000000000004 202011.50000000003 202101.50000000003 1.5000000000000002 1.0000000180025095e-35 202101.50000000003 -0.29999999999999982 7496.0565000000015 3.5000000000000004 1.0000000180025095e-35 -16273.995000000004 1.5000000000000002 1013.0150000000002 24.500000000000004 11101.345000000003 21130.970000000005 375643.07500000007 1.0000000180025095e-35 5659.7250000000013 -34.864999999999995 106.77500000000002 29601.455000000005 -317.66499999999991
decision_type=2 10 2 2 2 2 8 2 10 2 2 2 2 2 8 10 2 2 8 2 10 10 2 10 2 2 10 2 2 2 2
left_child=1 3 8 4 10 7 25 14 9 19 11 -1 13 17 -5 -14 -7 18 -4 27 29 -8 -21 -3 -25 -6 28 -2 -11 -15 -18
right_child=2 23 12 5 6 16 21 -9 -10 26 -12 -13 15 20 -16 -17 30 -19 -20 22 -22 -23 -24 24 -26 -27 -28 -29 -30 -31 -32
leaf_value=0.057934510540506079 0.068658106371047953 0.075121321383071413 0.02448314738086884 0.026785491758905117 -0.023195638827683912 -0.035897207501780729 0.018909474120553625 0.035154796639440565 0.045663702110051919 0.05141513521332871 0.084199013667558012 0.025605367558271485 -0.051446116382439532 0.069796616417500207 -0.004627893245174289 0.015892211054929471 0.076636356036768702 -0.045130128500490925 -0.026614469318333955 -0.010366029805160309 -0.003400010946114777 0.063373871106730109 -0.032652187472954508 -0.02076351987441671 0.076503493515103591 0.018915563900094509 -0.0018944773850902085 -0.0064779689700094779 0 0 0
leaf_weight=627.4256483912468 38.900196433067322 884.67138998955488 84.594778619706631 560.12491729110479 605.89842983335257 746.04791796579957 479.53090432286263 603.64331570267677 217.92082929611206 220.43394611030817 213.95421855151653 2649.3913599774241 2109.7896603606641 68.599256344139576 2831.1408868655562 81.568248577415943 20.643772110342979 1066.1233969032764 1714.0853224247694 1282.668239697814 119.57691811025143 135.28391448408365 582.20100118592381 40.733028203248978 17.807420909404755 77.124345362186432 66.193606525659561 26.952351804822683 34.608907010406256 27.612183518707752 41.628086004406214
leaf_count=2975 283 3705 926 3910 6221 9623 3281 3491 996 1378 904 17526 38116 443 25768 900 132 15726 22474 14462 1084 642 7932 286 99 356 553 298 243 230 354
internal_value=-0.000200222 0.0188699 -0.0262001 0.0135838 0.0273373 -5.98724e-05 0.00471676 0.00589878 -0.00319704 -0.00827782 0.0355882 0.0320665 -0.03687 -0.0282092 0.000484681 -0.0486853 -0.0298041 -0.0320419 -0.0238602 -0.0155151 0.0199713 0.0301467 -0.0176789 0.0715486 0.00823231 -0.017622 0.0331426 0.0347519 0.0436853 0.0511464 0.032418
internal_weight=18276.9 10535 7741.83 9591.84 4788.61 4803.23 1297.84 3994.91 2469.88 2251.96 3490.77 3276.82 5271.95 3080.59 3391.27 2191.36 808.32 2864.8 1798.68 1930.72 215.788 614.815 1864.87 943.212 58.5404 683.023 321.236 65.8525 255.043 96.2114 62.2719
internal_count=185317 79273 106044 75183 31905 43278 10500 33169 26145 25149 21405 20501 79899 40883 29678 39016 10109 39126 23400 22975 1757 3923 22394 4090 385 6577 2174 581 1621 673 486
is_linear=0
shrinkage=0.0604202


Tree=16
num_leaves=32
num_cat=0
split_feature=181 132 1 191 153 158 70 191 51 1 160 158 17 175 153 285 171 527 191 304 153 152 253 106 411 166 16 283 272 158 257
split_gain=2263.12 818.661 447.538 336.436 300.133 272.182 285.417 262.58 158.241 177.729 152.623 143.801 122.944 121.589 89.473 84.0384 80.9611 78.6526 78.1979 67.5081 65.2781 58.57 53.6811 50.6799 48.0532 38.5062 32.7834 32.056 28.5734 26.6392 23.9239
threshold=8.5000000000000018 1.0000000180025095e-35 202006.50000000003 40.500000000000007 0.15490148811735541 19174.910000000003 1.0000000180025095e-35 12.500000000000002 21908.470000000005 202006.50000000003 4106.0850000000009 10126.000000000002 3.5000000000000004 1.5000000000000002 0.34587152760295198 2769.3100000000004 428.14500000000004 -0.29999999999999982 11.500000000000002 2950.0950000000007 0.48093166011900884 16826.685000000001 0.70500000000000007 5.5000000000000009 1320.6100000000004 375.63500000000005 -307.06999999999994 925.80500000000006 29490.510000000006 144859.79500000001 -402.90499999999992
decision_type=2 8 2 10 2 2 2 10 2 2 2 2 2 2 2 8 2 8 10 10 2 8 8 2 10 2 2 10 10 2 10
left_child=1 2 3 5 13 6 -1 8 9 16 14 17 23 30 19 20 28 -6 -7 -4 -11 -10 -18 -13 -16 -19 -14 -15 -2 -5 -3
right_child=7 4 10 29 11 18 -8 -9 21 15 -12 12 26 27 24 -17 22 25 -20 -21 -22 -23 -24 -25 -26 -27 -28 -29 -30 -31 -32
leaf_value=-0.013447503408574228 -0.01475707311689268 0.069178463254733424 0.049361063517179699 0.076723068254046164 0.05313722849666986 -0.036854804284113279 0.014410361349771306 0.020749543611682748 -0.051160845820793541 0.029763982212071931 -0.025589549971885426 0.03078937775214673 0.10167621963544576 0.015481622171755185 -0.0016560087896662331 -0.027307619726114132 -0.0065918246756386826 0.02594850547338309 0.020755666990234026 -0.00050399704172896865 -0.0141757159559656 -0.014652562930399531 -0.041193157740695402 -0.014273225275464601 0.052655720132136374 -0.0096774765706218839 0 0.04384128888112989 0.031231789889059999 0 0.036325485541744751
leaf_weight=2749.7822662629187 451.39124359562993 1113.5330393239856 1104.3786977306008 192.24061560630798 452.49174997955561 1055.5884493254125 2606.8825674317777 322.39853889495134 1860.1220483630896 336.66336635127664 139.67918771505356 93.133976347744465 42.191683292388916 330.15134491026402 276.46310818567872 264.04235928878188 216.12692208960652 419.98426724225283 77.95562145486474 89.349753983318806 169.96087236329913 223.46911557763815 1998.8677298314869 638.16425208002329 62.739031538367271 122.95859395712614 24.794757686555386 433.60107271373272 41.972887728363276 28.083231523633003 188.28303270041943
leaf_count=26300 5737 4664 5842 856 2245 12730 22174 2489 35523 2987 1746 733 217 1969 1935 3086 2871 2771 751 557 1981 3333 30953 5425 400 958 208 2380 440 127 929
internal_value=-0.000186053 0.0145896 0.0039169 -0.00300302 0.0375975 -0.00559846 2.84397e-05 -0.0309751 -0.0340801 -0.0257977 0.0318169 0.0189939 0 0.0533924 0.0374497 0 -0.033062 0.0342117 -0.0323773 0.0452825 0.0141707 -0.047534 -0.0380553 -0.00764226 0.00816855 0.01705 0.0732446 0.0324667 -0.00949075 0.0688447 0.065036
internal_weight=18127.4 12242.4 8383.14 6710.53 3859.29 6490.21 5356.66 5885.02 5562.62 3479.03 1672.61 1793.72 798.285 2065.57 1532.93 770.667 2708.36 995.435 1133.54 1193.73 506.624 2083.59 2214.99 731.298 339.202 542.943 66.9864 763.752 493.364 220.324 1301.82
internal_count=185317 95917 73418 62938 22499 61955 48474 89400 86911 48055 10480 12557 6583 9942 8734 8054 40001 5974 13481 6399 4968 38856 33824 6158 2335 3729 425 4349 6177 983 5593
is_linear=0
shrinkage=0.0604202


Tree=17
num_leaves=32
num_cat=0
split_feature=157 204 18 51 1 527 17 391 493 1 160 1 191 233 398 175 233 16 181 106 392 1 156 158 285 82 171 434 497 251 18
split_gain=2046.12 614.827 532.866 365.228 327.498 248.428 193.23 177.016 166.543 202.755 127.505 117.16 103.109 85.8024 78.638 68.6608 57.3547 52.0199 49.3837 44.406 39.701 37.0391 36.7154 35.1606 30.8481 30.5233 28.7658 25.9613 24.2022 23.5313 22.4066
threshold=1886.2700000000002 1.0000000180025095e-35 2351.8600000000001 969.67500000000007 202056.50000000003 -0.29999999999999966 3.5000000000000004 -1.0000000180025095e-35 2.5000000000000004 202006.50000000003 7483.5150000000012 202101.50000000003 3.5000000000000004 1.0000000180025095e-35 -43205.149999999994 1.5000000000000002 1.0000000180025095e-35 -307.06999999999994 11.500000000000002 67.500000000000014 5231.9700000000021 202101.50000000003 -83.589999999999989 375643.07500000007 922.75000000000011 31204.765000000003 61494.525000000009 63467.745000000818 60.500000000000007 0.80956245548838401 33045.465000000004
decision_type=2 10 2 2 2 8 2 8 10 2 2 2 10 2 8 2 2 2 2 2 10 2 2 2 10 2 2 10 10 8 2
left_child=1 3 8 4 5 13 25 -7 9 15 11 14 -12 -1 -4 22 -17 -8 -16 28 -3 -6 -2 -22 30 26 -5 -10 -11 -23 -13
right_child=2 20 10 6 21 7 17 -9 27 19 12 24 -14 -15 18 16 -18 -19 -20 -21 23 29 -24 -25 -26 -27 -28 -29 -30 -31 -32
leaf_value=0.046552707925614535 0.068268251518933162 0.068234086789148676 0.018347536678689619 -0.037207377021925392 0.038434530105408808 -0.015034421858304845 0.095717506808334837 0.012348772733352907 0.0539890860962415 0.060780220996820206 -0.050485680898991706 0.057139793122377637 0.023995659164837851 0.012952324459946648 -0.021667744598218013 -0.0098032756027425366 -0.030444931058015233 0 -0.040542940186437823 -0.0035372968125419743 -0.011795917057884034 0.074153129488328764 -0.0013300776892733238 0.065623079073354629 -0.0028261925637506945 0 0.028637621145799683 0 0.022165030719595052 0 0
leaf_weight=943.04985447227955 43.915833659470081 860.59799212962389 98.03995231539011 757.37024389952421 429.34029237926006 1020.5180291160941 46.659668274223804 4989.8701346963644 185.61388236284256 107.69578090310097 1914.9317702353001 64.375613920390606 57.312165673822165 462.7776520550251 1056.2344886511564 1421.1684261001647 845.00991797819734 43.810815207660198 1437.9419056773186 126.19369104132056 48.560896083712578 337.98928862810135 33.378786481916904 21.516785331070423 120.14534698426723 85.470959659665823 11.344815030694006 55.091865718364716 313.38704102486372 16.722214452922344 26.77638902887702
leaf_count=5083 291 3629 1134 9414 1958 10534 273 36778 842 577 37836 399 414 3093 12854 16495 11981 366 22913 1288 324 1446 384 110 1109 1076 55 266 2088 82 225
internal_value=-0.000178496 0.0178451 -0.0231952 0.0129891 0.0171206 0.0130784 -0.02224 0.00761066 -0.00364944 -0.00784468 -0.0358888 -0.0270883 -0.0480021 0.0359523 -0.0306686 -0.0156961 -0.0177815 0.0565209 -0.0328293 0.024699 0.0645307 0.0542367 0.0359254 0.0109153 0.0142954 -0.0315779 -0.0353575 0.0434813 0.0340959 0.0707755 0.0396089
internal_weight=17982.8 10075.6 7907.21 9144.92 8200.27 7416.22 944.657 6010.39 3131.46 2890.75 4775.76 2803.51 1972.24 1405.83 2592.22 2343.47 2266.18 90.4705 2494.18 547.277 930.676 784.052 77.2946 70.0777 211.297 854.186 768.715 240.706 421.083 354.712 91.152
internal_count=185317 74221 111096 70158 58974 55488 11184 47312 34212 33104 76884 38634 38250 8176 36901 29151 28476 639 35767 3953 4063 3486 675 434 1733 10545 9469 1108 2665 1528 624
is_linear=0
shrinkage=0.0604202


Tree=18
num_leaves=32
num_cat=0
split_feature=181 155 381 191 158 175 71 132 233 153 391 51 153 4 51 158 146 443 233 392 171 136 191 399 243 273 153 152 4 263 144
split_gain=1857.77 658.595 362.878 229.439 213.895 212.402 196.487 166.33 154.089 154.958 120.395 100.636 88.585 87.0551 84.1866 80.7684 74.4887 69.2839 62.0673 61.2766 55.1484 54.4427 53.5601 46.5757 41.2056 37.62 24.8799 23.5932 23.4272 23.2172 22.9339
threshold=8.5000000000000018 -5865.6149999999989 701.50999999999988 12.500000000000002 11580.955000000002 1.5000000000000002 892.78000000000009 6.5000000000000009 1.0000000180025095e-35 0.39684114738033399 -1.0000000180025095e-35 969.67500000000007 0.36658625156815011 1.0000000180025095e-35 2372.6500000000005 21397.675000000007 -1.0000000180025095e-35 -1.0000000180025095e-35 1.0000000180025095e-35 1452.5200000000007 404.68500000000012 -61.804999999999993 25.500000000000004 -26698.724999999999 -0.24999999999999994 12726.275000000001 0.033746004521693206 16826.685000000001 1.5000000000000002 4455.0350000000008 -1.9999999999999998
decision_type=2 2 8 10 2 2 2 8 2 2 10 2 2 2 2 2 8 10 2 10 2 10 10 8 8 8 2 8 2 10 10
left_child=1 5 4 8 6 26 14 11 9 13 17 15 -8 25 -3 -4 29 -6 -9 -12 -15 -20 -18 -11 -10 -2 -1 -26 -24 -7 -25
right_child=3 2 7 -5 10 16 12 18 24 23 19 -13 -14 20 -16 -17 22 -19 21 -21 -22 -23 28 30 27 -27 -28 -29 -30 -31 -32
leaf_value=0.069259064711430104 0.022301431517044196 0.014100788117896447 -0.0044981984770531627 0.018938560853614242 0.036996342864077901 -0.008911182599038411 0.041627741512732089 0.033161009016718444 0.027213994352862515 0 0.037060644522967943 -0.039897611185300462 0.00097522669053646161 0.0095428288895322722 -0.024872748200609137 -0.032597339233362714 0.026540665050960019 -0.024632983737700107 -0.0095946333732794091 -0.013902754514641638 -0.026142806352602323 0.039480099151356397 0.075692114335529928 -0.0039297549574010097 -0.048820024148600198 -0.013935272933913527 0.040966742570140081 -0.027118691990353039 0 0.01863070234004701 -0.040010749665224971
leaf_weight=748.8177542835474 364.87551662698388 2418.3456969559193 2326.0874695815146 325.42594685405493 59.73883643001318 235.64044635742903 1666.6096830032766 389.92770501971245 15.833727974444626 108.25785063952208 264.07938928157091 469.07202968373895 247.5414155498147 174.60715882480145 205.36302896216512 452.03659426420927 781.33998497202992 777.38936699554324 380.51912082731724 105.12250958010554 742.26374626904726 95.908994644880295 133.3283901065588 98.147091440856457 1797.0559747032821 122.66060813888907 305.88493709266186 359.82551154494286 7.1452971994876853 186.58673015981913 1475.0461312718689
leaf_count=3122 3466 17458 20632 2489 276 1898 10646 2393 157 1656 1701 6425 2151 2309 2515 5430 4678 8427 3493 795 11655 440 598 1248 32649 1990 1321 5694 34 1484 26087
internal_value=-0.000160356 0.0129741 0.00599677 -0.0290446 0.0158222 0.0413392 0.0218476 -0.00762017 -0.0321245 -0.0230353 -0.00647233 -0.0139643 0.0366294 -0.00774049 0.0108101 -0.00931634 0.0246083 -0.0193777 0.015554 0.0213883 -0.0188414 0 0.0342061 -0.0354427 -0.044688 0.0122057 0.06187 -0.0455271 0.0698648 0.00235828 -0.0380742
internal_weight=17840.5 12256.5 9857.74 5584 5744.19 2398.74 4537.86 4113.55 5258.57 3085.86 1206.33 3247.2 1914.15 1404.41 2623.71 2778.12 1344.04 837.128 866.356 369.202 916.871 476.428 921.814 1681.45 2172.72 487.536 1054.7 2156.88 140.474 422.227 1573.19
internal_count=185317 95917 82782 89400 43969 13135 32770 38813 86911 48411 11199 32487 12797 19420 19973 26062 8692 8703 6326 2496 13964 3933 5310 28991 38500 5456 4443 38343 632 3382 27335
is_linear=0
shrinkage=0.0604202


Tree=19
num_leaves=32
num_cat=0
split_feature=157 229 18 51 1 191 12 50 1 171 191 1 384 272 221 171 389 181 164 71 8 154 449 154 267 16 55 391 141 269 177
split_gain=1687.81 534.628 403.277 338.041 272.456 193.911 181.616 123.63 133.5 110.117 103.402 124.562 85.1301 61.8868 56.5588 51.302 47.51 47.3693 42.4299 33.0777 30.0851 29.6051 27.394 27.1024 27.3393 25.4023 24.2661 23.4232 20.8549 20.3937 20.274
threshold=2773.1650000000004 -1.0000000180025095e-35 1263.4550000000002 969.67500000000007 202056.50000000003 30.500000000000004 6.5000000000000009 1.0000000180025095e-35 202056.50000000003 26597.775000000005 29.500000000000004 202011.50000000003 -5.4299999999999171 48890.100000000006 -300.29050000000024 1800.5550000000003 980.15499999999986 11.500000000000002 460.41500000000008 613.94000000000017 16804.290000000005 15701.005000000001 1.0000000180025095e-35 24257.495000000006 132774.49500000002 -6098.8449999999984 70.475000000000009 -1.0000000180025095e-35 91494.000000000015 25285.660000000003 1.0000000180025095e-35
decision_type=2 8 2 2 2 10 2 2 2 2 10 2 8 10 8 2 8 2 2 2 2 2 10 2 8 2 2 10 10 10 2
left_child=1 12 10 4 5 6 -3 8 13 -9 11 14 22 17 16 28 -2 -4 29 25 26 -11 -1 24 -6 -5 -13 -12 -10 30 -14
right_child=2 3 7 19 23 -7 -8 9 15 21 27 20 18 -15 -16 -17 -18 -19 -20 -21 -22 -23 -24 -25 -26 -27 -28 -29 -30 -31 -32
leaf_value=0.056390272406753816 0.013172348543039605 0.016343644452751899 -0.020743105776185294 0.0093728611487708339 0.05511842973927792 0.070591484855517528 -0.0032032429042910082 -0.049996100582792379 -0.00065589460714695572 0.021295934471899387 0.0021485067546848208 0.043573485434086297 0.029673349824708265 0.016789674142821162 -0.02223245823894418 -0.010076078557015972 -0.016139220260846316 -0.039735971655858626 0.043854546639877763 0.03041460216910212 -0.00076584744853670718 -0.029444799462322754 0 0.010161892263900183 0 -0.031540344812859035 0 0.049302657588804928 0.042362091294546947 -0.013672417216429717 0
leaf_weight=1109.2930971309543 411.93102316558361 3684.3067665472627 1007.2653795033693 38.219658546149731 608.99702729284763 174.31140097975731 3209.6828298568726 1714.9507049694657 29.987028516829014 102.03483992815018 79.851268626749516 219.97769410908222 234.34030670672655 81.956419318914413 1058.9004065580666 232.98048733174801 377.39274401962757 1352.5701209194958 331.12281220406294 21.516853991895914 81.924575708806515 58.15515723824501 22.710840620100498 96.673762209713459 37.12069733440876 806.66940840706229 33.967200141400099 146.29273956269026 134.64679911732674 63.156490992754698 153.11623736470938
leaf_count=5176 4799 26478 12960 293 2589 766 27366 36797 225 1230 365 1283 1275 947 13326 2369 4850 23342 1819 178 639 989 129 513 203 10945 252 631 1040 546 997
internal_value=-0.000159121 0.0151072 -0.0229061 0.008647 0.0126633 0.00889656 0.00718609 -0.033177 -0.0247452 -0.0455374 -0.00258538 -0.00682696 0.0439984 -0.0300521 -0.0131534 0.00669836 -0.000308509 -0.0319216 0.0270286 -0.0268228 0.0261552 0 0.0550352 0.0474033 0.0520899 -0.0290933 0.0362717 0.0352345 0.0323204 0.0131062 0.0187951
