tree
version=v4
num_class=1
num_tree_per_iteration=1
label_index=0
max_feature_idx=333
objective=binary sigmoid:1
feature_names=numero_de_cliente foto_mes active_quarter cliente_vip internet cliente_edad cliente_antiguedad mrentabilidad mrentabilidad_annual mcomisiones mactivos_margen mpasivos_margen cproductos tcuentas ccuenta_corriente mcuenta_corriente_adicional mcuenta_corriente ccaja_ahorro mcaja_ahorro mcaja_ahorro_adicional mcaja_ahorro_dolares cdescubierto_preacordado ctarjeta_debito ctarjeta_debito_transacciones mautoservicio ctarjeta_visa ctarjeta_visa_transacciones mtarjeta_visa_consumo ctarjeta_master ctarjeta_master_transacciones mtarjeta_master_consumo cprestamos_personales mprestamos_personales cprestamos_prendarios mprestamos_prendarios cprestamos_hipotecarios mprestamos_hipotecarios cplazo_fijo mplazo_fijo_dolares mplazo_fijo_pesos cinversion1 minversion1_pesos minversion1_dolares cinversion2 minversion2 cseguro_vida cseguro_auto cseguro_vivienda cseguro_accidentes_personales ccaja_seguridad cpayroll_trx mpayroll mpayroll2 cpayroll2_trx ccuenta_debitos_automaticos mcuenta_debitos_automaticos ctarjeta_visa_debitos_automaticos mttarjeta_visa_debitos_automaticos ctarjeta_master_debitos_automaticos mttarjeta_master_debitos_automaticos cpagodeservicios mpagodeservicios cpagomiscuentas mpagomiscuentas ccajeros_propios_descuentos mcajeros_propios_descuentos ctarjeta_visa_descuentos mtarjeta_visa_descuentos ctarjeta_master_descuentos mtarjeta_master_descuentos ccomisiones_mantenimiento mcomisiones_mantenimiento ccomisiones_otras mcomisiones_otras cforex cforex_buy mforex_buy cforex_sell mforex_sell ctransferencias_recibidas mtransferencias_recibidas ctransferencias_emitidas mtransferencias_emitidas cextraccion_autoservicio mextraccion_autoservicio ccheques_depositados mcheques_depositados ccheques_emitidos mcheques_emitidos ccheques_depositados_rechazados mcheques_depositados_rechazados ccheques_emitidos_rechazados mcheques_emitidos_rechazados tcallcenter ccallcenter_transacciones thomebanking chomebanking_transacciones ccajas_transacciones ccajas_consultas ccajas_depositos ccajas_extracciones ccajas_otras catm_trx matm catm_trx_other matm_other ctrx_quarter tmobile_app cmobile_app_trx Master_delinquency Master_status Master_mfinanciacion_limite Master_Fvencimiento Master_Finiciomora Master_msaldototal Master_msaldopesos Master_msaldodolares Master_mconsumospesos Master_mconsumosdolares Master_mlimitecompra Master_madelantopesos Master_madelantodolares Master_fultimo_cierre Master_mpagado Master_mpagospesos Master_mpagosdolares Master_fechaalta Master_mconsumototal Master_cconsumos Master_cadelantosefectivo Master_mpagominimo Visa_delinquency Visa_status Visa_mfinanciacion_limite Visa_Fvencimiento Visa_Finiciomora Visa_msaldototal Visa_msaldopesos Visa_msaldodolares Visa_mconsumospesos Visa_mconsumosdolares Visa_mlimitecompra Visa_madelantopesos Visa_madelantodolares Visa_fultimo_cierre Visa_mpagado Visa_mpagospesos Visa_mpagosdolares Visa_fechaalta Visa_mconsumototal Visa_cconsumos Visa_cadelantosefectivo Visa_mpagominimo canarito_1 canarito_2 canarito_3 canarito_4 canarito_5 canarito_6 canarito_7 canarito_8 canarito_9 canarito_10 mcuentas_saldo_rank saldo_caja_ahorro_total saldo_cuenta_corriente_total saldo_cuentas_premium mtarjeta_total_consumo mprestamos_totales minversiones_totales mpayroll_totales mdebitos_automaticos_totales mpagos_servicios_totales mdescuentos_totales mcomisiones_totales mentradas_dinero_totales msalidas_dinero_totales msaldo_total_tarjetas mtarjeta_master_consumos_total mtarjeta_visa_consumos_total mtarjetas_pagado_total mtarjetas_pagominimo_total mlimite_total_tarjetas status_tarjetas_combined total_canales_digitales total_servicios_bancarios cant_cuentas_tarjetas cant_prestamos cant_inversiones cant_seguros cant_depos_haberes cant_transacciones_tarjeta cant_transf_extracciones cant_pagos cant_consumos_tarjetas cant_adelantes_tarjetas cant_debitos_automaticos cant_descuentos cant_comisiones mcuentas_saldo_is_negative saldo_caja_ahorro_total_is_negative saldo_cuenta_corriente_total_is_negative saldo_cuentas_premium_is_negative max_delinquency_tarjetas max_dias_mora_tarjetas tarjetas_antiguedad master_saldo_pendiente visa_saldo_pendiente active_quarter_cambio_lag_1 active_quarter_cambio_lag_2 cliente_vip_cambio_lag_1 cliente_vip_cambio_lag_2 internet_cambio_lag_1 internet_cambio_lag_2 tcuentas_cambio_lag_1 tcuentas_cambio_lag_2 cdescubierto_preacordado_cambio_lag_1 cdescubierto_preacordado_cambio_lag_2 ccaja_seguridad_cambio_lag_1 ccaja_seguridad_cambio_lag_2 tcallcenter_cambio_lag_1 tcallcenter_cambio_lag_2 thomebanking_cambio_lag_1 thomebanking_cambio_lag_2 tmobile_app_cambio_lag_1 tmobile_app_cambio_lag_2 Master_delinquency_cambio_lag_1 Master_delinquency_cambio_lag_2 Master_status_cambio_lag_1 Master_status_cambio_lag_2 Visa_delinquency_cambio_lag_1 Visa_delinquency_cambio_lag_2 Visa_status_cambio_lag_1 Visa_status_cambio_lag_2 mcuentas_saldo_slope_ult_4m mtarjeta_total_consumo_slope_ult_4m cant_transacciones_tarjeta_slope_ult_4m msaldo_total_tarjetas_slope_ult_4m mtarjetas_pagominimo_total_slope_ult_4m total_servicios_bancarios_slope_ult_4m cant_transacciones_tarjeta_slope_ult_4m_1 cant_transf_extracciones_slope_ult_4m cant_consumos_tarjetas_slope_ult_4m cant_adelantes_tarjetas_slope_ult_4m cant_debitos_automaticos_slope_ult_4m cant_descuentos_slope_ult_4m cant_comisiones_slope_ult_4m mcuentas_saldo_rank_lag_1 mcuentas_saldo_rank_lag_2 mcuentas_saldo_rank_lag_3 cproductos_lag_1 cproductos_lag_2 cproductos_lag_3 mcuentas_saldo_lag_1 mcuentas_saldo_lag_2 mcuentas_saldo_lag_3 mtarjeta_total_consumo_lag_1 mtarjeta_total_consumo_lag_2 mtarjeta_total_consumo_lag_3 cant_transacciones_tarjeta_lag_1 cant_transacciones_tarjeta_lag_2 cant_transacciones_tarjeta_lag_3 msaldo_total_tarjetas_lag_1 msaldo_total_tarjetas_lag_2 msaldo_total_tarjetas_lag_3 mtarjetas_pagominimo_total_lag_1 mtarjetas_pagominimo_total_lag_2 mtarjetas_pagominimo_total_lag_3 total_servicios_bancarios_lag_1 total_servicios_bancarios_lag_2 total_servicios_bancarios_lag_3 cant_transacciones_tarjeta_lag_1_1 cant_transacciones_tarjeta_lag_2_1 cant_transacciones_tarjeta_lag_3_1 cant_transf_extracciones_lag_1 cant_transf_extracciones_lag_2 cant_transf_extracciones_lag_3 cant_consumos_tarjetas_lag_1 cant_consumos_tarjetas_lag_2 cant_consumos_tarjetas_lag_3 cant_adelantes_tarjetas_lag_1 cant_adelantes_tarjetas_lag_2 cant_adelantes_tarjetas_lag_3 cant_debitos_automaticos_lag_1 cant_debitos_automaticos_lag_2 cant_debitos_automaticos_lag_3 cant_descuentos_lag_1 cant_descuentos_lag_2 cant_descuentos_lag_3 cant_comisiones_lag_1 cant_comisiones_lag_2 cant_comisiones_lag_3 mcuentas_saldo_rank_delta_lag_1 mcuentas_saldo_rank_delta_lag_2 mcuentas_saldo_rank_delta_lag_3 cproductos_delta_lag_1 cproductos_delta_lag_2 cproductos_delta_lag_3 mtarjeta_total_consumo_delta_lag_1 mtarjeta_total_consumo_delta_lag_2 mtarjeta_total_consumo_delta_lag_3 cant_transacciones_tarjeta_delta_lag_1 cant_transacciones_tarjeta_delta_lag_2 cant_transacciones_tarjeta_delta_lag_3 msaldo_total_tarjetas_delta_lag_1 msaldo_total_tarjetas_delta_lag_2 msaldo_total_tarjetas_delta_lag_3 mtarjetas_pagominimo_total_delta_lag_1 mtarjetas_pagominimo_total_delta_lag_2 mtarjetas_pagominimo_total_delta_lag_3 total_servicios_bancarios_delta_lag_1 total_servicios_bancarios_delta_lag_2 total_servicios_bancarios_delta_lag_3 cant_transacciones_tarjeta_delta_lag_1_1 cant_transacciones_tarjeta_delta_lag_2_1 cant_transacciones_tarjeta_delta_lag_3_1 cant_transf_extracciones_delta_lag_1 cant_transf_extracciones_delta_lag_2 cant_transf_extracciones_delta_lag_3 cant_consumos_tarjetas_delta_lag_1 cant_consumos_tarjetas_delta_lag_2 cant_consumos_tarjetas_delta_lag_3 cant_adelantes_tarjetas_delta_lag_1 cant_adelantes_tarjetas_delta_lag_2 cant_adelantes_tarjetas_delta_lag_3 cant_debitos_automaticos_delta_lag_1 cant_debitos_automaticos_delta_lag_2 cant_debitos_automaticos_delta_lag_3 cant_descuentos_delta_lag_1 cant_descuentos_delta_lag_2 cant_descuentos_delta_lag_3 cant_comisiones_delta_lag_1 cant_comisiones_delta_lag_2 cant_comisiones_delta_lag_3
feature_infos=[249227600:1587134754] [201901:202102] [0:1] [0:1] [0:3] [18:101] [1:374] [-146419.45000000001:469131.88] [-696633.79000000004:2075307.2] [-71519.460000000006:330481.10999999999] [-127146.02:398712.38] [-38659.470000000001:256504.20999999999] [3:16] [1:2] [1:2] [-6650.3800000000001:99024.570000000007] [-3690560.3199999998:12991446.17] [2:8] [-12409.879999999999:12047299.01] [-6046.5799999999999:992566.95999999996] [-10979.129999999999:41121243.549999997] [0:1] [0:10] [0:123] [0:471125.89000000001] [0:3] [0:373] [0:2897119.1200000001] [0:2] [0:151] [0:2005548.46] [0:189] [0:3683220] [0:9] [0:4576276.4800000004] [0:9] [0:17019571.02] [0:78] [0:26392500] [0:21072945] [0:14] [0:27006133.079999998] [0:8402097.9199999999] [0:20] [0:183005859.52000001] [0:6] [0:3] [0:4] [0:2] [0:3] [0:67] [0:32800484.32] [-134895:6606631.5899999999] [0:5] [0:136] [0:2362882.23] [0:47] [0:319013.27000000002] [0:26] [0:174274.78] [0:30] [0:2027932.6100000001] [0:113] [0:12008942.73] [0:22] [0:5855.6099999999997] [0:33] [0:33821.459999999999] [0:12] [0:41890.580000000002] [0:30] [-12286.91:5145.8100000000004] [0:208] [-71519.460000000006:330481.10999999999] [0:614] [0:25] [0:130998.02] [0:614] [0:406624.34000000003] [0:1278] [0:144565082.75] [0:179] [0:37177909.090000004] [0:83] [0:1354815] [0:216] [0:36550680] [0:218] [0:18834015.300000001] [0:23] [0:2346000] [0:102] [0:9149400] [0:1] [0:196] [0:1] [0:3810] [0:1] [0:63] [0:40] [0:28] [0:148] [0:83] [0:1354815] [0:51] [0:226389] [0:2821] [0:1] [0:1347] [0:1] [0:9] [0:183819712.83000001] [-2914968:4872] [-1:563] [-398496.15000000002:6439287.0599999996] [-398496.15000000002:6439287.0599999996] [-88137.100000000006:1873113.55] [-34378.529999999999:1982259.76] [0:33120.459999999999] [985.32000000000005:10033372.800000001] [0:334305] [0:465.36000000000001] [-3:4751] [0:900135.37] [-741823.44999999995:52726.349999999999] [0:10683.68] [1:7571] [-34378.529999999999:1982259.76] [0:117] [0:158] [0:6439277.3399999999] [0:1] [0:9] [0:97424406.5] [-2914968:5115] [0:178] [-307331.17999999999:5241555.3399999999] [-360809.39000000001:6148344.4100000001] [-249356.76000000001:2845968.3199999998] [-28902.599999999999:2880242.0899999999] [0:47369.639999999999] [674.47000000000003:5083688.1600000001] [0:129616.5] [0:756.17999999999995] [-3:4954] [0:3031032] [-2973667.3599999999:456377.97999999998] [0:47369.639999999999] [1:11475] [-28902.599999999999:2880242.0899999999] [0:192] [0:80] [0:6148338.1500000004] [9.1079563799582527e-08:0.99999185394484935] [1.6220586678219085e-06:0.99999924700529164] [5.2290296769029031e-07:0.99999947873861217] [2.7051442237182905e-06:0.99999301757189529] [6.54404728297434e-06:0.99999437803145919] [6.2126016382382668e-07:0.99999741794084518] [5.9016189793157162e-06:0.99999432982971315] [3.7834968266355377e-06:0.99999638225137322] [1.2986247859289395e-06:0.99999286833583989] [3.9550479648710465e-06:0.99999642957408685] [0:0.98195489889927212] [-12409.879999999999:41121243.549999997] [-3690560.3199999998:12991446.17] [-3690560.3199999998:12991446.17] [0:3148875.1399999997] [0:17019571.02] [0:183005859.52000001] [-79575.729999999996:32800484.32] [0:2369015.5] [0:12008942.73] [0:41890.580000000002] [-71519.460000000006:332293.97999999998] [0:144565082.75] [0:37177909.090000004] [-395102.75:9641057.6099999994] [-34378.529999999999:1982259.76] [-28902.599999999999:2880242.0899999999] [0:3031032] [0:10194953.550000001] [0:219697042.21000001] [0:18] [0:3] [1:5] [3:15] [0:189] [0:80] [0:8] [0:67] [0:454] [0:3868] [0:114] [0:225] [0:238] [0:139] [0:33] [0:208] [0:1] [0:1] [0:1] [0:1] [0:1] [-1:563] [1:11475] [-897763.56999999995:1982259.76] [-984170.45999999996:1319712.1100000001] [0:1] [0:1] [0:1] [0:1] [0:1] [0:1] [0:1] [0:1] [0:1] [0:1] [0:1] [0:1] [0:1] [0:1] [0:1] [0:1] [0:1] [0:1] [0:1] [0:1] [0:1] [0:1] [0:1] [0:1] [0:1] [0:1] [-19796126.196999997:14723629.799000001] [-1035972.8139999997:978893.96999999997] [-101:124] [-2493223.4999999995:2333535.5249999999] [-2665959.2099999995:2683691.4510000004] [-1.1000000000000001:2] [-101:124] [-1133.0999999999999:1149.5] [-100:90] [-83.799999999999997:61.299999999999997] [-17.199999999999999:40.5] [-16:10.4] [-73.299999999999997:55.799999999999997] [0:0.98195489889927212] [0:0.98195489889927212] [6.2402885509425956e-06:0.98195489889927212] [3:16] [3:16] [3:16] [-2794619.8500000001:49973242.32] [-2580774.2200000002:50798789.380000003] [-2580774.2200000002:50798789.380000003] [0:3148875.1399999997] [0:3148875.1399999997] [0:2411612.5999999996] [0:289] [0:263] [0:263] [-395102.75:8490519.2599999998] [-395102.75:7541182.1600000001] [-395102.75:4153209.77] [0:6129370.7400000002] [0:5175616.1699999999] [0:1975355.46] [1:5] [1:5] [1:5] [0:289] [0:263] [0:263] [0:3868] [0:3868] [0:3868] [0:225] [0:212] [0:212] [0:238] [0:238] [0:238] [0:139] [0:55] [0:55] [0:33] [0:22] [0:30] [0:204] [0:198] [0:198] [-0.96579512373935028:0.94386042173446716] [-0.96154217336590064:0.96600470762018131] [-0.96748176697631172:0.96289456648695382] [-8:4] [-8:5] [-9:5] [-3124890.3399999999:2836698.6000000001] [-3148875.1399999997:2828064.0999999996] [-2411612.5999999996:2738508.9900000002] [-189:294] [-189:301] [-197:337] [-3539613.2999999998:3387972.3900000001] [-2895558.96:5699790.5199999996] [-2614658.1699999999:6649127.6199999992] [-3896295.4500000002:4350762.5700000003] [-2655918.3300000001:5284669.9800000004] [-1975355.46:8627719.9800000004] [-2:2] [-3:2] [-3:2] [-189:294] [-189:301] [-197:337] [-3719:3834] [-3740:3803] [-3770:3842] [-158:157] [-163:157] [-143:155] [-124:76] [-238:141] [-238:179] [-135:134] [-54:134] [-55:135] [-33:28] [-21:33] [-30:33] [-181:172] [-185:184] [-186:182]
tree_sizes=49450 14985 10023 7048 5636 27178 6602 17916 10995 23261 15545 4161 687 20556 589 362 24496 26054 19946 50352 9830 702 2160 7906 599 13118 32130 480 368 25080 373 8775 702 57244 4676 2192 368 23283 365 374 6037 57019 24676 480 367 367 3399 366 2794 1009 16573 368 18664 803 21134 11932 15649 696 367 17826 11254 8226 18760 6528 12945 6482 21345 373 17886 12690 472 19436 13476 28890 30704 8404

Tree=0
num_leaves=468
num_cat=0
split_feature=183 106 166 135 185 163 177 185 122 163 185 166 122 122 300 135 163 187 305 187 205 187 182 132 166 163 141 110 181 106 166 239 263 106 146 141 217 163 247 184 294 114 106 247 239 276 325 294 293 166 106 289 243 126 175 181 239 285 293 294 242 294 249 146 234 122 293 293 146 223 160 213 132 242 166 238 163 247 294 317 298 300 161 166 102 305 184 101 294 175 133 234 106 249 133 122 205 134 309 106 182 145 294 146 294 247 241 157 205 247 294 221 119 166 152 275 161 166 304 263 300 242 183 285 161 234 293 290 153 161 126 261 122 153 182 146 175 309 234 207 134 313 106 293 205 294 294 279 122 157 163 134 247 247 316 153 293 198 265 332 187 247 205 242 163 205 114 157 274 134 249 122 304 134 279 134 300 157 126 145 242 134 234 102 294 274 294 119 134 160 160 189 106 163 163 293 279 153 242 238 146 153 166 234 274 166 177 160 161 182 126 106 275 263 166 290 166 160 261 153 316 238 153 157 157 166 106 160 300 161 317 160 293 316 157 157 122 257 119 106 160 126 242 146 247 247 241 313 294 135 134 160 161 316 160 161 161 205 111 247 274 157 198 234 241 309 261 272 332 106 153 289 163 157 241 293 122 238 161 166 161 289 146 332 166 293 234 177 205 157 106 293 275 157 163 294 247 234 332 134 247 160 153 325 274 163 119 146 134 106 279 274 122 290 161 157 184 106 157 106 157 317 205 205 276 146 293 249 247 132 153 234 152 163 290 247 106 313 293 161 126 163 161 122 160 294 153 272 153 160 153 153 160 265 134 160 290 261 250 198 166 161 247 139 290 289 146 157 163 275 133 182 124 247 153 160 160 153 182 166 163 153 247 146 157 161 247 111 247 247 160 241 241 275 163 247 140 257 205 114 205 234 259 161 247 157 238 124 157 134 126 241 163 134 261 134 106 161 106 157 161 241 106 134 163 257 256 161 241 256 205 241 257 247 160 275 259 209 241 134 257 139 106 161 146 275 247 126 182 153 153 205 139 247 106 249 106 161 249 249 124 110 114 114 185 247 126
split_gain=16185.1 8671.77 3016.87 1830.06 1488.1 1362.36 1158.8 1158.66 834.558 795.018 864.702 659.357 403.812 304.568 295.072 258.157 197.303 192.288 202.363 163.169 136.234 134.931 256.176 114.776 92.8459 83.6921 82.6437 80.4055 77.9569 73.4632 71.7589 64.7123 61.3527 60.902 59.7949 58.8483 57.8294 57.417 56.0358 55.5117 53.47 52.031 50.6562 50.4082 47.3085 46.6176 45.2376 43.482 48.2369 42.5366 41.4756 39.5612 37.4975 37.4064 43.2107 36.8487 36.8231 36.3632 34.9657 32.5727 52.1242 35.6546 32.0405 31.5677 31.0037 30.9855 36.4002 30.5446 33.9957 30.4081 29.5471 29.3934 29.2918 28.6688 28.5898 38.2703 28.5089 36.661 36.8047 28.1642 32.5972 27.3711 26.8254 26.6537 26.362 25.9777 26.7646 25.9063 25.7523 25.5468 25.4794 25.197 25.1957 24.9994 24.73 25.2723 24.2158 23.9924 25.7816 23.8395 23.8356 23.5957 23.5507 25.9795 50.7356 23.5181 23.167 23.1513 22.7709 29.0668 22.4301 22.426 25.5604 22.2922 21.9271 21.8328 21.7445 21.7569 21.7865 21.4299 21.4056 27.4115 21.1585 21.0893 24.9039 20.9991 20.8992 20.5306 20.1964 19.5962 19.4297 21.4452 22.6586 20.3465 33.2077 19.8956 18.9249 21.6311 18.6044 18.5358 24.5906 18.7566 23.973 18.5004 18.332 18.2673 18.2388 17.9565 22.6874 17.9435 17.9414 17.938 17.8711 17.592 17.5797 21.1076 17.5513 17.5352 17.0766 18.8194 17.0253 29.3041 20.9206 23.3493 16.5734 16.5422 16.4105 16.3937 16.1756 21.524 24.1934 23.5683 16.1689 16.1649 18.1605 15.7341 17.0054 18.9427 18.878 20.2649 15.6385 15.4504 15.2677 15.0654 14.7811 18.8442 14.7761 19.4596 28.4709 14.7426 19.371 14.72 22.4715 22.7521 17.7025 14.5762 19.9733 18.0225 15.5481 14.3858 14.3858 14.368 14.3034 16.9524 20.2552 19.7139 14.2839 14.144 14.0931 14.7044 14.0695 20.9199 20.3233 14.9141 14.0578 13.957 17.3783 16.8524 13.9213 13.8903 17.7348 23.1133 13.8706 17.5379 13.868 15.4121 13.8555 16.093 13.7606 13.4906 13.9916 13.2752 20.8113 13.2153 13.002 12.9015 12.4206 12.346 12.2085 12.0246 11.9955 11.9922 12.3517 11.8777 11.6642 16.4011 11.5373 11.5069 11.4955 22.0169 11.3293 12.453 11.2218 11.1725 14.0484 11.6312 11.1185 14.8248 11.06 10.5072 10.4069 19.6131 10.3773 10.3257 10.321 10.2851 17.9056 44.9455 13.0457 12.1989 15.9073 10.1223 11.2242 15.9372 10.1172 9.99994 12.1082 9.95291 9.67011 11.8393 9.53576 9.52884 9.43579 9.33982 9.27823 9.27285 9.24731 9.09673 9.0532 9.04882 9.0323 8.98242 8.75608 8.75597 8.7558 8.58601 20.3775 8.48578 8.40565 8.28058 8.27913 8.27908 8.19713 8.18884 8.24458 17.7206 8.08249 8.06164 8.00552 8.00536 7.94851 14.4095 13.1361 7.93535 7.90716 10.2052 9.12658 9.50045 11.9399 9.63326 9.0488 7.895 7.81363 7.70748 7.73624 7.59505 19.0765 16.5077 7.54349 7.52808 8.03353 12.0142 10.6135 7.43284 7.22169 13.1532 7.22164 7.19095 7.16376 9.85296 7.06352 7.00482 7.00471 7.00466 6.7158 12.1256 6.61447 6.39579 6.58852 7.33877 10.3735 10.7883 6.30434 5.33703 5.31533 5.30675 5.24001 5.18859 5.10623 8.60219 8.46482 5.83311 5.3384 5.05889 5.0183 4.97001 8.15087 4.94001 14.2317 4.93814 4.89459 4.64504 4.52824 4.35861 9.24734 4.26026 4.26022 4.12112 5.15477 7.79524 18.7016 4.74222 4.02519 3.95143 3.89158 3.84881 3.84873 3.73592 3.73579 3.63891 3.55799 3.35272 3.35266 3.35265 3.35265 3.35265 3.11326 3.11322 2.80184 2.71584 3.11326 2.63136 3.11326 2.19375 3.64888 1.83581 1.40601 1.38681 1.38043 1.34904 1.32315 1.28189 1.25534 1.23459 1.22303 1.21073 1.19737 1.15057 1.13206 1.11189 1.08961 1.06508 1.06508 1.06503 1.0072 1.0072 0.97289 0.972863 0.889479 0.889477 0.838161 0.778325 0.778325 0.778325 0.778295 0.778294 2.29647e-13 1.7053e-13 1.4353e-13 1.14824e-13 1.14824e-13 8.61178e-14 5.74119e-14 5.74119e-14 5.74119e-14 1.14824e-13 5.74119e-14 5.74119e-14 5.74119e-14 5.68434e-14 4.26326e-14 2.87059e-14 2.87059e-14 2.87059e-14 2.87059e-14 2.84217e-14 1.4353e-14 1.4353e-14 1.42109e-14 1.42109e-14 8.9706e-16 8.88178e-16 4.4853e-16 4.4853e-16 4.44089e-16 2.24265e-16 2.24265e-16
threshold=1.0000000180025095e-35 27.500000000000004 -7180.994999999999 41.500000000000007 1.5000000000000002 0.19332033677660262 1714.0650000000003 1.5000000000000002 -1.9999999999999998 0.15542425138202581 1.5000000000000002 -1343.2549999999999 -1.9999999999999998 -1.9999999999999998 43.189999999999948 41.500000000000007 0.021583039481314566 1.0000000180025095e-35 -1307.5200000000002 1.0000000180025095e-35 8177.5000000000009 1.0000000180025095e-35 67388.85000000002 8.0000000000000018 12868.355000000001 0.3457810595029352 1043852.0850000001 6.5000000000000009 9636.1950000000015 11.500000000000002 -220.45999999999998 -0.24999999999999994 147427.47500000001 13.500000000000002 -1.0000000180025095e-35 31671.000000000004 1.0000000180025095e-35 0.21989937046556043 0.15867454354833502 1.0000000180025095e-35 0.002785360688494332 424.38500000000005 8.5000000000000018 0.16555864742490448 -0.24999999999999994 1.0000000180025095e-35 1.0000000180025095e-35 -0.0050981066673023217 -0.00021593321777197043 -35.059999999999995 3.5000000000000004 3.5000000000000004 -0.050000000000000058 3213.5000000000005 293.28500000000003 41166.435000000005 -1.0000000180025095e-35 1.5000000000000002 -0.012318449785804512 -0.031510495378921304 -0.3000000000000001 -0.073840703872722721 0.012545465409973469 -2224.6399999999999 672.46150000000023 4.5000000000000009 0.0056333571164533533 -0.014453535882003416 -1910.4949999999997 1.0000000180025095e-35 0.62701074709973481 1.0000000180025095e-35 6.5000000000000009 -0.99999999999999967 -2575.8499999999999 -116.12699999999991 0.2304864965045364 0.019439432923452606 0.01060186611861369 5.5000000000000009 244.47499999999994 -90829.514999999985 0.035339973430502367 106.15499999999999 6.5000000000000009 -1000.89 1.0000000180025095e-35 1.0000000180025095e-35 -0.23913541419659681 2639.8350000000005 54157.410000000011 -284.68000000000001 9.5000000000000018 0.029475937073015844 644328.72000000009 4.5000000000000009 552.50000000000011 -1473.9999999999998 -316.71000000000004 207.50000000000003 746859.2300000001 429.56000000000006 0.029805337505006736 -1.0000000180025095e-35 -0.049234733225746112 0.15406178889487074 -21.449999999999992 0.74464555977062952 4464.5000000000009 0.24585204906474742 -0.0019691523989104893 1.0000000180025095e-35 563819.6050000001 -220.45999999999998 144378.70500000005 141.50000000000003 0.35911188066220212 -316.7299999999999 -350.07000000000102 13457.340000000002 -4457.3050000000012 -8.9499999999999975 13.500000000000002 4.5000000000000009 0.38257071716110719 -5414.6494999999995 0.023484500970658979 2.5000000000000004 0.81847510644242838 0.8970590286781005 4323.5000000000009 51.500000000000007 3.5000000000000004 0.58734012146741399 589670.38000000012 -820.38499999999988 16.555000000000003 -609.95999999999958 -6543.6539999999986 1062.8000000000002 -288.49999999999994 -1.0000000180025095e-35 36.500000000000007 -0.0070862882156515145 3760.5000000000005 -0.092846311857242667 -0.014307857098087537 9.5000000000000018 2.5000000000000004 0.99611004487442456 0.26838790279417085 -1368.4999999999998 0.20222479933483481 0.069956203920537849 -7.4999999999999991 0.70864511034529076 0.023484500970658979 2.5000000000000004 404.68500000000012 1.0000000180025095e-35 1.0000000180025095e-35 0.15633460687367048 2529.5000000000005 -0.3000000000000001 0.22205035940656767 5397.5000000000009 1.0000000180025095e-35 0.36246040269684615 3.5000000000000004 -1703.4999999999998 0.36034048574745631 1.0000000180025095e-35 18.109999999999953 -578.49999999999989 3.5000000000000004 -211.49999999999997 -20854.434999999998 0.84750879601248841 5978.0000000000009 23.725000000000005 -0.99999999999999967 -1976.4999999999998 210.15600000000003 6.5000000000000009 0.033677302091902887 4.5000000000000009 0.20378548414470352 63342.000000000007 -212.49999999999997 0.5757647270607299 0.5405101104036828 1.5000000000000002 1.5000000000000002 0.24536613089265266 0.39225664385405706 0.0020112564526954201 7.5000000000000009 0.040106266217738606 1.9984014443252821e-16 9524.1735000000026 -3239.2299999999996 0.27952747796011007 -1769.7899999999997 49.076500000000095 1.0000000180025095e-35 1.0000000180025095e-35 835.72500000000014 0.21391605167457159 0.50926847532897357 400462.20000000007 1609.5000000000002 19.500000000000004 9.5000000000000018 -1.0000000180025095e-35 -1.0000000180025095e-35 3.5000000000000004 -13350.729999999998 0.9011091637886024 7.5000000000000009 0.49318144317169849 -6.4999999999999991 -1.0000000180025095e-35 0.54426389472701386 0.2918701288608801 0.68962271783997264 -15229.114999999998 11.500000000000002 0.46121090185307484 -1993.8199999999999 0.2884764566015135 -1.0000000180025095e-35 0.65754736021879656 -0.015209726930314691 -1.4999999999999998 0.66210874538660958 0.051984237725667189 9.5000000000000018 108539.08500000001 269854.51000000007 3.5000000000000004 0.78204013125444816 493.50000000000006 -0.3000000000000001 -303.44499999999994 0.059897221472872735 0.023405835217037822 1.5000000000000011 -1.0000000180025095e-35 0.0083998337183184644 29.500000000000004 -1261.9999999999998 0.48463678943401128 0.12312792796909545 -9.4999999999999982 0.32318653087750104 0.035339973430502367 0.53608116673337358 1311.5000000000002 203979.05000000002 0.077399974815408626 1.0000000180025095e-35 0.49643322547078156 4.5000000000000009 -1012.1364999999998 0.90000000000000036 -46.919999999999966 1.5000000000000002 1.5000000000000002 1.5000000000000002 1.5000000000000002 0.58364228135146734 1.5000000000000002 0.012191598514405924 0.65013091780059995 -4.099999999999997 0.02446021826108891 10.500000000000002 -686.20499999999936 0.17961072238249209 -8108.9199999999992 0.77165388435490734 1.5000000000000002 -6641.1849999999986 -1.4999999999999998 -21980.384999999995 -0.037862271281750993 49.076500000000095 126298.52500000001 7612.5000000000009 0.29593126667210773 1.5000000000000002 0.054000320765594974 4.5000000000000009 0.37803173632206816 0.029223582483946027 0.0037223571538234222 0.15633460687367048 -307.12499999999983 -1.0000000180025095e-35 -1551.4999999999998 0.079887563227489841 0.6996899407223881 0.92173204407841847 -1.0000000180025095e-35 1.5000000000000002 0.24536613089265266 126684.00000000001 -122.96999999999998 -699.49999999999989 176.50000000000003 13.500000000000002 20.500000000000004 2.5000000000000004 4.5000000000000009 0.54797969975431104 0.14726915317479888 1.0000000180025095e-35 2.5000000000000004 0.35469862208762437 1.5000000000000002 0.49254483623945139 2.5000000000000004 968.50000000000011 458.50000000000006 2.5000000000000004 -17814.584999999995 -0.040128728810562862 0.09361226379292921 0.25701960513404265 8.0000000000000018 0.41874123113688699 -5667.5034999999989 86755.080000000016 0.076012178274644168 6.5000000000000009 0.035719753325149435 25.500000000000004 -1.0000000180025095e-35 0.12037390992332865 0.43381948751853011 4538.5000000000009 0.037503233443062035 0.42995266100726914 10.500000000000002 0.3863407464866464 -0.043685202006686637 0.94886703317178067 13.500000000000002 0.46521941993691568 0.30010027232027986 0.81847510644242838 0.68122062599941524 0.7666412342579928 240.46500000000006 -334.49999999999994 0.65372719881740504 13.500000000000002 5.5000000000000009 7.5000000000000009 6.5000000000000009 -146.61499999999998 0.099494989420236948 0.19524971559992232 528.71000000000015 1.0000000180025095e-35 5.5000000000000009 -8788.6399999999976 0.89089385794571585 0.035353253404843084 20.500000000000004 174333.01500000004 35981.775000000009 -4729.829999999999 0.013452776089923514 0.48926314589484038 0.78607865817249034 0.84932178928666813 0.48926314589484038 658531.92500000016 1309.1500000000001 0.25920693065426098 0.42240025656715519 0.37037476579698136 -13372.184999999999 0.76085535306299468 0.33523255728312501 0.18883293511026697 222528.36000000002 0.077399974815408626 0.18703803067812655 0.28846098814492266 -1.0000000180025095e-35 0.50000000000000056 1.0000000180025095e-35 0.031276666701588011 0.22237700895595636 1.0250000000000001 19530.735000000004 1000.5000000000001 -169.46499999999997 4979.5000000000009 -426.263000000001 1.0000000180025095e-35 0.77165388435490734 0.031533704767007287 0.76085535306299468 -17.59499999999996 -9349.8049999999985 0.92548419029404239 -227.49999999999997 3213.5000000000005 -0.3000000000000001 0.21989937046556043 -2100.4999999999995 1.5000000000000002 -548.49999999999989 10.500000000000002 0.59804406457784132 19.500000000000004 0.19040036388028922 0.74388186845228066 0.20000000000000004 16.500000000000004 -1094.4999999999998 0.00047400929235157807 9918.5550000000021 30936.015000000003 0.46999333473032651 -1.4999999999999989 4013.3050000000007 795.50000000000011 -2.7999999999999985 58923.750000000007 0.035719753325149435 0.68434539566631547 5.5000000000000009 21.500000000000004 1.0000000180025095e-35 -0.49999999999999761 -715.49999999999989 1249.2800000000002 326.26000000000005 2.5000000000000004 0.52445258996195931 -65.34999999999998 27.500000000000004 0.17419986099493018 1201.5000000000002 54424.850000000013 0.91388551368783721 0.59143538951159391 3503.5000000000005 483.33000000000004 0.025545423203733542 5.5000000000000009 0.088157498299193129 17.500000000000004 0.32753473435398844 0.042605242873051723 0.077482627931973677 -516.0899999999998 6.5000000000000009 5439.3500000000013 -1.0000000180025095e-35 1.5000000000000002 0.17785491093655811 966.50000000000011
decision_type=2 2 2 10 2 2 2 2 8 2 2 2 8 8 8 10 2 2 10 2 8 2 2 10 2 2 8 8 2 2 2 8 10 2 10 10 10 2 10 2 10 10 2 8 8 10 10 8 8 2 2 10 10 8 2 2 10 10 10 10 10 10 8 8 8 10 8 10 8 10 2 8 10 8 2 10 2 10 10 8 10 8 2 2 2 10 2 2 10 2 10 10 2 8 10 8 10 10 10 2 2 10 10 10 10 8 10 2 10 10 10 10 8 2 8 10 2 2 8 10 10 8 2 8 2 8 10 10 2 2 10 10 10 2 2 8 2 10 10 2 10 8 2 8 10 10 10 10 8 2 2 10 10 10 8 2 8 2 10 10 2 10 8 10 2 8 10 2 10 10 8 10 10 10 8 10 8 2 10 8 8 8 10 2 10 10 8 10 8 2 2 2 2 2 2 8 10 2 10 10 10 2 2 10 8 2 2 2 2 2 10 2 8 10 2 8 2 2 10 2 10 10 2 2 2 2 2 2 10 2 10 2 10 10 2 2 10 10 10 2 2 8 10 8 10 10 10 8 10 10 8 2 2 8 2 2 2 10 8 10 8 2 2 8 8 8 8 10 10 2 2 10 2 2 10 10 8 10 2 2 2 10 8 10 2 10 10 2 8 2 2 10 8 2 2 10 10 10 10 8 10 2 2 10 8 2 8 8 10 2 10 10 8 10 2 2 2 2 2 2 2 8 10 10 10 10 10 8 8 8 2 10 10 2 10 10 2 8 10 2 10 2 2 10 2 8 2 10 2 2 2 2 2 8 10 2 8 10 8 2 2 2 10 8 10 8 10 2 2 10 10 2 8 8 2 2 2 2 2 2 2 2 10 8 2 2 10 10 8 8 2 10 10 10 2 10 8 10 10 8 8 8 8 2 10 2 8 10 2 10 10 10 2 10 8 8 2 2 2 2 2 8 2 8 2 10 8 2 10 10 10 10 8 8 2 10 10 8 10 10 10 8 2 2 8 10 10 10 2 2 2 10 8 10 2 10 2 2 10 10 10 10 8 10 2 8 8
left_child=1 2 4 6 16 7 -3 11 88 10 39 -4 24 41 21 20 40 -11 28 31 29 22 30 44 -7 38 -16 114 32 57 -14 79 62 43 52 263 58 46 67 74 63 -6 82 51 307 91 139 48 59 50 113 83 128 97 106 -37 -32 69 -18 60 334 281 -19 100 -41 76 343 353 236 -15 110 -17 144 425 160 308 77 357 -79 80 119 -30 222 -33 102 341 -87 90 138 108 92 158 107 207 95 290 -59 -47 136 183 228 105 103 111 -105 -70 218 127 206 152 125 -46 115 260 277 122 117 -100 151 156 121 -39 233 -74 306 -49 347 297 -5 215 131 132 -54 208 135 -135 137 246 256 140 153 -141 -143 262 173 -133 231 259 -149 -65 -108 -119 -110 310 155 167 229 199 159 180 248 195 163 -163 395 184 186 -94 169 413 171 322 182 174 -29 176 -91 178 235 -180 200 -89 352 237 265 201 187 299 313 190 -80 202 -193 -194 391 198 197 -197 325 -77 -40 -186 -84 204 205 214 423 -61 209 292 211 -90 -213 -212 -204 217 373 -72 328 220 221 -152 223 -28 225 -209 -170 -228 429 -13 428 -95 -233 -113 323 -178 337 287 -104 -218 382 242 294 -222 245 289 -99 -173 -2 -250 -139 -252 -206 254 -182 -255 257 -9 -107 410 -21 -262 -127 300 285 -120 269 268 -268 270 -267 272 385 398 314 288 -277 -20 -241 384 -109 -62 -243 -48 -148 -232 -187 -57 358 -50 -88 321 -134 -78 -199 344 -297 465 -188 -38 -25 -229 -130 -237 305 -305 -125 -12 -76 -86 -36 312 -312 430 -254 464 317 319 -319 -317 -318 409 -171 -97 -325 326 327 -162 -55 330 331 332 -284 371 416 -336 -289 -69 -205 -340 -154 -71 -128 -67 345 -183 399 348 -112 419 351 -351 -166 -24 460 462 -123 442 359 360 -257 -362 -363 -292 -306 437 -367 -301 -369 443 -275 -328 -147 374 -217 -111 -191 378 379 381 -381 -364 415 -160 -280 -42 -129 -124 -132 -298 -382 -195 -235 -234 -131 -138 -102 -211 434 400 -221 -379 -403 439 418 -286 -346 -366 -276 -159 461 -247 -320 -161 -333 -172 -22 -68 448 -350 450 -347 -269 451 -309 -73 -114 -98 -231 -1 -189 -169 -136 -352 -274 -258 444 -215 -365 -332 447 456 -60 -81 445 -338 -368 455 -405 -441 -158 -56 -374 -440 -444 -373 -416 -456 -449 -455 -279 -106 -210 -265 -316 -52 -424
right_child=9 3 5 34 13 12 -8 8 -10 17 23 19 14 15 26 71 36 18 27 49 47 -23 25 35 -26 -27 42 72 81 -31 56 33 -34 -35 37 55 166 120 45 64 271 -43 -44 -45 84 53 283 70 244 -51 87 -53 130 54 89 99 -58 96 65 93 61 -63 -64 149 -66 66 417 68 101 85 129 73 123 -75 75 157 293 78 189 369 -82 -83 191 -85 309 86 94 181 210 175 -92 -93 154 146 -96 234 427 98 116 -101 396 -103 238 104 147 258 150 280 109 375 126 112 426 -115 -116 -117 -118 118 165 -121 -122 356 387 124 -126 143 342 386 302 394 388 145 133 134 432 -137 164 250 -140 141 -142 142 -144 -145 -146 372 284 148 -150 -151 219 -153 340 -155 -156 -157 420 291 383 168 161 162 -164 -165 172 -167 -168 431 226 170 240 247 -174 -175 -176 -177 177 -179 179 -181 253 295 -184 -185 185 286 298 188 -190 376 -192 192 193 194 -196 196 -198 241 -200 -201 -202 -203 203 338 252 -207 -208 224 355 397 213 212 -214 365 -216 216 239 -219 -220 346 243 -223 -224 -225 -226 -227 227 301 -230 230 264 232 393 392 -236 303 -238 -239 -240 278 -242 282 -244 -245 -246 411 -248 -249 249 -251 251 -253 274 255 -256 275 435 -259 -260 -261 261 -263 -264 463 -266 266 267 422 -270 -271 -272 -273 273 370 408 276 -278 354 279 -281 -282 -283 329 -285 405 -287 -288 336 -290 -291 363 -293 -294 -295 -296 296 389 -299 -300 367 -302 -303 -304 304 364 -307 -308 424 -310 -311 311 -313 -314 -315 315 316 320 318 412 -321 -322 -323 -324 324 -326 -327 333 -329 -330 -331 403 414 -334 -335 335 -337 436 -339 339 -341 -342 -343 -344 -345 406 421 -348 -349 349 350 433 -353 -354 -355 -356 -357 -358 -359 -360 -361 361 362 377 438 407 366 446 368 -370 -371 -372 440 452 -375 -376 -377 -378 401 -380 380 390 -383 -384 -385 -386 -387 -388 -389 -390 -391 -392 -393 -394 -395 -396 -397 -398 -399 -400 -401 -402 402 -404 404 -406 -407 -408 -409 -410 -411 -412 -413 -414 -415 441 -417 -418 -419 -420 -421 -422 -423 466 -425 -426 -427 -428 -429 -430 -431 -432 -433 -434 -435 -436 -437 -438 -439 453 449 -442 -443 454 -445 -446 -447 -448 458 -450 -451 -452 -453 -454 459 457 -457 -458 -459 -460 -461 -462 -463 -464 -465 -466 -467 -468
leaf_value=-1.589448062688007 -1.531759603239732 -1.9626750260824437 -1.6790101956001475 -1.9397586196567307 -1.5676429330758448 -1.6909243919895582 -2.0047950397183985 -1.9092548294092617 -1.9148978319561014 -1.7067250770102678 -1.7638881953189287 -1.9092557404311119 -1.7708100097551787 -1.8744309272184727 -1.9802597461263243 -1.5778183183828036 -1.8379427150741203 -1.6185211969556157 -1.7638873128595167 -1.5022286432191589 -1.5894479118980889 -1.9634664964607511 -2.0255503614134618 -1.6766677621674628 -1.8933968659682219 -1.9615461222956307 -1.6330574290747424 -2.0255503614134618 -2.0255503614134618 -1.9237920226235987 -1.7510190127210195 -1.6621307628717295 -1.7192142689496135 -1.8912627087704628 -1.5411986900545003 -1.7238136100745469 -1.7638877540884881 -1.6592229445911926 -1.938328615261129 -1.5944816531890265 -1.7638873128595165 -1.973217243774479 -1.9638502993400031 -1.8213041297601162 -1.9290707874207542 -1.9477866954735485 -1.7638868716320146 -1.6229939868626939 -1.5894479118980884 -1.9372780270255578 -2.0255503614134618 -1.8627376337349288 -1.7497854854648127 -1.5022286325653837 -1.502228627789576 -1.6925258914545696 -1.8871040462765116 -1.9383293469354856 -1.5022286612205229 -1.5545600237534816 -2.0255503614134618 -1.7238687145838252 -1.9470511877997694 -1.5715679871975439 -1.6688569844259038 -1.7638877540884876 -2.0255503614134618 -1.9153760590212174 -1.8384788823935594 -2.0255503614134618 -1.6915132403802864 -1.502228627789576 -1.6673017765193641 -1.7885719916151792 -2.0255503614134618 -1.9507894739559608 -1.7638881953189283 -1.6831624498615578 -1.8511079546738678 -1.5022286403261014 -2.0255503614134618 -1.7417131247368445 -1.7115556530233382 -1.9674029859339655 -1.5022286319684068 -1.8541154357299945 -1.7638873128595161 -1.6766671701505333 -1.6141099419338258 -1.5894479118980891 -1.502228638933149 -1.9565729454452707 -1.6925257155931144 -1.8904977087856691 -1.9674029859339657 -1.6766671701505338 -1.5894479118980889 -2.0255503614134618 -1.618521196955617 -1.938328615261129 -1.8511080384525531 -1.5022286421170408 -1.5022286528627202 -1.722259377144624 -2.0255503614134618 -1.7638879305804878 -1.8927261485528715 -1.5637951447609582 -1.9383293469354856 -2.0255503614134618 -2.015083721098196 -1.8760288013576019 -2.0255503614134618 -1.8947182903011852 -1.676667466158505 -1.5022286389331494 -1.9413488271330586 -1.5022286389331496 -2.0130901985830651 -1.9601345731380202 -1.618520798564409 -2.0255503614134618 -2.0255503614134618 -2.0255503614134618 -1.686096793167017 -1.5603745873646093 -1.851108624904465 -1.5769877022050256 -1.5769875907395727 -1.5022286325653835 -1.5022286277895756 -1.8012670489886025 -1.7638868716320142 -1.5330117585419929 -2.0255503614134618 -1.8760277248835573 -1.5022286373412059 -1.5769877022050256 -1.9134088150068236 -1.6738073265517679 -1.7564109225129427 -1.5676427828150499 -1.9117829821296837 -1.8823238238351563 -1.5769878136707964 -1.6766674661585053 -1.7638873128595165 -1.5022286277895762 -1.9047822569426434 -1.8293030774813626 -1.9674029859339657 -1.8220343984896188 -1.7265077758834146 -1.6925251880106607 -1.9049795963154699 -1.5022286421170414 -1.5022286612205182 -1.5022286483623846 -1.8947189493641978 -1.938328615261129 -1.9507888290239506 -2.0255503614134618 -1.5022286516687531 -1.6330574290747422 -2.0255503614134618 -1.6517474182335514 -1.8352494267866162 -1.938328615261129 -1.5603749286429538 -1.7929613129284141 -2.0255503614134618 -1.8511080384525531 -1.5769878136707964 -1.6766672688197475 -1.7348147837780477 -1.5894477611086719 -1.7348137362516209 -1.6592235853041641 -1.5603746556199747 -1.9507894739559608 -1.5894476103197599 -1.7638871363683395 -1.6517476363911168 -1.851108624904465 -1.8760282631198115 -1.7638873128595167 -1.6766678608373344 -1.589448062688007 -2.0255503614134618 -2.0255503614134618 -1.502228655648649 -2.0255503614134618 -1.5022286463622399 -1.8511086249044648 -1.5894479118980889 -1.8162194669243705 -1.8511086249044646 -1.7638873128595169 -1.8012670489886022 -1.5894482134784267 -1.5769879251368855 -1.5545601349960161 -1.798017114241637 -2.0014892472664627 -1.8162194669243699 -1.8883673600500182 -1.7929603336572402 -2.0255503614134618 -2.0255503614134618 -1.7638877540884881 -1.7401001989833256 -1.973217243774479 -1.6185213297532746 -1.5022286410357184 -1.5022286389331514 -2.0255503614134618 -1.5769880366032933 -1.8760279042954713 -1.9383293469354856 -1.8511080384525531 -2.0124670623309027 -1.5973767414853128 -1.5603747921311615 -1.973217243774479 -1.6449510538996222 -1.6766674661585055 -2.0255503614134618 -1.5769880366032925 -1.8511080384525531 -1.5894482134784267 -1.7115558654818703 -1.9507894739559608 -1.6766674661585053 -1.5022286373412053 -1.5769880366032927 -1.7929606600802388 -1.7265077758834146 -1.7401006371185586 -1.7929609865039651 -1.6517472000766096 -1.7638876658425762 -1.7348139981323558 -1.851108624904465 -1.8867084889456112 -1.7929613129284145 -1.589448062688007 -1.7638877540884881 -1.5807258362886096 -1.5022286612205185 -1.938328615261129 -1.6766674661585046 -2.0255503614134618 -1.9718755534600545 -1.7638876658425779 -1.9208847575554175 -1.7638873128595229 -1.5022286445049642 -1.5769880366032927 -1.5022286537913629 -1.8162201009587395 -1.5022286468928903 -1.8947184550667326 -1.8511074520025943 -2.0255503614134618 -1.5769882595370603 -1.5894479118980986 -1.5022286460245526 -1.938328615261129 -1.8012670489886025 -1.9721494643705164 -1.9601339971526903 -1.9507894739559608 -1.6766671701505336 -1.9383293469354856 -2.0255503614134618 -1.9601339971526903 -1.6517478545493045 -2.0255503614134618 -2.0255503614134618 -1.6766671701505331 -1.8012674805303228 -1.8602891696995676 -1.7501160468956556 -2.0255503614134618 -2.0105980206754537 -1.9601339971526903 -2.0255503614134618 -1.6592232649470384 -1.7929609865039648 -1.8760282631198115 -1.6766674661585053 -1.7638881953189287 -2.0255503614134618 -2.0255503614134618 -1.502228644504964 -1.6925258914545711 -2.0255503614134618 -1.8408465789039397 -1.9383286152611292 -1.5424836831838642 -1.9507894739559608 -1.8511086249044648 -1.8511080384525531 -1.6517474182335536 -1.851108624904465 -1.9704628749747268 -1.8293028711767436 -1.5894482134784269 -1.7638873128595167 -1.7638881953189287 -1.5973765625867578 -1.5022286277895758 -1.8685516380230778 -1.7401004180507433 -2.0255503614134618 -1.8790189203329548 -1.5894480626880063 -1.807497088956675 -1.9383293469354856 -1.6517472000766094 -1.8760282631198115 -1.6984723173391001 -2.0255503614134618 -1.7929616393535888 -2.0255503614134618 -1.5342683590553863 -1.6517478545493036 -1.6229939868626939 -1.7638877540884881 -1.6925257155931139 -1.502228649474437 -1.5894480626880125 -1.5022286516687531 -1.6984728158099047 -1.5458380489818759 -1.829302664872382 -1.5022286612205191 -2.0255503614134618 -1.7265068013354061 -2.0255503614134618 -1.5022286378187886 -1.8293030774813628 -1.5894480626880068 -1.5022286445049642 -1.938328615261129 -2.0255503614134622 -1.894718207918463 -1.8012679120732751 -1.938328615261129 -1.894717960770502 -2.0255503614134618 -1.5894479118980891 -1.8293030774813628 -1.8511080384525531 -1.8511080384525531 -1.8828241712001725 -1.8828245198864211 -1.6766671701505333 -2.0255503614134618 -1.7929616393535885 -1.8293026648723818 -1.8511078429690169 -2.0255503614134618 -1.5022286277895764 -2.0255503614134618 -1.7115558654818708 -1.5022286556486495 -1.5022286528627211 -1.8511074520025943 -1.6766680581774063 -1.7265077758834146 -1.5022286478480615 -1.502228638933149 -2.0255503614134618 -1.7638868716320146 -1.8511080384525531 -1.8511086249044648 -2.0255503614134618 -2.0255503614134618 -1.5894477611086737 -1.8511086249044648 -1.8511080384525531 -1.8511086249044648 -2.0255503614134618 -1.8511080384525531 -1.9507894739559608 -1.7638873128595167 -1.8511080384525531 -1.6766668741435471 -1.8760277248835573 -2.0255503614134618 -2.0255503614134618 -1.6766680581774063 -1.5022286277895762 -1.6766674661585053 -1.6766674661585053 -2.0255503614134618 -1.5894474595313486 -1.5022286403261014 -2.0255503614134618 -2.0255503614134618 -1.8511080384525527 -2.0255503614134618 -1.5022286564446292 -1.6766677621674628 -1.9303993945148294 -2.0255503614134618 -1.9383293469354859 -1.938328615261129 -1.5894482134784271 -1.938328615261129 -1.5022286397291216 -2.0255503614134618 -2.0255503614134618 -1.5022286612205189 -1.938328615261129 -1.5022286428334175 -1.938328615261129 -1.5894480626880068 -2.0255503614134618 -1.5894480626880068 -1.938328615261129 -2.0255503614134618 -1.5894480626880088 -1.5022286460245531 -1.5894476103197599 -1.9383293469354856 -1.5022286344757112 -1.5022286445049631 -1.5022286361472492 -1.5022286421170414 -2.0255503614134618 -1.938328615261129 -1.938328615261129 -1.5894476103197599 -1.5894482134784267 -1.5022286576063304 -1.5022286612205191 -1.5022286445049642 -1.5022286407305045 -1.5022286612205189 -1.5022286344757114 -1.5022286389331501 -1.5022286589917684 -1.5022286315040925 -1.5022286319684075 -1.5022286333613537 -1.5022286445049642 -1.5022286352186167 -1.5022286612205191 -1.5022286445049642 -1.5022286468928905 -1.502228627789576 -1.5022286556486488 -1.5022286564446292 -1.5022286612205189 -1.5022286500767974 -1.5022286426476905 -1.5022286389331496 -1.5022286612205193 -2.0255503614134618 -2.0255503614134618 -2.0255503614134618 -2.0255503614134618 -2.0255503614134618 -2.0255503614134618 -2.0255503614134618
leaf_weight=0.64885836094617866 82.405103214085102 2594.9795046672225 104.6824464276433 6.5966799110174161 13.842367917299269 22.493767015635967 10792.359616704285 0.97328209877014182 1987.0070963352919 105.43924759328365 0.64885510504245758 0.97327993810176838 20.438965499401093 156.91472958028316 1080.8804771304131 9.7329359278082865 11.463108904659746 0.97328753769397636 0.64885726571083058 1.405867360532284 0.64885944128036444 477.66400019824505 3.8931110501289359 0.64885727316141106 10.706097707152365 360.76230222731829 0.86514663696289007 2.2709814459085469 1.1895617097616193 101.22120843827724 6.5967114046216002 15.572613477706913 4.4338502660393706 28.657720744609833 10.165529824793341 36.011555209755898 0.64885618537664413 1.0814349129796026 0.64885400980710983 103.06039892137051 0.64885726571082958 1.0814219042658813 100.89664153754711 64.561111092567444 19.357470780611042 107.70964773744345 0.64885834604501713 1.4058597758412359 0.64885944128036388 53.854851491749287 0.64885184168815579 4.866409443318843 18.059893906116489 0.75700791180133742 0.64886485040187813 1.1895714849233572 183.95017459988594 0.64885292947292272 0.86514449119568571 1.0814360082149477 1.5139876306056965 9.1921534687280673 41.094034664332867 86.514565005898476 21.736727856099606 0.64885618537664302 1.8384135514497764 4.1094080209732056 23.899498835206039 1.7302715778350859 5.0827259197831127 1.1895855590701101 32.226602427661419 5.7315744757652274 0.8651357889175415 0.75699490308761397 0.64885510504245658 20.330903701484207 2.2709933817386623 0.86514989286661137 1.0814197361469258 12.760845191776751 1.0814284235239018 0.97327885031700212 0.86515205353498348 6.2722691819071761 0.6488572657108288 0.64885943382978439 15.680765278637415 0.64885944128036499 0.64886268973350425 226.44974854588509 1.18957256525755 3.3524174466729155 0.97327885031700123 0.64885943382978517 0.64885944128036488 3.0279752612113957 0.97328753769397991 0.64885400980711061 0.64885509759187665 0.75700575113296409 0.86514665186405071 9.5165912881493586 2.4872653931379309 1.0814262554049485 42.608094997704029 1.8384363502264025 0.64885292947292361 1.4058456569910052 5.4071008488535846 0.75699599087238345 1.0814197361469264 1.2977091073989857 0.97328753024339665 0.97329403460025776 53.097841434180737 0.64886268973350514 4.54196397960186 0.86513687670230854 0.97329077869653602 2.595407366752625 0.97327776253223441 1.0814197361469262 4.0012888535857201 0.9732929468154905 0.6488540172576911 0.75700574368238427 0.75700682401657082 0.75700791180133709 0.97329727560281631 1.5140006393194201 0.64885834604501558 1.8384439200162885 0.64885184168815579 0.756998151540757 0.75700683146715142 0.75700574368238449 1.5139919742941845 13.193489924073218 3.7850070223212269 0.86514988541603388 2.4872762337327003 10.273531980812548 0.75700466334819783 0.64885835349559784 0.64885726571082969 0.64886485040187836 1.4058510810136797 0.86514013260602851 0.97327885031700168 3.8931349217891693 0.75699924677610386 4.7583032250404349 22.061047233641151 0.75700575113296498 0.86514449119567716 4.2175955995917311 0.86513796448707581 0.64885400980711017 0.75699598342180285 1.0814197361469269 0.75700359046459187 0.86514663696288985 1.2977036833763134 0.75700249522924323 1.1895693019032467 0.64885400980711017 0.9732875451445574 0.97328319400548646 2.2709814459085464 0.64885509759187698 0.75700466334819783 0.97328861057758231 0.97328320145606984 0.64886052161454877 0.97328752279281516 1.0814305916428555 0.97329186648130295 0.75699490308761608 0.64886160194873799 1.0814294964075086 0.75700141489505757 0.64885401725769121 0.75699707120656912 0.64885726571083058 0.97328536957502365 0.64885836094617866 0.75699381530285004 1.4058456569910052 0.64885944873094548 1.0814197361469258 0.9732918739318851 0.64885401725769054 0.64885944128036488 1.0814273282885611 0.97328102588653465 0.64885726571083102 0.75700031965970893 0.64885728061199188 0.75700358301401116 1.0814338475465772 2.4872827529907231 9.4083582162857038 2.162854656577113 22.277337715029716 0.9732864350080489 1.0814197361469267 0.64885184168815635 0.64885618537664391 1.189571477472781 1.0814219042658799 0.97328645735979069 5.7316168248653385 0.6488626897335078 0.86513578891754173 0.75700250267982605 2.2709933742880821 0.64885292947292317 0.64885509759187665 4.3256811127066612 1.1895779818296421 0.97328970581293095 1.0814219042658804 1.1895758137106893 0.64885835349559817 0.75699381530284915 0.75700250267982461 0.64885509759187732 0.64885728061199188 1.0814273431897139 0.7569949030876163 0.64885835349559762 0.75700683146715053 0.75700250267982472 0.97328535467385435 0.75699924677610386 1.1895693168044079 0.9732842743396759 0.75700357556343112 1.0814273357391355 0.97328644245862961 0.9732810258865382 5.2989762499928492 0.97328319400548924 0.64885836094617877 0.64885618537664402 2.1628687679767613 0.8651444911956776 0.64885400980710983 0.64885835349559629 0.64885184168815613 8.4350880458951085 1.0814273357391453 1.0814229920506475 0.64885726571085101 0.64886160939931847 0.75700250267982483 0.97328971326351155 1.0814251676201818 0.75700467079877831 0.86513904482126236 0.64885617792606354 1.1895617097616193 0.75700034201144939 0.64885944128038164 1.1895790770649899 0.64885400980711017 0.75700031965970982 10.597929693758486 0.86513795703649521 0.75699490308761586 0.64885943382978506 0.64885292947292306 5.0826727598905519 0.8651379570364941 0.75700033456087112 2.4872653931379318 1.0814197361469275 0.64885943382978384 0.75699923932552327 4.1094145327806473 2.0547126978635792 1.2977036833763111 3.7849712446331996 0.86513795703650176 1.297703683376312 1.0814327523112295 0.9732842743396749 0.75699707120656967 0.64885835349559806 0.64885510504245747 1.0814197361469269 1.0814197361469267 1.0814360156655309 1.1895714849233638 1.6221296042203905 1.8384243994951242 0.64885400980711405 9.8410379812121338 0.75699490308761597 0.64885401725769043 0.64885509759187698 0.75700249522924901 0.64885401725769121 2.0547018349170685 1.7302813455462454 0.64885728061199222 0.64885726571083047 0.64885510504245758 1.1895801424980157 1.5140179842710493 1.0814262405037882 1.1895703971385954 1.0814197361469267 2.703559115529059 0.64885836094617733 1.2977145239710806 0.64885292947292361 0.75700357556343068 0.75699707120656967 0.86514446884393681 0.8651357889175415 0.97328211367130257 0.8651357889175415 42.392178200185299 0.75700033456086924 1.4058597758412359 0.64885618537664425 1.1895725652575482 4.0013073161244526 0.64885836094618854 0.75700359046459187 0.8651423081755637 1.2977253720164301 0.86514121294021595 0.75700142979621865 3.4605431556701642 0.75700248777866253 0.64885184168815613 1.081438176333904 0.8651401326060294 0.64885836094617844 0.6488616093993187 0.64885400980710983 1.4058456569909998 1.7302791699767102 0.7569981589913376 0.64885400980711017 0.86514012515544914 0.64885184168815579 0.64885944128036499 0.8651401326060294 0.64885509759187687 0.64885509759187643 1.1895682141184805 1.1895671337842939 0.64885943382978428 4.1093949973583213 0.9732821136713018 0.86514121294021507 0.97328318655491131 2.1628394722938569 0.64886485040187869 5.2989567071199355 1.0814273431897166 0.64885944873094625 0.86514665186405248 0.64885617792606354 0.64885619282722462 0.75699924677610397 1.6221524029970171 0.64886268973350414 1.5139876306056974 0.86514446139335632 0.64885509759187687 0.64885401725769032 7.5699381530284882 2.2709814459085464 0.64886052161455188 0.64885401725769021 0.64885509759187687 0.64885401725769032 4.7582468390464774 0.64885509759187687 0.75699490308761597 0.64885726571083069 0.64885509759187698 0.64886051416397106 0.75699815154075611 0.8651357889175415 0.75699381530284893 0.64885619282722473 0.75700899213552475 0.64885835349559784 0.64885835349559784 0.64885184168815624 0.64886268228292465 0.86514989286661137 8.8676418364047986 0.64885184168815624 0.64885509759187487 0.64885184168815624 0.7570025101304052 0.64885727316141117 1.1895660459995268 6.0559505224227905 0.64885292947292939 0.64885400980710972 0.64885728061199266 0.64885400980710972 3.0280251652002335 2.7035493403673172 2.4872653931379309 0.64885836839675859 0.6488540098071115 2.1628731116652489 0.64885400980710972 0.64885836094617833 1.6221296042203901 0.64885836094617833 0.64885400980711017 0.64885184168815579 0.64885836094618188 1.1895790770649908 0.64886160194873799 0.64885292947292339 1.0814392566680906 0.86514881253242293 0.86515097320079803 0.75700575113296509 0.64885184168815557 0.64885400980710994 0.64885400980710994 0.6488616019487381 0.64885728061199188 4.0012975931167603 0.75700142979621876 0.86514881253242526 3.3524554297327844 1.0814306139945982 1.0814392566680913 0.64886268973350558 1.6221470013260839 0.97329619526863131 0.86515205353498459 0.6488637700676918 0.64886160939931847 0.97329511493444443 0.8651444911956786 0.6488616093993187 0.75700467079877853 1.0814414173364642 0.64885944873094537 0.7570025101304052 1.0814306139945982 0.64886052906513214 0.97329295426607132 0.64886268973350525 0.64885836839675903 1.297703683376312 1.1895617097616198 2.0546974986791615 0.75699381530284826 0.64885184168815513 0.75699381530284893 0.75699381530284893
leaf_count=6 762 23996 968 61 128 208 99798 9 18374 975 6 9 189 1451 9995 90 106 9 6 13 6 4417 36 6 99 3336 8 21 11 936 61 144 41 265 94 333 6 10 6 953 6 10 933 597 179 996 6 13 6 498 6 45 167 7 6 11 1701 6 8 10 14 85 380 800 201 6 17 38 221 16 47 11 298 53 8 7 6 188 21 8 10 118 10 9 8 58 6 6 145 6 6 2094 11 31 9 6 6 28 9 6 6 7 8 88 23 10 394 17 6 13 50 7 10 12 9 9 491 6 42 8 9 24 9 10 37 9 6 7 7 7 9 14 6 17 6 7 7 7 14 122 35 8 23 95 7 6 6 6 13 8 9 36 7 44 204 7 8 39 8 6 7 10 7 8 12 7 11 6 9 9 21 6 7 9 9 6 9 10 9 7 6 10 7 6 7 6 9 6 7 13 6 10 9 6 6 10 9 6 7 6 7 10 23 87 20 206 9 10 6 6 11 10 9 53 6 8 7 21 6 6 40 11 9 10 11 6 7 7 6 6 10 7 6 7 7 9 7 11 9 7 10 9 9 49 9 6 6 20 8 6 6 6 78 10 10 6 6 7 9 10 7 8 6 11 7 6 11 6 7 98 8 7 6 6 47 8 7 23 10 6 7 38 19 12 35 8 12 10 9 7 6 6 10 10 10 11 15 17 6 91 7 6 6 7 6 19 16 6 6 6 11 14 10 11 10 25 6 12 6 7 7 8 8 9 8 392 7 13 6 11 37 6 7 8 12 8 7 32 7 6 10 8 6 6 6 13 16 7 6 8 6 6 8 6 6 11 11 6 38 9 8 9 20 6 49 10 6 8 6 6 7 15 6 14 8 6 6 70 21 6 6 6 6 44 6 7 6 6 6 7 8 7 6 7 6 6 6 6 8 82 6 6 6 7 6 11 56 6 6 6 6 28 25 23 6 6 20 6 6 15 6 6 6 6 11 6 6 10 8 8 7 6 6 6 6 6 37 7 8 31 10 10 6 15 9 8 6 6 9 8 6 7 10 6 7 10 6 9 6 6 12 11 19 7 6 7 7
internal_value=-1.96099 -1.97006 -1.91286 -1.99493 -1.78715 -1.92598 -1.99663 -1.89406 -1.91028 -1.67448 -1.62709 -1.79695 -1.9515 -1.84654 -1.95372 -1.8564 -1.6422 -1.7614 -1.81356 -1.85005 -1.86665 -1.93808 -1.92783 -1.77158 -1.75622 -1.94004 -1.97445 -1.72941 -1.88325 -1.88555 -1.87158 -1.80687 -1.91845 -1.82017 -1.73947 -1.712 -1.71859 -1.6956 -1.92735 -1.5787 -1.5913 -1.59703 -1.93811 -1.79647 -1.83366 -1.93183 -1.67206 -1.80322 -1.76182 -1.9021 -1.86537 -1.7216 -1.78792 -1.91611 -1.8862 -1.69578 -1.88239 -1.86361 -1.75224 -1.78738 -1.73958 -1.79254 -1.93945 -1.58073 -1.60744 -1.72395 -1.87603 -1.86255 -1.84465 -1.8666 -1.84388 -1.64287 -1.70281 -1.72651 -1.55785 -1.65436 -1.70533 -1.69217 -1.71692 -1.68425 -1.73346 -1.76592 -1.902 -1.68009 -1.84661 -1.79516 -1.76583 -1.88065 -1.62649 -1.81917 -1.85338 -1.94843 -1.86038 -1.84986 -1.69932 -1.66384 -1.64495 -1.92961 -1.90892 -1.60689 -1.74753 -1.81368 -1.85449 -1.863 -1.80889 -1.82276 -1.9088 -1.76779 -1.73398 -1.81373 -1.88103 -1.89855 -1.8075 -1.69847 -1.92275 -1.7401 -1.91953 -1.88182 -1.89044 -1.69503 -1.8608 -1.90925 -1.80127 -1.68633 -1.77635 -1.82983 -1.93532 -1.84299 -1.89825 -1.78347 -1.76224 -1.77166 -1.78839 -1.85285 -1.74935 -1.63306 -1.82669 -1.89719 -1.75143 -1.65879 -1.62551 -1.70403 -1.82297 -1.85428 -1.83215 -1.64759 -1.89345 -1.91937 -1.77766 -1.57412 -1.91457 -1.77635 -1.68425 -1.59903 -1.88689 -1.76389 -1.66384 -1.60398 -1.91278 -1.90148 -1.55233 -1.57124 -1.75342 -1.85111 -1.74719 -1.911 -1.63306 -1.84352 -1.85111 -1.87993 -1.83691 -1.74563 -1.81006 -1.87795 -1.93833 -1.86087 -1.87275 -1.88573 -1.90445 -1.73118 -1.92719 -1.94504 -1.87049 -1.5868 -1.91903 -1.81622 -1.61889 -1.60173 -1.72168 -1.8549 -1.77358 -1.90907 -1.8052 -1.72651 -1.83275 -1.56476 -1.60123 -1.59068 -1.54792 -1.78402 -1.74376 -1.68693 -1.91565 -1.91911 -1.90593 -1.86967 -1.61437 -1.72853 -1.91107 -1.81996 -1.60608 -1.63625 -1.8052 -1.55287 -1.73682 -1.80294 -1.85904 -1.7485 -1.72257 -1.95386 -1.91032 -1.76389 -1.73481 -1.82203 -1.79296 -1.89472 -1.73682 -1.81622 -1.63306 -1.72028 -1.67667 -1.82032 -1.71156 -1.68539 -1.78133 -1.93085 -1.94399 -1.56975 -1.65615 -1.77842 -1.92819 -1.57957 -1.69062 -1.94323 -1.61437 -1.58017 -1.97937 -1.64312 -1.5346 -1.68913 -1.75012 -1.85111 -1.93936 -1.93606 -1.79659 -1.94488 -1.67044 -1.76389 -1.63994 -1.97322 -1.61437 -1.71156 -1.67667 -1.94114 -1.75342 -1.93787 -1.91667 -1.81339 -1.61852 -1.95079 -1.80127 -1.75895 -1.72976 -1.67667 -1.94983 -1.95233 -1.81622 -1.96988 -1.82705 -1.88282 -1.63306 -1.90478 -1.56397 -1.93833 -1.96517 -1.82203 -1.93833 -1.5469 -1.96128 -1.74376 -1.57109 -1.56432 -1.92743 -1.92743 -1.60035 -1.95802 -1.88282 -1.92088 -1.78133 -1.56823 -1.82427 -1.7035 -1.7035 -1.94923 -1.9654 -1.88465 -1.90478 -1.59324 -1.91341 -1.61437 -1.56714 -1.6368 -1.72651 -1.63306 -1.93066 -1.89975 -1.87688 -1.89995 -1.95253 -1.8293 -1.74376 -1.54172 -1.90241 -1.84352 -1.90241 -1.54418 -1.59158 -1.73772 -1.62299 -1.55487 -1.54529 -1.59914 -1.68338 -1.54443 -1.58186 -1.65922 -1.52434 -1.96574 -1.98368 -1.86453 -1.59458 -1.96013 -1.72028 -1.63306 -1.98529 -1.91728 -1.99701 -1.96013 -1.9716 -1.92534 -1.86453 -1.76389 -1.94705 -2.00063 -2.00002 -1.98194 -1.98069 -1.5313 -1.9682 -1.95616 -1.9647 -1.97196 -1.97918 -1.53494 -1.99981 -1.52776 -1.59738 -1.55705 -1.65175 -1.53832 -1.82427 -1.52161 -1.5498 -1.95577 -1.89472 -1.97046 -1.97046 -1.98692 -1.95525 -1.92316 -1.84239 -1.98529 -1.97798 -2.00542 -1.96013 -1.86453 -1.66325 -1.95577 -1.572 -1.97797 -1.95079 -1.94504 -1.58274 -1.58274 -1.58274 -1.58274 -1.93833 -1.67667 -1.58073 -2.01442 -1.93833 -2.01279 -1.93833 -1.51732 -1.5583 -1.99142 -2.01711 -2.01604 -2.01568 -1.51386 -2.01247 -1.51762 -2.00867 -2.0075 -1.52092 -2.00617 -1.52236 -2.0028 -1.52602 -2.00063 -1.52839 -1.99801 -1.99801 -1.52977 -1.53301 -1.53301 -1.99284 -1.53494 -1.53961 -1.53961 -1.54248 -1.98194 -1.98194 -1.98194 -1.63306 -1.54584 -1.50223 -1.50223 -1.50223 -1.50223 -1.50223 -1.50223 -1.50223 -1.50223 -1.50223 -1.50223 -1.50223 -1.50223 -1.50223 -1.50223 -1.50223 -1.50223 -1.50223 -1.50223 -1.50223 -1.50223 -1.50223 -1.50223 -1.50223 -1.50223 -2.02555 -2.02555 -2.02555 -2.02555 -2.02555 -2.02555 -2.02555
internal_weight=19946.5 19334.4 5857.85 13476.6 553.583 5304.27 13387.3 2356.53 2019.34 612.089 396.128 337.189 2947.74 392.666 2914.54 377.742 160.917 215.961 110.522 232.506 360.439 1660.85 1183.18 99.3832 33.1999 972.199 1253.69 50.0701 60.4516 277.71 210.986 127.068 46.5012 114.631 89.2181 50.719 64.345 46.826 611.436 296.745 96.5718 14.9238 172.811 85.9734 48.6642 571.856 40.9863 82.7292 40.9861 105.439 51.584 21.4123 42.392 293.715 91.3803 47.3666 190.547 176.489 46.177 34.9301 19.7902 14.8156 42.0673 90.8403 124.797 34.7139 3.78499 39.5801 35.0382 174.109 41.743 17.303 44.0142 7.57002 171.948 9.3003 30.9289 29.1986 25.3055 12.4364 9.30027 13.9504 71.9147 16.5459 46.1769 17.1947 14.5993 47.2583 32.3348 23.0344 33.1998 278.142 32.5509 15.14 8.32701 7.35373 2.37915 202.334 94.6246 11.355 3.46057 26.7112 44.6629 42.8244 16.9784 25.9542 68.346 7.24557 7.57001 4.54199 25.846 25.846 6.48856 4.32572 6.05597 4.75829 83.8103 30.7124 29.7392 8.21885 5.8397 4.86641 3.78499 39.0396 6.81299 13.3015 12.5445 4.65013 8.00254 15.897 34.3895 32.7673 28.8742 10.8143 3.89315 2.59544 10.8143 5.73155 4.542 39.0398 22.4939 16.5459 3.35243 11.8957 4.97456 3.89316 11.1387 7.46182 2.05472 87.3797 66.2912 4.542 2.48729 18.7089 25.3053 3.24428 7.35372 7.7863 51.692 46.0686 162.647 78.7283 2.70357 1.94657 5.08272 25.1972 18.168 2.48728 15.5725 12.4364 9.30026 4.65014 3.67685 4.21755 3.24426 15.4644 14.8155 14.1667 13.0852 1.73029 30.4961 14.0585 2.91985 10.7062 24.4402 3.78499 16.9785 15.3563 3.35243 4.97455 2.91985 68.9948 4.10942 3.028 2.05471 76.0247 24.0078 23.0345 52.0169 1.40585 1.40586 1.83843 64.8854 63.804 52.9898 25.4135 3.02801 4.00129 6.92111 3.028 27.7928 17.7355 2.05471 10.0573 3.13615 14.4911 7.13741 7.35372 2.05472 23.6831 11.7875 2.16286 2.91986 1.94657 2.91985 1.73028 3.13614 2.16285 2.16286 5.19085 4.21757 5.51528 2.16286 2.16286 3.24428 11.3549 8.32695 10.0573 1.83843 3.89314 4.65012 21.9531 2.70357 9.62466 6.05602 5.08274 3.67683 2.81172 83.9191 1.514 2.05472 1.29771 27.5763 29.0903 1.73028 27.36 3.028 1.73028 2.05472 5.40711 3.02801 1.62214 1.62215 3.35241 2.70357 20.6552 16.1132 4.00128 1.94658 12.1119 1.514 5.73157 4.97458 3.56872 25.4134 26.2786 1.62214 5.08268 3.13614 2.37913 2.59544 5.6234 19.2495 1.94656 5.62339 1.94657 1.94656 8.86775 24.6564 1.40586 4.10945 6.38045 1.73028 1.73027 1.73029 13.4096 3.5687 3.24427 1.62214 12.0039 1.40585 1.40586 1.40586 10.3817 9.40837 2.8117 2.8117 2.48729 1.51399 1.51401 13.9506 3.78502 2.27101 2.59543 19.6819 11.2468 9.51653 8.11068 4.65012 3.46056 1.40586 5.7316 1.83842 2.48728 1.83842 51.2599 8.86774 2.16286 1.40586 18.2762 17.0867 5.83973 2.81172 6.70488 4.9746 2.16287 7.67818 7.56995 10.8142 1.40585 1.83844 2.59541 1.29771 1.29772 9.84093 3.13613 11.8956 11.2468 10.4898 5.08269 2.81171 1.514 2.16284 4.54197 4.43382 3.89312 3.78497 3.89316 23.6831 19.5737 18.6005 17.9516 17.0865 3.46059 6.59666 8.86777 2.37915 11.355 1.514 3.13615 1.40585 5.83974 2.37916 3.24427 1.73028 2.0547 2.0547 16.1132 7.24553 4.97454 2.16285 2.81169 3.56869 5.62338 1.73027 1.40585 1.40586 1.62213 1.62216 2.37913 1.51399 1.40585 1.40586 1.40587 1.40587 1.40587 1.29771 1.29772 2.16287 10.1653 1.29771 8.86765 1.29771 11.2469 3.02801 4.97454 6.7048 5.94781 5.73153 4.86645 4.32568 3.67688 3.3524 3.13612 3.02802 2.91984 2.81173 2.48727 2.37916 2.27098 2.16286 2.0547 2.0547 2.05473 1.83844 1.83845 1.73027 1.7303 1.51401 1.51401 1.40586 1.29771 1.29771 1.29771 1.29772 1.29772 6.59675 6.48862 2.81173 8.21891 5.08274 2.37916 3.2443 2.4873 2.59545 1.62215 1.29772 4.00131 1.7303 4.2176 1.51401 1.40587 1.7303 2.16287 2.37916 2.70358 1.29772 1.7303 1.29772 1.29772 3.78497 3.67683 2.70355 1.94656 1.73027 1.40585 1.40585
internal_count=184447 178787 54168 124619 5119 49049 123794 21791 18673 5660 3663 3118 27258 3631 26951 3493 1488 1997 1022 2150 3333 15358 10941 919 307 8990 11593 463 559 2568 1951 1175 430 1060 825 469 595 433 5654 2744 893 138 1598 795 450 5288 379 765 379 975 477 198 392 2716 845 438 1762 1632 427 323 183 137 389 840 1154 321 35 366 324 1610 386 160 407 70 1590 86 286 270 234 115 86 129 665 153 427 159 135 437 299 213 307 2572 301 140 77 68 22 1871 875 105 32 247 413 396 157 240 632 67 70 42 239 239 60 40 56 44 775 284 275 76 54 45 35 361 63 123 116 43 74 147 318 303 267 100 36 24 100 53 42 361 208 153 31 110 46 36 103 69 19 808 613 42 23 173 234 30 68 72 478 426 1504 728 25 18 47 233 168 23 144 115 86 43 34 39 30 143 137 131 121 16 282 130 27 99 226 35 157 142 31 46 27 638 38 28 19 703 222 213 481 13 13 17 600 590 490 235 28 37 64 28 257 164 19 93 29 134 66 68 19 219 109 20 27 18 27 16 29 20 20 48 39 51 20 20 30 105 77 93 17 36 43 203 25 89 56 47 34 26 776 14 19 12 255 269 16 253 28 16 19 50 28 15 15 31 25 191 149 37 18 112 14 53 46 33 235 243 15 47 29 22 24 52 178 18 52 18 18 82 228 13 38 59 16 16 16 124 33 30 15 111 13 13 13 96 87 26 26 23 14 14 129 35 21 24 182 104 88 75 43 32 13 53 17 23 17 474 82 20 13 169 158 54 26 62 46 20 71 70 100 13 17 24 12 12 91 29 110 104 97 47 26 14 20 42 41 36 35 36 219 181 172 166 158 32 61 82 22 105 14 29 13 54 22 30 16 19 19 149 67 46 20 26 33 52 16 13 13 15 15 22 14 13 13 13 13 13 12 12 20 94 12 82 12 104 28 46 62 55 53 45 40 34 31 29 28 27 26 23 22 21 20 19 19 19 17 17 16 16 14 14 13 12 12 12 12 12 61 60 26 76 47 22 30 23 24 15 12 37 16 39 14 13 16 20 22 25 12 16 12 12 35 34 25 18 16 13 13
is_linear=0
shrinkage=1


Tree=1
num_leaves=140
num_cat=0
split_feature=132 166 106 185 135 132 168 190 167 166 167 109 164 304 168 186 130 106 181 248 135 167 164 307 189 282 168 176 238 186 238 300 180 159 168 194 294 316 320 168 164 277 136 154 198 255 166 166 246 230 261 300 189 166 294 164 248 241 159 241 248 158 126 248 314 158 319 262 314 295 325 144 276 154 136 149 106 189 106 246 148 181 117 161 154 224 249 198 238 246 158 161 250 106 166 168 126 148 154 262 159 316 159 261 316 304 248 106 295 189 259 158 317 284 246 106 144 277 238 244 294 331 149 154 303 111 106 161 159 136 261 158 284 168 106 161 168 158 117
split_gain=12400.3 4766.77 4631.48 1949.51 1219.08 939.43 670.486 488.906 501.138 238.947 129.516 127.854 106.193 80.9839 67.7417 46.1983 44.2104 40.9443 39.4556 39.4199 38.9238 32.1218 27.6619 29.1157 26.1237 32.3128 24.5409 31.5572 24.281 24.2013 24.0082 22.6109 22.2789 22.0422 26.6852 21.6263 20.796 20.4541 26.2083 19.5642 19.0679 18.5025 18.4893 18.3906 18.1737 17.9245 17.1744 16.7841 20.5462 16.5212 13.8763 12.6916 20.6484 12.5524 12.4019 12.3404 12.0953 18.3523 13.502 15.1372 12.0774 11.6532 16.4539 11.3972 10.9706 12.7006 15.351 11.2513 10.9505 10.9262 11.0113 10.6469 10.8982 10.1432 9.84777 28.8859 9.55906 17.4359 9.28315 9.0757 8.86964 8.57561 10.5236 13.8347 8.13096 8.05702 8.02306 12.6952 7.84018 7.82807 7.40247 6.85424 6.4726 6.14194 8.45456 6.21387 5.93564 5.65099 5.50427 4.96856 3.55834 3.45473 3.41478 1.82616 1.70434 1.39258 1.28724 1.24463 1.12035 1.01275 1.00237 0.968853 0.94147 0.939553 0.872714 0.813373 0.659103 0.546971 0.250949 0.243344 0.20864 0.207667 0.202201 0.149536 0.129362 0.0856641 0.0796419 0.0642128 0.0464404 0.0291129 0.000806054 0.000557865 0.000184951 6.72361e-05 3.17879e-05 2.81651e-05 2.52272e-05 2.0268e-05 5.36499e-06
threshold=1.0000000180025095e-35 -879.84499999999991 38.500000000000007 1.5000000000000002 34.000000000000007 6.5000000000000009 9965.0500000000011 1.0000000180025095e-35 4793.8850000000011 -2575.8499999999999 983.73500000000013 1.0000000180025095e-35 1.0000000180025095e-35 -158373.50999999998 174391.20500000005 5.5000000000000009 28122.675000000007 7.5000000000000009 20873.535000000003 0.18280156110201126 12.500000000000002 1963.4450000000004 1.0000000180025095e-35 7630.3649999999989 1.0000000180025095e-35 1.0000000180025095e-35 117598.50000000001 34191.205000000009 -531.95549999999969 7.5000000000000009 13995.062999999995 -90829.514999999985 18681.605000000003 0.61430787437715051 112592.07000000002 7.5000000000000009 0.051217534231475327 -1.4999999999999998 -21.499999999999996 219600.51000000004 16170.845000000003 2.5000000000000004 135.01000000000002 0.82063632108713747 12.500000000000002 -2905.7149999999997 -567.34499999999991 -10247.094999999998 -2.4999999999999982 1.0000000180025095e-35 8.5000000000000018 -19923.155000000006 1.0000000180025095e-35 -316.7299999999999 0.063107178294498883 8408.9150000000027 0.25274789843956036 -6.099999999999997 0.50006202299591651 0.50000000000000056 0.2027290161128322 0.57771641371530758 1391.5000000000002 0.017884588330681319 -16.499999999999996 0.66385888396503423 -17.499999999999996 139827.79500000001 61.500000000000007 -1.4999999999999998 -10.499999999999998 21.500000000000004 95.500000000000014 0.89373214591375294 77685.020000000004 363.57000000000005 14.500000000000002 1.0000000180025095e-35 20.500000000000004 -2.0500000000000003 5849.5000000000009 7372.3050000000012 -1.0000000180025095e-35 0.69324058460499038 0.60374556618974984 1.0000000180025095e-35 0.0080508883738895348 3.5000000000000004 8540.0265000000018 -1.3499999999999994 0.36460119674113184 0.44157466116978739 7.5000000000000009 15.500000000000002 -370.51999999999992 149451.79000000001 106.50000000000001 3336.5000000000005 0.1621440074611791 315334.19000000006 0.96087604827678763 -5.4999999999999991 0.17805476338735146 54.500000000000007 -9.4999999999999982 15797.920000000002 0.11844235237987974 136.50000000000003 -1.0000000180025095e-35 1.0000000180025095e-35 28.500000000000004 0.4157889833639799 -12.499999999999998 1.5000000000000002 -1.0000000180025095e-35 15.500000000000002 12.500000000000002 14.500000000000002 23195.488499999999 -0.20000000000000004 0.056945889079029907 -4.4999999999999991 1824.3500000000001 0.64391775636705828 -24.499999999999996 20586.150000000005 4.5000000000000009 0.53990801720630932 0.40542410705857285 18384.935000000001 36.500000000000007 0.6240268245752939 2.5000000000000004 183276.94000000003 28.500000000000004 0.27293399157956583 75300.685000000012 0.63210530526546982 818.25000000000011
decision_type=8 2 2 2 10 10 2 2 2 2 2 10 2 8 2 2 10 2 2 8 10 2 2 10 2 8 2 2 10 2 10 8 2 2 2 2 8 10 10 2 2 10 10 2 2 10 2 2 10 10 8 8 2 2 10 2 8 8 2 10 8 2 8 10 8 2 8 8 10 8 8 10 8 2 10 10 2 2 2 10 8 2 10 2 2 8 10 2 10 8 2 2 10 2 2 2 8 10 2 10 2 8 2 10 8 10 10 2 10 2 10 2 8 8 10 2 10 10 8 10 8 10 10 2 8 10 2 2 2 10 8 2 10 2 2 2 2 2 10
left_child=2 3 -1 9 7 6 -3 8 -4 -2 -7 18 17 15 19 90 -13 36 21 28 40 31 23 -6 37 30 107 -28 41 35 -26 -9 -22 47 61 -24 39 -18 -39 46 68 -11 -21 -40 55 49 -8 48 -25 63 -36 52 -12 -38 -51 -32 57 -19 59 78 -44 62 84 -30 65 66 -49 -68 69 -20 -71 72 88 126 80 -76 77 -58 91 -29 97 121 83 -83 -35 -50 87 123 -37 -53 -14 135 100 94 95 -93 -42 -72 -66 -17 106 -78 -96 124 -88 -84 -60 -27 120 133 -90 -52 -87 122 -79 -110 117 118 119 -100 129 -62 -63 128 -67 -121 -41 -122 -65 -106 -101 -113 138 -55 136 -59 -103 -138 -73
right_child=1 5 4 -5 22 10 12 11 -10 14 51 16 13 -15 -16 99 24 56 20 42 32 -23 29 33 25 26 27 79 45 -31 44 -33 -34 34 50 71 53 38 43 73 96 -43 60 -45 -46 -47 -48 64 85 54 111 89 -54 109 -56 -57 76 58 92 -61 81 113 -64 86 98 103 67 -69 -70 70 74 132 -74 -75 75 -77 101 114 -80 -81 -82 82 105 -85 -86 112 104 -89 110 -91 -92 93 -94 -95 102 -97 -98 -99 116 130 -102 134 -104 -105 108 -107 -108 -109 115 -111 -112 131 -114 -115 -116 -117 -118 -119 -120 125 127 -123 -124 -125 -126 -127 -128 -129 -130 -131 -132 -133 -134 -135 -136 -137 137 -139 -140
leaf_value=0.021022773708022521 0.24692461178083006 0.06585094182343719 -0.00017530281606089695 0.098075813014122618 0.12708745966325838 0.1857972378353793 0.36143834097882971 0.21901999618439913 -0.037783078475655943 0.073065676512721264 0.30156688148418315 -0.0041136375132281204 0.15397989988327604 -0.016128110749667395 0.068048017347311987 0.29133570271910331 -0.049093380227796926 0.20519108607518918 0.1984896252934823 0.12188132384102711 0.023034705982668081 -0.056633739925653993 0.13755973347387618 -0.019433908228542157 0.041653263921717767 0.024969812532842608 0.40151472776718167 0.19848918981085303 0.085536422396544992 0.24919192393173775 0.094378258853549432 -0.044261474770252773 0.26947430710441894 0.14987386748874493 0.22992431208345598 0.15017934536848043 0.17171033604481781 0.39369667513906065 -0.061790093996758992 0.43475919993812612 0.11173000830505761 0.32950471063639675 0.013945661911469938 0.28524895480526691 0.45876499823908939 0.19992244416191249 0.12066477382948157 0.34036806294188293 0.12603975461304778 0.26966532833300416 0.012804414129714795 0.096670895288329839 -0.063326675857657042 -0.061904479398724968 0.022306607635961238 0.38440115940506614 -0.019345352258401782 -0.062222784548196276 0.018411829762166793 0.27818492541843803 0.37793763526138685 0.30997652074008913 0.29532708541761793 0.32933357351425718 0.20313526413854854 0.36628932936282943 0.21341886354784723 -0.020199076337671762 0.19848918981085359 0.1984896252934823 -0.051827121379746981 -0.061959808306422288 0.22759272552043014 0.17138915790560197 0.28126756760783655 -0.019170862545395566 0.02226145869792746 0.26857237222552383 0.21381329348214112 -0.061850826246719809 0.13342051043022971 0.24124035970747307 0.35983169674175686 -0.063708082085163709 -0.064033377088052484 0.27660625113596093 0.27004727872945228 0.18319102633245582 0.017569098650098997 -0.063814405552602899 -0.062547599187465136 0.31701228296402861 0.12600459463375455 -0.062301797084420761 -0.062191794623113417 0.089761788676376478 -0.055267356095009108 -0.020242767679672091 0.32323186261328257 0.44479526185061374 0.07158267981548154 -0.062518791117124092 0.10745164129610371 0.26266945654035273 0.3187585465181339 0.25847454224525873 -0.062337166609455888 -0.061922523358281641 0.36268221505306097 0.017952177979203225 -0.064094970505914797 -0.064529137810521275 0.35208157194186196 0.25784282680304277 0.18078020764615291 0.43843593679712201 0.39817708301634624 0.31503045389262158 0.38151167675369085 0.34191488431320394 0.360784110639289 0.33958329930445236 0.34495703908392567 0.36747058428301405 0.33841433837248563 0.36300011499606694 0.40940421712797842 0.34293081574346057 0.34699475002931535 0.33255144235118156 0.44208912558131114 -0.062455549554151828 -0.062895869258074277 -0.062632464324634096 -0.06205217848377919 -0.06268325215282379 -0.062332367779587047 -0.061971627644772202 -0.06176034190983596
leaf_weight=5934.9765196293592 683.82751712948084 672.36535009741783 1344.7426840662956 505.51185061782598 12.826414860785006 135.9059256836772 1.0228440761566151 0.96865859627723694 4805.5626542493701 5.5791602581739417 0.89343290030956246 28.311347581446171 0.75604083389043797 682.57326175272465 19.060803689062595 1.2310235872864725 4.2890369817614555 2.44127456843853 0.62766887992620468 32.258163690567017 19.898325212299827 3883.1132692471147 37.837282843887806 1.2281246110796926 1.0522613152861566 0.62766469269991043 1.174726836383343 0.62766783684492189 0.73046703636646171 4.8630477413535109 1.0461113080382349 690.23984181135893 1.1507292464375485 1.2715518176555622 0.7409598454833034 1.0158791169524186 1.3843283802270892 0.83689846843481097 1.5691591054201155 0.76695914566516898 0.62766678631305595 0.96966287493705738 0.68797528743743797 0.62767201662063588 1.7784075662493704 34.406465068459511 6.2260063663125029 1.0748174041509626 1.1446958780288725 1.1363044232130044 0.71393065899610553 1.0163518786430357 0.94765748083591461 0.84618480503559046 1.2760390564799307 0.73228576779365528 2.5275277718901621 0.76437272876501594 0.67269514501094807 1.1188033521175382 0.73983588069677353 1.0136779099702837 1.5101661086082456 0.82790872454643094 0.8123417645692842 1.0124795436859129 1.175297483801842 1.2479832544922831 0.62766783684492011 0.62766887992620468 65.59087572991848 0.63820308446884189 1.120947904884815 0.69647109508514393 0.95209313929080863 71.553757846355438 1.9372130408883093 0.65837535262107849 0.98626720905303944 1.0522571280598629 0.83689113706350227 1.0677075758576391 0.77060519158840202 0.73920420557260502 0.88478189706802357 1.2722598165273664 0.8122384175658226 3.0793570801615715 0.67790038883686055 7.3156129047274572 1.2297991365194318 0.71568473428487933 0.86817415803670872 0.76891854405403126 0.76083084940910228 0.71156713366508484 141.87740125507116 22.282090716063976 0.84038403630256864 0.64464236795902219 0.80872802436351765 1.1233047991991045 0.64263743907213211 0.99469687044620503 0.99154189229011558 0.84029461443424225 4.1895413845777512 2.1144675463438034 1.1483265608549134 0.6737094223499297 1.2643660083413122 0.91141982376575448 0.78442661464214358 0.8415134772658347 0.67154705524444558 0.65266787260770787 0.82561877369880665 1.2866639047861097 0.85646895319223437 0.80333968997001459 0.89704233407974054 0.94248527288436867 0.9305565059185027 0.75721237808465947 0.94508643448352847 1.9126332253217695 0.69182870537042618 1.7365076690912244 0.92615336179733276 0.82159677147865295 0.64803793281316768 0.6657966747879982 0.68822719156742085 0.6773964986205101 2.4705386012792587 0.79632208496332169 1.2137116715312002 0.74556729942560185 1.0428113639354704
leaf_count=53993 5037 5968 12623 4380 103 1060 8 9 45916 46 7 270 7 6292 161 11 41 22 6 261 190 37104 305 10 10 6 11 6 6 38 10 6400 11 10 6 8 11 8 15 7 6 8 5 6 17 266 54 8 9 8 6 8 8 8 11 7 23 7 6 10 6 7 11 6 6 8 9 10 6 6 627 6 9 6 9 684 18 6 9 10 8 8 6 6 7 9 6 24 6 59 11 6 8 7 7 6 1356 213 6 6 7 10 6 7 7 6 38 20 9 6 10 7 6 6 6 6 7 9 7 6 7 7 7 6 7 15 6 13 7 6 6 6 6 6 23 7 11 7 10
internal_value=-0.000163702 0.105023 -0.0176683 0.181742 -0.0381952 0.0403582 0.0266469 -0.0398112 -0.0295603 0.234763 0.171769 -0.0525561 -0.009578 -0.0146085 0.161721 0.215401 0.0379664 0.0755978 -0.0534028 0.180556 -0.0351186 -0.0547085 0.161778 0.194918 0.105932 0.162244 0.0743127 0.186073 0.209167 0.13445 0.269018 -0.0438925 0.0365073 0.226326 0.159338 0.12185 0.154939 0.0274493 0.135664 0.197467 -0.040052 0.111036 0.137882 0.0373649 0.336283 0.221969 0.154639 0.261201 0.168982 0.269997 0.0260909 -0.0156464 0.113747 0.0432733 0.138822 0.2138 0.0382594 0.0682422 0.0440234 0.0948627 0.227056 0.221955 0.158164 0.293645 0.290827 0.239277 0.169079 0.0931062 -0.0274004 -0.0282731 -0.0291526 0.0296697 0.0829974 0.341512 -0.0300388 -0.0152257 -0.00466473 0.0646354 0.0614945 0.0354196 -0.0421462 0.255803 0.206262 0.116487 0.0621039 0.241263 0.305662 0.256928 0.0282051 -0.044238 0.0198879 0.0323826 -0.0124625 0.0735025 0.110391 0.203715 -0.0545318 -0.0438182 0.336145 0.369245 -0.0336605 -0.0403536 0.0154866 0.322454 0.344253 0.306961 -0.0511655 -0.0420332 0.3539 -0.0376441 -0.0355921 -0.0398291 0.305393 0.305913 0.224242 0.390135 0.352704 0.346117 0.355181 0.34884 0.339225 0.35645 0.326719 0.347346 0.352832 0.356763 0.422735 0.349012 0.338659 0.325009 0.443439 -0.0636538 -0.0621439 -0.0622281 -0.062197 -0.0624577 -0.0623131 -0.0621951 -0.0618361
internal_weight=19971.1 2849.3 17121.8 1303.2 11186.8 1546.11 1400.03 11097.1 6150.31 797.683 146.079 4946.81 727.662 687.083 113.856 4.50954 45.84 40.5793 4900.97 94.7949 326.653 4574.32 89.6768 40.5281 17.5286 10.2058 5.59678 2.85465 56.7487 49.1487 4.60907 691.209 21.0491 27.7017 9.48435 44.2856 12.9857 7.32277 3.03373 9.40411 305.604 6.54882 38.0463 2.19683 3.5568 50.1998 7.24885 18.2173 4.42951 15.7934 3.03211 10.1731 1.84109 3.58162 2.41234 1.7784 27.5936 16.2458 13.8045 7.2654 5.78811 6.45225 3.6665 13.381 13.7878 6.45036 3.4981 2.42328 163.099 162.471 161.843 6.44834 4.07909 2.15526 161.216 72.5059 11.3478 3.85745 6.1466 1.67992 88.7099 5.10013 3.41781 1.80691 2.15633 3.20138 12.6506 5.59063 2.95815 8.33196 1.98584 5.16033 6.53914 3.59964 2.83072 1.42725 142.505 87.873 7.33745 2.5237 5.67096 7.49034 1.40347 2.95226 7.05992 1.6109 4.86224 2.74213 6.24768 2.19729 1.94227 2.29115 2.05669 2.78575 1.32992 1.80099 6.52511 5.69949 4.41283 3.55636 4.44669 1.68232 1.94423 2.51127 1.95757 2.71597 1.45879 2.63355 1.75406 1.81314 1.29268 1.57722 2.36924 1.52358 5.55312 1.56069 3.08258 1.95928 1.68101
internal_count=184447 24130 160317 10325 106324 13805 12663 105611 58539 5945 1142 47072 6695 6333 908 41 437 362 46635 747 3122 43513 713 315 167 97 53 27 442 398 44 6409 201 212 73 360 112 70 29 81 2921 54 305 21 34 388 62 139 34 122 25 82 15 31 19 17 250 146 124 65 44 48 28 103 105 49 27 19 1559 1553 1547 55 33 19 1541 693 104 35 55 16 848 39 26 14 17 24 97 43 24 67 18 46 59 32 25 12 1362 840 56 23 51 69 13 22 54 12 44 26 48 20 16 19 15 20 12 15 50 43 34 27 33 13 14 19 15 21 13 20 13 13 12 13 22 14 51 14 28 18 16
is_linear=0
shrinkage=0.0544556


Tree=2
num_leaves=94
num_cat=0
split_feature=132 106 166 185 135 132 167 135 166 167 217 203 106 174 130 253 178 216 252 245 255 160 249 274 259 124 154 124 112 135 159 148 237 237 130 205 306 140 293 157 274 148 240 106 167 148 181 148 135 102 290 160 259 242 159 333 248 333 153 148 205 130 160 248 248 260 304 253 293 182 253 258 248 306 161 182 160 124 290 192 106 112 109 302 259 285 318 154 258 253 297 124 186
split_gain=10386.5 4259.68 3396.1 1243.43 1027.61 707.871 364.457 258.649 148.757 91.7726 65.0535 46.9526 44.9866 41.6024 36.4214 35.3364 32.6337 21.2205 20.895 19.0465 17.9909 19.8512 17.0577 19.3374 17.6736 17.0054 16.9866 16.4708 16.4401 15.094 18.67 14.4688 13.8611 16.1943 13.6 13.3048 12.7865 12.2987 13.3431 22.53 12.2884 11.7519 15.2658 11.5451 11.3648 17.2748 15.3576 11.4819 10.4739 9.74794 9.64999 8.98795 8.4963 7.85361 8.61043 7.74056 7.58101 7.04078 7.08032 13.3857 12.618 5.98686 5.37259 5.25617 8.22544 5.09226 4.86742 4.57924 4.37097 4.25585 4.0017 3.63022 3.03695 2.40415 1.28943 2.22426 1.19037 0.945227 0.921297 0.903207 0.824134 0.449716 0.14202 0.108706 0.00113061 0.000599098 0.000573283 0.000253865 0.000178773 6.37179e-05 4.58167e-05 2.06289e-05 2.92481e-06
threshold=1.0000000180025095e-35 38.500000000000007 -879.84499999999991 1.5000000000000002 34.000000000000007 6.5000000000000009 1889.1550000000002 12.500000000000002 -3668.3499999999995 983.73500000000013 1.0000000180025095e-35 1.0000000180025095e-35 6.5000000000000009 1015.8850000000001 28122.675000000007 -1161.1849999999997 1486.5500000000004 1.0000000180025095e-35 6.5000000000000009 -0.84999999999999976 -1859.8399999999997 0.79808916068381619 0.60053293883006387 4.5000000000000009 31.500000000000004 -8586.1699999999983 0.90966243100238708 -53222.874999999993 -668.49999999999989 51.500000000000007 0.5627698179561722 1652.5000000000002 65439.714499999995 25520.408000000003 53054.790000000008 4618.5000000000009 28708.955000000005 5.1650000000000009 -0.046799008542648825 0.55937632499969414 32.500000000000007 1446.5000000000002 -3.3999999999999986 69.500000000000014 6561.3250000000016 889.50000000000011 119188.53000000001 1391.5000000000002 19.500000000000004 2.5000000000000004 3.5000000000000004 0.63449747845735838 33.500000000000007 8.7500000000000018 0.9290382058835388 -1.4999999999999998 0.011236591550413655 9.5000000000000018 0.85043190055516371 1840.5000000000002 3369.5000000000005 14269.545000000002 0.13416237416047314 0.050792691008734521 0.037681994950106636 17.500000000000004 10250.975 -7037.9899999999989 -0.00021593321777197043 30488.615000000002 -11616.509999999997 13545.195000000002 0.3472047456146593 44103.005000000005 0.83036422380057717 107153.55000000002 0.83745461883629024 -1.0000000180025095e-35 11.500000000000002 1.0000000180025095e-35 77.500000000000014 -334.49999999999994 1.0000000180025095e-35 -13.499999999999998 13.500000000000002 1.5000000000000002 22.500000000000004 0.13829044736963708 11286.670000000002 7098.7350000000006 -1.4999999999999998 -17590.654999999995 6.5000000000000009
decision_type=8 2 2 2 10 10 2 10 2 2 10 10 2 2 10 10 2 8 8 8 8 2 10 8 10 8 2 8 8 10 2 10 8 8 10 10 10 10 10 2 8 10 10 2 2 10 2 8 10 2 10 2 8 10 2 10 10 10 2 8 10 10 2 10 10 8 10 10 10 2 8 8 10 8 2 2 2 10 8 2 2 8 8 10 10 10 8 2 10 10 10 8 2
left_child=1 -1 3 8 6 -4 -3 -8 -2 -7 14 12 13 -10 -9 -14 18 -17 -16 -6 25 40 23 24 -20 27 44 -21 51 30 36 56 33 43 -35 41 55 38 53 -40 -22 -11 -43 -25 45 -23 65 -48 -41 -39 -45 -19 -24 54 -18 -27 -32 58 63 77 -61 81 -50 64 69 -46 -58 -63 -12 -13 -33 -30 74 -68 -65 -76 -52 -60 82 -71 -80 83 -67 -38 -72 -29 87 -37 -89 92 -90 -92 -64
right_child=2 4 5 -5 19 9 7 10 11 35 68 57 15 -15 16 17 37 28 22 20 21 26 52 32 -26 29 -28 85 71 -31 31 70 -34 34 -36 86 61 49 39 48 -42 42 -44 50 46 -47 47 -49 62 -51 76 -53 -54 -55 -56 -57 66 -59 59 60 -62 67 89 72 -66 78 73 -69 -70 79 84 -73 -74 -75 75 -77 -78 -79 80 -81 -82 -83 -84 -85 -86 -87 -88 88 90 -91 91 -93 -94
leaf_value=0.018873321631950372 0.19407301865469548 -0.01326136503826077 0.023770195551757651 0.083216273481714537 -0.062906954542147217 0.14907601818395913 -0.042636075937943892 0.0041005334208453854 0.21523263164270467 -0.061345535199961845 0.27832349156439962 0.13698057222699123 0.12883006939139569 0.12788032760852891 0.45859253330301519 0.039149341342805871 -0.022873399447492605 -0.063236756595486665 0.087715611965702919 0.24363863078406306 0.12531990178163444 -0.062434462530074002 0.39744550258555045 0.23104239534951393 0.45548780630715707 0.16592008413049159 -0.061829731654758004 -0.060223951815941805 0.17033240987440559 0.20242296973525645 0.023694198732490891 0.081805277873434279 -0.038949036539257367 0.32178502992937624 0.07691098289263118 -0.060284299243011916 0.2650807710192864 -0.036043595225804657 0.18656476802239819 0.1755461241842966 0.073219171132611588 -0.013682678393657475 0.25114742457878614 0.18307604163640881 0.15786305211521912 0.19424433755598344 0.20016665868264299 -0.061839753961681447 0.1120768986819845 0.12905214847661958 -0.059449307349143228 0.16613212551962173 0.15164915870759452 0.18354130547652389 0.17221912657811678 -0.061626372341871814 0.069546464013640452 0.077904129300157221 0.27017115966554439 -0.065074327668228224 0.17727018946892109 0.2323908684738985 -0.05932808969966373 0.25665199815229123 0.06384898495303673 0.27975972595147269 0.28680276814240024 0.061705402119753457 0.45876499823908939 0.20719564965973519 -0.063395419816939691 0.30289647639633938 0.15326065626483804 0.17155352596633938 0.1530430240693576 0.25803883890160595 0.021611719962386373 0.20321797326955643 0.28009991012997215 0.26792421525185078 0.33546059575069731 0.29534577087601593 0.25204839215465069 0.24261546678355836 -0.060881355756625115 -0.062213232037519856 -0.059569708343842571 -0.060760006974529643 -0.061836859649560205 -0.059971075662181898 -0.061187989029451342 -0.061508965178212145 -0.059459196992410458
leaf_weight=6028.6657963618636 736.74886844307184 1479.1684823259711 1428.150879047811 542.41843370348215 1.3692354038357732 153.94925981014967 9088.0975551232696 156.22212135046721 27.418734058737755 1.3367699757218345 0.77550385147333145 1.2942138463258839 76.388810105621815 33.374382145702839 0.50724923610686978 22.822595492005352 7.1533433496952075 0.95980207622051217 0.71434719115495393 0.68428619205951691 28.916232295334339 1.0535474419593778 0.80187447369098719 0.7233632355928491 0.71435634046792984 0.90977296978235245 0.75649833679199296 0.87833184748888038 0.89392668753862325 20.063334122300148 1.2286036312580106 0.71895505487918854 2.563486903905865 1.3693110346794095 1.1537641063332555 0.66050785779952992 1.4300779104232786 8.9888990893959981 4.2510856911540049 0.89034081995487202 21.631002604961395 1.0946494415402415 1.3323277011513708 0.64809264987707171 0.94097054004669178 2.241780512034893 1.1916946023702617 0.74178776890039455 0.61281778663396869 1.1092015728354443 2.1547231078147893 0.90950681269168854 0.73838103562593471 0.64686164259910572 0.67690079659223545 0.74187801778316298 0.79518211632967029 1.0997692495584477 1.4096157848834994 1.0748525336384775 1.2946206778287885 0.88440653681755066 1.3165956735610969 11.394044250249857 1.2236358001828191 0.91520376503467593 0.89686853438615788 0.83558022230863549 0.70991425216197857 0.96096036583185229 0.8419687896966942 1.5754346549510954 0.9592512249946602 1.1035572215914728 0.95950639247894409 1.2970421165227888 0.64295360445976246 0.97508214414119621 1.3709620237350466 2.2068058401346207 1.5846385508775709 1.1696450710296633 1.1549011170864103 1.0179354995489123 1.1662430465221403 0.782513327896595 0.62368222326040257 1.0368242859840391 1.0196008309721944 0.64398357272148121 0.72418645024299622 2.2411186024546632 0.71917717158794392
leaf_count=53993 4625 13937 12663 4380 10 1060 89764 1520 183 11 7 8 539 227 5 178 69 7 7 5 206 8 7 7 7 6 6 8 6 134 10 5 25 11 11 6 9 88 38 8 163 9 9 6 6 16 8 6 6 10 21 6 6 6 6 6 6 7 9 7 8 6 13 70 8 6 6 6 7 6 6 11 6 7 6 8 6 6 9 14 12 8 7 6 10 6 6 9 8 6 6 18 7
internal_value=-0.000232518 -0.0163708 0.0888089 0.146407 -0.0359271 0.0356432 -0.0374848 -0.0413435 0.183372 0.139024 0.0181514 0.141983 0.131577 0.167278 0.0155256 0.110618 0.0604374 0.059399 0.129786 0.131716 0.134417 0.117352 0.116143 0.0925772 0.271603 0.163922 0.177948 0.0277764 0.165918 0.173367 0.130941 0.0689328 0.0649429 0.104739 0.209808 -0.0146529 0.190838 0.0277469 0.0550093 0.101801 0.103024 0.063136 0.1317 0.041154 0.19415 0.112182 0.228341 0.0996469 0.0156554 -0.0179091 0.00129108 0.048362 0.279614 0.00845569 -0.00600824 0.0637122 0.13194 0.207379 0.213064 0.155347 0.0673366 0.230175 -0.0275804 0.226584 0.183933 0.270044 0.179512 0.149471 0.36456 0.216865 -0.0240415 0.254907 0.243182 0.223224 0.249501 0.213394 -0.0408201 0.242795 0.291047 0.249502 0.309781 0.268545 0.2643 0.255739 -0.0619354 -0.0611612 -0.0610819 -0.0612479 -0.0613746 -0.0595178 -0.0615345 -0.0614306 -0.0593744
internal_weight=19955.2 16893.4 3061.83 1469.66 10864.7 1592.17 10764.7 9285.55 927.241 164.019 197.449 190.493 164.343 60.7931 195.963 103.55 39.7411 27.1613 12.7319 100.018 98.6484 62.4992 12.2247 10.6844 1.4287 36.1491 11.952 2.34513 4.33867 33.804 13.7407 6.75138 9.25569 6.69221 2.52308 10.0697 6.9893 27.0092 16.9111 8.434 50.5472 3.76375 2.42698 4.16913 11.1955 3.29533 7.90016 1.93348 4.18292 10.0981 3.44577 1.86931 1.54026 8.47711 7.83024 1.65165 4.02421 26.1494 25.0496 4.75417 2.36947 5.33765 3.29257 20.2955 5.68562 5.96668 2.79561 1.71999 1.48542 4.46198 2.72717 2.46936 14.6098 2.00043 13.6506 2.25655 2.79768 2.3847 5.02571 3.16777 2.9556 3.61766 2.0701 2.44801 2.00821 1.66085 6.30592 5.68224 5.02173 2.67976 3.98491 2.96531 2.03577
internal_count=184447 160317 24130 10325 106324 13805 105611 91674 5945 1142 1910 1320 1157 410 1896 747 376 208 119 713 703 453 114 101 14 250 84 19 30 231 97 50 87 62 22 82 47 257 159 78 369 29 18 40 78 24 54 14 40 98 33 13 13 81 75 12 29 163 156 30 15 35 32 126 36 40 19 12 14 28 21 17 90 13 84 14 27 15 34 20 21 23 13 15 16 14 53 47 41 26 32 24 20
is_linear=0
shrinkage=0.0525434


Tree=3
num_leaves=66
num_cat=0
split_feature=191 217 204 191 163 217 190 168 204 168 311 311 238 163 272 108 135 196 106 298 112 113 106 159 241 258 112 153 112 314 279 148 236 161 134 244 108 237 159 134 108 122 241 316 265 177 174 135 314 155 155 255 238 124 130 255 177 289 191 266 234 122 155 119 119
split_gain=10417 3746.94 1794.49 791.796 176.393 172.212 161.912 139.994 125.055 75.724 43.5255 39.5346 39.4694 29.5402 23.2703 22.8164 21.8032 21.7882 21.2774 14.6899 16.1486 21.2221 14.3987 15.4013 13.7432 13.6231 11.6702 12.0817 11.1364 10.4087 10.1708 9.52152 9.55253 6.60697 11.9021 7.77596 8.87065 6.87859 6.44938 6.31554 5.52206 9.34224 5.21115 5.12676 4.58605 4.35751 8.68255 3.9858 3.69722 6.36296 2.95235 2.7447 2.05312 1.52601 1.42468 1.05899 1.38414 0.78988 0.652873 0.532994 0.519323 0.264378 0.24162 0.161177 3.08717e-06
threshold=2.5000000000000004 1.0000000180025095e-35 39.500000000000007 10.500000000000002 0.15542425138202581 1.0000000180025095e-35 1.0000000180025095e-35 10418.840000000002 12.500000000000002 16736.765000000003 -1.0000000180025095e-35 -1.0000000180025095e-35 16473.612000000001 0.17471140884817152 80.500000000000014 45.500000000000007 24.500000000000004 3.5000000000000004 34.500000000000007 -6645.7950000000001 -913.49999999999989 50.500000000000007 33.500000000000007 0.49221649038424636 1.5000000000000011 9341.4300000000021 -1292.9999999999998 0.9256594127184552 -670.49999999999989 -4.4999999999999991 3.5000000000000004 3501.5000000000005 -2.7999999999999985 0.11118917763855989 -1292.9999999999998 1.0000000180025095e-35 33.500000000000007 82048.329500000007 0.86151167746012403 -121.49999999999999 4.5000000000000009 2.5000000000000004 -0.09999999999999945 -1.0000000180025095e-35 9413.3250000000025 78309.795000000027 657.20500000000004 19.500000000000004 -15.499999999999998 0.56568719286850555 0.18065789118685677 480.26500000000004 12182.778000000002 -1.0000000180025095e-35 25459.965000000004 -2108.8199999999997 139196.39500000005 7.5000000000000009 10.500000000000002 7125.9750000000013 -2146.8655000000003 -1.0000000180025095e-35 0.2589685650424714 197239.95000000004 376546.14500000008
decision_type=2 10 10 2 2 10 2 2 10 2 10 8 10 2 10 8 10 2 2 10 10 10 2 2 10 8 10 2 8 8 10 10 10 2 8 8 10 8 2 10 10 10 10 10 10 2 2 10 8 2 2 8 10 8 10 10 2 10 2 8 10 10 2 8 10
left_child=1 -1 3 -2 -3 6 -5 10 -8 13 -6 -7 -10 14 16 22 19 18 -18 20 21 57 31 29 -25 -21 38 28 30 33 42 32 -11 34 -24 36 37 39 45 47 44 -42 -28 -22 -32 46 -20 -35 49 -30 -49 54 -47 -27 -46 -52 -57 -4 62 -34 -50 -60 -54 -58 -12
right_child=2 4 9 5 7 11 8 -9 12 15 64 -13 -14 -15 -16 -17 17 -19 26 25 43 -23 23 24 -26 53 27 -29 48 -31 40 -33 59 35 -36 -37 -38 -39 -40 -41 41 -43 -44 -45 51 52 -48 50 60 -51 55 -53 58 -55 -56 56 63 -59 61 -61 -62 -63 -64 -65 -66
leaf_value=0.035931346141691071 -0.013499784670192503 0.18187084178853977 0.021800614158672318 -0.034963225564779592 0.18238582794147412 0.13962171165520065 -0.050922657877497932 0.078079585232536164 -0.0017574914361793844 0.1477318580956401 -0.059994536984340853 -0.058720140960005107 0.091247524354698281 0.096244489536900471 -0.062150439390214668 0.095008902312509011 0.24652609628821934 -0.021779756704095796 0.25158175816874523 0.20839439806952401 0.43510707923888331 0.31965597593948086 -0.062294238252314491 0.072318690840717889 0.17452435764011734 0.45876499823908939 -0.0623081941172553 -0.061619812115499356 0.22959488775706349 0.07660229263727715 0.086434903217821671 0.075236722409715767 0.32211855614964807 0.3588381591567309 0.21042626344985008 0.048213478324713552 0.067807965137388557 0.11088113655528005 0.086398666845711389 0.10205599834863284 0.17212538259327742 -0.061662945358934948 0.090553705106658514 0.23828901634547883 0.21926889861113485 0.30485943951714362 0.080312122017961465 0.16855643729523292 0.27811784247975652 0.052624343564740772 0.23145606972163182 0.28041180152484463 0.23548846765401621 0.38133292394073209 0.13384268763501925 0.32313226405759293 0.23262535407396803 -0.059377930730838871 0.27615635920064191 0.37609124559743029 0.23195873583963594 0.23789726535876005 0.20305631259174323 0.26207502153598777 -0.059860030886124224
leaf_weight=7021.4901780337095 4011.4962315633893 488.36253154277802 0.63982611894607611 4196.0864389464259 68.203345559537411 17.372817628085613 3782.1810596212745 93.450769804418087 42.631292670965195 0.99612965434789735 1.3834152817726129 3.2238296195864704 17.138743579387665 8.5028817728161794 0.89465462416410346 73.506726808845997 14.514465317130087 1.2606282308697689 1.8005893826484594 1.3478788435459117 0.73675011098384857 0.82101373374462117 0.7857552245259285 13.382843703031542 4.7848061174154273 1.0052793622016905 1.0763419792056086 0.78120073676109392 1.4005310088396075 2.9637952893972423 1.0359439849853513 0.76101282238960255 1.2180491089820855 0.74248391389846702 0.94346787035465485 0.93171186745167212 1.1768516749143607 1.4687962085008628 1.0160156637430198 0.9329090863466164 1.0943644195795057 0.78736687451601017 1.3428780138492564 0.69678433984518029 1.0852418541908364 1.4130468741059301 1.4425759091973303 1.5557860061526279 1.062903977930546 0.89029125869274128 4.695470824837682 1.054932683706274 1.0321547240018847 2.1193822547793393 1.0292099788784979 0.94482649117708506 1.0412844568490978 0.64463436603546143 0.91685111820697773 0.834094077348709 1.7377343326807082 1.0246270447969434 1.5241358727216718 0.954020455479622 0.68275799602270115
leaf_count=59743 38075 2761 6 42098 448 148 38691 651 407 8 12 32 149 63 7 525 112 9 11 11 7 7 6 95 33 10 8 6 8 21 7 6 9 6 6 7 8 9 6 6 7 6 9 6 6 10 10 10 7 6 27 7 6 18 6 7 6 6 6 7 10 6 8 6 6
internal_value=-0.000273377 0.0470084 -0.0299095 -0.0322893 0.166284 -0.0416426 -0.0420275 0.11979 -0.0497429 0.13675 0.17526 0.108577 0.0249112 0.185332 0.200718 0.11228 0.205584 0.190012 0.196846 0.283963 0.204779 0.113093 0.143158 0.13337 0.0992366 0.346619 0.167474 0.137311 0.14874 0.165773 0.11232 0.239013 0.2799 0.182114 0.0865027 0.19356 0.203582 0.216536 0.210119 0.230816 0.148 0.0743021 0.0225435 0.339442 0.180977 0.223851 0.1754 0.242909 0.209586 0.160818 0.233544 0.211879 0.250435 0.406245 0.177688 0.246785 0.271266 -0.0189406 0.233337 0.344056 0.249477 0.255965 0.216151 0.246706 -0.0599501
internal_weight=19916.1 7673.57 12242.5 12070.1 652.083 8058.63 8038.04 163.72 3841.95 172.354 70.2695 20.5966 59.77 57.7331 49.2302 114.621 48.3356 40.324 39.0634 8.01155 3.53901 2.10547 41.1141 37.3048 18.1676 4.47254 24.5489 14.3789 13.5977 19.1372 8.50628 3.80929 3.04827 16.1734 1.72922 14.4441 13.5124 12.3356 10.17 10.8668 6.08706 1.88173 2.41922 1.43353 4.20533 9.15398 3.24317 9.93387 5.09146 2.29082 9.19139 3.16938 5.91082 3.12466 2.11445 7.6356 2.94013 1.28446 4.49777 2.05214 2.80064 1.94148 2.55629 1.9953 2.06617
internal_count=184447 63621 120826 119600 3878 81525 81345 1117 39247 1226 466 180 556 418 355 808 348 277 268 71 32 19 283 253 128 39 156 93 87 125 56 30 24 104 12 92 85 77 63 68 39 13 17 13 26 57 21 62 31 14 56 19 36 28 12 46 19 12 26 16 17 12 14 12 18
is_linear=0
shrinkage=0.0520174


Tree=4
num_leaves=52
num_cat=0
split_feature=191 135 135 113 217 132 316 298 187 316 109 157 161 177 278 298 126 247 277 134 277 148 298 317 157 161 163 285 241 102 177 327 150 150 154 250 315 248 106 126 112 243 171 126 163 247 161 106 191 134 291
split_gain=9280.8 1033.24 254.713 105.216 55.0122 25.5783 23.6185 17.3225 17.0656 26.7703 19.9926 20.3829 23.6078 18.3403 20.8566 16.3523 14.2605 13.9187 19.8218 23.3336 10.3422 9.96335 13.1668 9.89344 15.3162 9.03303 19.4873 8.72172 8.56938 8.51341 15.589 7.73991 7.63974 7.5817 6.87983 6.80895 8.19516 4.15267 4.10202 2.9168 1.40655 1.14217 0.979668 0.702365 0.00279345 0.000598533 0.00012567 0.000115076 8.35938e-05 3.13083e-05 1.15166e-05
threshold=3.5000000000000004 13.500000000000002 42.500000000000007 40.500000000000007 1.0000000180025095e-35 8.0000000000000018 -23.499999999999996 -6231.8599999999997 5.5000000000000009 15.500000000000002 1.0000000180025095e-35 0.20216998318024862 0.38257071716110719 9333.845000000003 6.5000000000000009 -117.60999999999986 2128.5000000000005 0.53320349230264263 18.500000000000004 -1582.4999999999998 20.500000000000004 1630.5000000000002 -7641.085 13.500000000000002 0.37803173632206816 0.69712082210143567 0.033312698378405697 1.0000000180025095e-35 -2.6999999999999984 3.5000000000000004 132535.65000000005 -1.0000000180025095e-35 5.5000000000000009 6.5000000000000009 0.86303517990025569 9.5000000000000018 -34.499999999999993 0.11576686626330067 45.500000000000007 859.50000000000011 -1521.4999999999998 -1.5499999999999992 3885.1250000000005 1609.5000000000002 0.2563081302700661 0.45585942882095248 0.22633103702333426 41.500000000000007 9.5000000000000018 -790.49999999999989 5.5000000000000009
decision_type=2 10 10 10 10 8 10 10 2 8 8 2 2 2 10 10 10 10 10 10 10 8 10 8 2 2 2 8 8 2 2 10 8 8 2 10 8 8 2 8 8 8 2 8 2 10 2 2 2 10 10
left_child=-1 -2 3 4 5 8 15 -6 13 16 11 -11 -13 14 25 35 -10 -15 29 -20 33 23 27 -8 -25 32 -27 -23 -24 37 -31 -7 39 -12 45 36 -5 -19 -28 -3 -39 -38 -29 -9 48 46 -18 49 -43 -41 -49
right_child=1 2 -4 6 7 31 21 43 9 10 20 12 -14 17 -16 -17 34 18 19 -21 -22 22 28 24 -26 26 38 42 -30 30 -32 -33 -34 -35 -36 -37 41 40 -40 47 -42 44 -44 -45 -46 -47 -48 50 -50 -51 -52
leaf_value=0.042143885892983998 -0.035999597276100331 0.046181300613659597 0.11895514868473367 0.15406859083974039 0.070151611514254336 0.2658877929019724 0.26212718408188213 0.29638313838458408 0.057061535693953301 0.45876499823908939 -0.062275557762201873 -0.062530917840590269 0.31260464732640747 -0.005118061071894363 0.28555478065081502 0.30207058937589049 -0.062678511184214303 0.095630088696355836 -0.061889808241200286 0.26171283137822693 0.20627533903629067 0.17946069094052824 0.31344817704711558 -0.06321081467439138 0.22604481726682288 0.31092733314696835 -0.062546534785770477 -0.063486085026664016 0.09999229585520393 -0.061921271029677358 0.29356651226728692 0.060156134751861878 0.15873266810073128 0.14006562618992358 0.084497883378232816 0.11886445091378965 0.01500040239497339 0.027969274381036184 0.11715039989184101 -0.062357632415408933 -0.061965494747313769 -0.063032823667014834 0.021493049174814618 0.36045947583011845 -0.066497380458915789 -0.063399454703857078 -0.061876470169465514 -0.06205719104572667 -0.062282003728986138 -0.062888121386903445 -0.061743233502429599
